//Numpy array shape [784, 5]
//Min -0.062500000000
//Max 0.062500000000
//Number of zeros 1974

#ifndef W2_H_
#define W2_H_

#ifndef __SYNTHESIS__
weight2_t w2[3920];
#else
weight2_t w2[3920] = {-0.0625, 0.0625, 0.0625, 0.0000, 0.0000, 0.0000, 0.0000, 0.0000, 0.0625, -0.0625, 0.0000, -0.0625, 0.0000, -0.0625, 0.0000, 0.0000, -0.0625, 0.0625, 0.0000, -0.0625, 0.0000, 0.0625, 0.0000, -0.0625, 0.0625, 0.0000, 0.0000, 0.0625, 0.0000, 0.0000, 0.0625, 0.0000, 0.0625, 0.0625, -0.0625, -0.0625, 0.0625, 0.0625, 0.0625, 0.0000, 0.0000, -0.0625, 0.0000, -0.0625, 0.0625, -0.0625, 0.0625, 0.0000, -0.0625, 0.0000, -0.0625, 0.0000, 0.0000, -0.0625, 0.0000, 0.0000, -0.0625, -0.0625, 0.0625, 0.0000, -0.0625, 0.0000, 0.0000, 0.0000, 0.0625, 0.0000, 0.0000, -0.0625, 0.0000, 0.0625, 0.0000, 0.0000, 0.0000, 0.0000, -0.0625, 0.0000, 0.0000, 0.0625, 0.0000, 0.0000, 0.0625, 0.0000, 0.0000, 0.0625, 0.0625, 0.0000, -0.0625, 0.0625, 0.0000, 0.0000, 0.0625, 0.0000, 0.0625, 0.0000, -0.0625, 0.0625, -0.0625, 0.0000, 0.0000, 0.0000, 0.0000, 0.0000, 0.0000, 0.0000, 0.0625, 0.0625, 0.0000, 0.0000, -0.0625, 0.0000, 0.0625, -0.0625, 0.0000, 0.0625, 0.0000, 0.0625, -0.0625, 0.0000, 0.0625, -0.0625, 0.0625, 0.0000, 0.0000, 0.0625, -0.0625, 0.0625, 0.0000, 0.0000, -0.0625, 0.0625, 0.0625, 0.0625, 0.0625, 0.0000, -0.0625, 0.0000, 0.0000, 0.0625, 0.0000, 0.0000, 0.0000, 0.0000, 0.0625, 0.0000, -0.0625, 0.0000, -0.0625, 0.0625, 0.0000, -0.0625, 0.0000, -0.0625, 0.0000, 0.0000, 0.0625, 0.0000, 0.0625, 0.0000, 0.0000, 0.0000, 0.0625, 0.0625, 0.0000, 0.0000, 0.0000, 0.0000, 0.0625, -0.0625, 0.0000, 0.0000, 0.0625, -0.0625, 0.0625, 0.0000, 0.0000, 0.0625, -0.0625, 0.0000, 0.0000, -0.0625, -0.0625, 0.0625, 0.0000, 0.0625, 0.0000, 0.0000, 0.0625, -0.0625, 0.0000, 0.0000, -0.0625, -0.0625, -0.0625, 0.0000, 0.0625, 0.0000, 0.0000, -0.0625, -0.0625, 0.0000, -0.0625, 0.0000, 0.0625, -0.0625, 0.0000, 0.0000, 0.0625, -0.0625, 0.0000, -0.0625, 0.0625, -0.0625, 0.0625, -0.0625, 0.0000, -0.0625, 0.0000, 0.0000, -0.0625, 0.0000, -0.0625, 0.0000, 0.0000, 0.0000, 0.0000, 0.0000, 0.0000, 0.0625, -0.0625, -0.0625, 0.0625, 0.0000, -0.0625, -0.0625, 0.0625, 0.0000, -0.0625, 0.0000, 0.0000, 0.0625, 0.0000, 0.0000, 0.0625, 0.0000, 0.0000, 0.0000, 0.0000, -0.0625, 0.0000, 0.0000, -0.0625, 0.0000, 0.0000, 0.0625, -0.0625, 0.0625, 0.0000, 0.0000, 0.0000, 0.0000, 0.0000, 0.0625, 0.0000, 0.0000, 0.0000, 0.0000, -0.0625, -0.0625, 0.0000, -0.0625, 0.0000, 0.0625, 0.0000, 0.0625, 0.0000, -0.0625, 0.0000, 0.0625, 0.0000, 0.0000, 0.0625, 0.0000, 0.0625, 0.0625, 0.0625, -0.0625, 0.0000, 0.0625, 0.0625, 0.0625, 0.0625, -0.0625, 0.0625, 0.0000, 0.0000, 0.0625, 0.0625, 0.0000, 0.0000, 0.0000, 0.0000, 0.0000, -0.0625, -0.0625, -0.0625, -0.0625, 0.0000, 0.0625, 0.0000, 0.0000, 0.0625, 0.0000, 0.0000, 0.0000, 0.0625, 0.0000, 0.0000, 0.0625, -0.0625, 0.0625, 0.0000, 0.0625, -0.0625, 0.0000, -0.0625, 0.0000, 0.0625, 0.0000, 0.0000, 0.0000, 0.0625, -0.0625, 0.0000, 0.0000, 0.0000, 0.0625, 0.0000, -0.0625, 0.0625, 0.0000, 0.0000, -0.0625, 0.0625, 0.0000, 0.0000, 0.0625, 0.0000, 0.0000, 0.0000, 0.0625, 0.0000, -0.0625, 0.0000, 0.0000, 0.0000, 0.0625, 0.0625, 0.0625, 0.0000, 0.0000, 0.0000, -0.0625, 0.0625, -0.0625, 0.0625, -0.0625, -0.0625, 0.0625, 0.0625, 0.0000, 0.0000, 0.0625, -0.0625, 0.0625, 0.0000, 0.0625, 0.0625, 0.0000, 0.0000, 0.0000, 0.0625, -0.0625, 0.0625, 0.0625, 0.0625, 0.0000, -0.0625, 0.0000, -0.0625, 0.0000, 0.0000, -0.0625, 0.0000, 0.0000, 0.0625, 0.0000, 0.0000, 0.0625, 0.0625, 0.0625, 0.0000, 0.0625, 0.0625, 0.0000, 0.0000, 0.0625, -0.0625, 0.0625, 0.0000, 0.0000, 0.0000, 0.0000, 0.0000, 0.0625, -0.0625, 0.0000, 0.0625, 0.0625, 0.0000, -0.0625, -0.0625, 0.0000, 0.0000, -0.0625, 0.0000, 0.0000, 0.0000, 0.0000, 0.0000, 0.0625, 0.0000, 0.0000, -0.0625, 0.0000, 0.0000, -0.0625, 0.0000, 0.0000, 0.0625, 0.0625, 0.0000, 0.0625, 0.0000, 0.0000, 0.0625, -0.0625, -0.0625, -0.0625, 0.0625, -0.0625, 0.0000, 0.0000, 0.0000, 0.0625, -0.0625, 0.0625, 0.0000, 0.0000, -0.0625, 0.0000, 0.0000, -0.0625, 0.0000, 0.0000, 0.0000, 0.0625, 0.0000, -0.0625, 0.0000, 0.0625, 0.0625, 0.0000, -0.0625, 0.0000, -0.0625, 0.0625, 0.0000, 0.0000, 0.0000, 0.0000, 0.0000, 0.0000, 0.0625, -0.0625, -0.0625, 0.0625, -0.0625, 0.0625, 0.0000, 0.0000, 0.0000, 0.0000, 0.0000, 0.0000, 0.0000, 0.0000, -0.0625, 0.0625, 0.0625, 0.0000, 0.0000, -0.0625, 0.0000, 0.0000, -0.0625, 0.0625, 0.0000, 0.0625, 0.0000, 0.0000, 0.0625, 0.0000, 0.0625, 0.0000, 0.0625, 0.0000, 0.0000, 0.0000, 0.0625, -0.0625, 0.0000, -0.0625, 0.0000, 0.0625, 0.0000, 0.0000, 0.0000, 0.0625, 0.0000, -0.0625, 0.0000, 0.0625, -0.0625, -0.0625, 0.0625, 0.0625, 0.0625, 0.0000, 0.0625, 0.0625, 0.0000, 0.0000, 0.0625, -0.0625, 0.0000, 0.0000, 0.0000, 0.0625, -0.0625, 0.0000, 0.0000, 0.0000, -0.0625, 0.0625, -0.0625, 0.0000, 0.0625, 0.0000, 0.0625, -0.0625, -0.0625, 0.0000, 0.0000, 0.0625, 0.0000, 0.0000, 0.0000, -0.0625, -0.0625, 0.0000, -0.0625, -0.0625, 0.0000, 0.0625, 0.0000, 0.0000, -0.0625, -0.0625, 0.0000, 0.0000, 0.0000, 0.0000, 0.0000, 0.0000, 0.0000, 0.0000, 0.0000, 0.0000, -0.0625, 0.0000, 0.0000, -0.0625, 0.0000, 0.0000, 0.0625, 0.0000, 0.0000, -0.0625, 0.0625, 0.0625, -0.0625, 0.0000, 0.0000, 0.0000, 0.0000, 0.0000, 0.0625, 0.0000, -0.0625, 0.0000, 0.0000, 0.0000, 0.0000, 0.0625, -0.0625, -0.0625, 0.0000, 0.0000, 0.0000, -0.0625, -0.0625, -0.0625, 0.0000, 0.0625, 0.0000, 0.0000, -0.0625, 0.0625, 0.0625, -0.0625, 0.0000, -0.0625, 0.0625, 0.0000, 0.0000, 0.0000, -0.0625, 0.0000, 0.0625, -0.0625, -0.0625, 0.0000, 0.0000, 0.0000, -0.0625, -0.0625, 0.0000, 0.0000, 0.0000, -0.0625, 0.0625, 0.0000, 0.0000, 0.0625, 0.0000, 0.0625, 0.0000, 0.0000, 0.0000, 0.0000, 0.0625, -0.0625, 0.0000, 0.0000, -0.0625, 0.0625, -0.0625, 0.0625, 0.0625, -0.0625, 0.0625, 0.0000, 0.0000, 0.0000, -0.0625, 0.0625, -0.0625, 0.0000, -0.0625, 0.0625, 0.0000, -0.0625, 0.0625, 0.0625, 0.0000, 0.0000, -0.0625, 0.0000, 0.0000, 0.0000, 0.0000, 0.0000, 0.0625, 0.0000, 0.0625, 0.0000, 0.0000, -0.0625, 0.0625, 0.0000, -0.0625, 0.0000, -0.0625, -0.0625, 0.0625, 0.0000, 0.0625, 0.0000, 0.0625, 0.0000, 0.0000, 0.0000, 0.0000, -0.0625, 0.0000, 0.0000, 0.0000, 0.0000, -0.0625, -0.0625, 0.0625, 0.0000, 0.0625, -0.0625, 0.0000, 0.0000, -0.0625, 0.0625, -0.0625, 0.0625, -0.0625, -0.0625, -0.0625, 0.0625, -0.0625, -0.0625, 0.0000, 0.0000, 0.0000, 0.0000, 0.0000, 0.0000, 0.0625, 0.0625, -0.0625, 0.0000, -0.0625, -0.0625, 0.0625, -0.0625, -0.0625, 0.0000, 0.0625, 0.0000, -0.0625, 0.0625, 0.0000, 0.0000, 0.0000, 0.0000, 0.0000, 0.0000, 0.0625, 0.0625, -0.0625, 0.0625, 0.0000, 0.0625, 0.0625, 0.0000, 0.0000, 0.0000, 0.0625, 0.0000, -0.0625, 0.0625, 0.0000, 0.0625, 0.0000, 0.0000, 0.0625, 0.0000, 0.0625, 0.0625, -0.0625, -0.0625, -0.0625, 0.0000, 0.0625, -0.0625, 0.0625, 0.0625, -0.0625, 0.0000, -0.0625, 0.0625, 0.0000, 0.0000, 0.0000, 0.0000, 0.0000, -0.0625, 0.0625, -0.0625, 0.0000, 0.0625, 0.0000, 0.0625, 0.0000, -0.0625, 0.0000, 0.0000, 0.0625, 0.0000, -0.0625, 0.0625, -0.0625, 0.0625, 0.0625, 0.0000, 0.0000, -0.0625, 0.0000, 0.0000, -0.0625, 0.0000, 0.0000, 0.0000, 0.0000, 0.0000, 0.0000, -0.0625, 0.0000, -0.0625, 0.0625, 0.0000, -0.0625, 0.0000, 0.0625, -0.0625, 0.0625, 0.0000, 0.0625, 0.0000, 0.0625, 0.0000, -0.0625, -0.0625, -0.0625, 0.0625, 0.0000, -0.0625, -0.0625, 0.0625, 0.0000, 0.0000, 0.0625, -0.0625, 0.0000, 0.0625, -0.0625, 0.0625, 0.0000, 0.0625, 0.0000, 0.0000, 0.0000, 0.0000, 0.0625, 0.0000, 0.0625, 0.0625, 0.0000, 0.0625, 0.0625, 0.0000, -0.0625, 0.0625, 0.0625, 0.0625, -0.0625, 0.0000, -0.0625, -0.0625, -0.0625, 0.0625, -0.0625, 0.0625, 0.0000, 0.0000, 0.0000, 0.0000, -0.0625, 0.0625, 0.0000, 0.0625, 0.0000, 0.0625, 0.0625, 0.0000, 0.0000, 0.0000, 0.0000, -0.0625, 0.0625, -0.0625, 0.0000, 0.0625, 0.0000, 0.0000, 0.0625, 0.0000, 0.0625, 0.0625, 0.0625, 0.0625, 0.0000, 0.0625, 0.0625, 0.0625, 0.0625, 0.0625, 0.0625, -0.0625, -0.0625, 0.0000, 0.0000, 0.0000, 0.0000, -0.0625, 0.0625, 0.0000, 0.0625, 0.0625, 0.0000, 0.0000, 0.0000, 0.0000, 0.0000, 0.0000, 0.0625, 0.0000, 0.0000, 0.0000, 0.0000, 0.0625, -0.0625, 0.0000, 0.0000, 0.0000, -0.0625, 0.0000, 0.0000, 0.0000, 0.0000, -0.0625, 0.0000, 0.0625, 0.0000, 0.0000, 0.0000, -0.0625, -0.0625, 0.0000, 0.0000, 0.0000, -0.0625, 0.0000, 0.0000, -0.0625, 0.0000, 0.0625, 0.0000, 0.0000, 0.0000, 0.0000, 0.0000, 0.0625, 0.0000, 0.0625, 0.0625, 0.0000, 0.0625, -0.0625, 0.0000, 0.0625, 0.0625, 0.0000, 0.0000, -0.0625, 0.0000, -0.0625, 0.0000, 0.0625, -0.0625, -0.0625, 0.0000, 0.0000, -0.0625, 0.0000, 0.0000, 0.0000, 0.0000, 0.0625, -0.0625, 0.0000, -0.0625, 0.0625, 0.0000, 0.0000, 0.0000, -0.0625, 0.0625, 0.0000, 0.0000, 0.0000, 0.0000, 0.0000, 0.0000, 0.0625, 0.0000, 0.0000, 0.0625, 0.0000, 0.0000, 0.0625, 0.0625, 0.0000, -0.0625, 0.0625, 0.0625, 0.0625, 0.0000, -0.0625, 0.0625, 0.0000, 0.0000, -0.0625, 0.0000, 0.0000, 0.0000, 0.0625, 0.0000, 0.0000, 0.0000, 0.0625, 0.0625, -0.0625, -0.0625, 0.0625, -0.0625, 0.0625, 0.0000, -0.0625, 0.0625, -0.0625, 0.0000, 0.0000, 0.0625, 0.0625, 0.0000, 0.0000, 0.0000, -0.0625, 0.0000, 0.0000, 0.0000, 0.0000, -0.0625, 0.0000, -0.0625, 0.0000, -0.0625, 0.0000, 0.0625, 0.0000, 0.0000, 0.0000, 0.0625, 0.0000, -0.0625, 0.0625, 0.0000, -0.0625, 0.0000, 0.0000, 0.0000, 0.0000, -0.0625, 0.0000, 0.0000, 0.0000, 0.0000, 0.0000, 0.0625, 0.0625, 0.0625, 0.0625, 0.0000, 0.0000, 0.0000, 0.0625, 0.0000, -0.0625, 0.0000, 0.0000, 0.0000, -0.0625, -0.0625, 0.0000, -0.0625, -0.0625, 0.0625, 0.0000, 0.0000, 0.0000, 0.0000, 0.0000, 0.0000, -0.0625, 0.0000, 0.0000, 0.0625, 0.0000, -0.0625, 0.0000, 0.0000, 0.0000, -0.0625, 0.0000, 0.0625, 0.0000, 0.0000, 0.0000, -0.0625, 0.0000, 0.0625, -0.0625, -0.0625, 0.0625, 0.0000, -0.0625, -0.0625, 0.0625, -0.0625, 0.0625, -0.0625, 0.0000, 0.0000, -0.0625, 0.0000, 0.0625, -0.0625, 0.0000, -0.0625, -0.0625, 0.0000, 0.0625, -0.0625, 0.0625, 0.0000, 0.0625, -0.0625, -0.0625, 0.0000, 0.0000, -0.0625, 0.0000, -0.0625, 0.0625, -0.0625, 0.0000, 0.0000, 0.0000, 0.0000, -0.0625, 0.0000, 0.0000, -0.0625, 0.0000, 0.0000, 0.0000, -0.0625, 0.0000, 0.0000, 0.0000, 0.0000, 0.0000, 0.0000, 0.0625, 0.0000, 0.0625, 0.0000, -0.0625, 0.0625, 0.0000, 0.0000, -0.0625, -0.0625, 0.0000, -0.0625, -0.0625, -0.0625, 0.0000, 0.0625, -0.0625, 0.0000, 0.0000, -0.0625, 0.0625, 0.0000, 0.0000, -0.0625, 0.0625, 0.0625, 0.0000, 0.0000, -0.0625, 0.0000, 0.0625, 0.0000, 0.0625, 0.0000, 0.0000, 0.0625, -0.0625, 0.0000, 0.0625, 0.0000, 0.0000, -0.0625, 0.0625, 0.0000, 0.0000, 0.0625, -0.0625, -0.0625, 0.0000, 0.0000, 0.0000, 0.0000, -0.0625, -0.0625, -0.0625, 0.0625, 0.0625, 0.0000, 0.0000, -0.0625, -0.0625, -0.0625, -0.0625, 0.0625, -0.0625, 0.0000, -0.0625, 0.0625, -0.0625, 0.0000, -0.0625, 0.0625, 0.0000, -0.0625, 0.0625, 0.0000, 0.0000, 0.0000, 0.0000, 0.0000, -0.0625, -0.0625, 0.0000, 0.0000, 0.0000, 0.0000, -0.0625, 0.0625, -0.0625, 0.0000, 0.0000, 0.0625, 0.0000, 0.0000, -0.0625, 0.0000, -0.0625, 0.0625, -0.0625, -0.0625, 0.0000, -0.0625, 0.0625, 0.0000, 0.0000, 0.0625, 0.0625, 0.0625, 0.0000, 0.0000, 0.0625, -0.0625, 0.0000, -0.0625, 0.0000, 0.0625, 0.0000, 0.0625, 0.0000, 0.0000, 0.0000, 0.0000, -0.0625, -0.0625, 0.0625, 0.0625, 0.0000, 0.0625, -0.0625, -0.0625, 0.0000, 0.0625, 0.0000, 0.0000, 0.0000, 0.0625, -0.0625, 0.0000, 0.0000, 0.0000, 0.0000, 0.0625, 0.0000, 0.0000, 0.0000, -0.0625, 0.0625, -0.0625, 0.0625, 0.0625, 0.0000, 0.0625, 0.0000, 0.0000, 0.0625, -0.0625, -0.0625, 0.0000, 0.0000, 0.0000, 0.0000, 0.0000, 0.0000, -0.0625, 0.0000, 0.0625, -0.0625, 0.0000, 0.0000, 0.0000, 0.0000, -0.0625, 0.0000, 0.0625, -0.0625, 0.0625, -0.0625, 0.0625, 0.0000, 0.0000, 0.0000, 0.0625, 0.0000, 0.0000, 0.0000, 0.0625, -0.0625, 0.0625, -0.0625, -0.0625, 0.0000, -0.0625, 0.0000, -0.0625, -0.0625, -0.0625, 0.0625, -0.0625, 0.0000, 0.0000, 0.0625, 0.0625, 0.0000, 0.0000, 0.0000, 0.0000, 0.0000, -0.0625, 0.0625, 0.0000, 0.0000, 0.0000, -0.0625, 0.0000, 0.0000, 0.0000, 0.0000, 0.0000, 0.0000, 0.0000, 0.0000, 0.0000, -0.0625, 0.0000, -0.0625, -0.0625, 0.0000, -0.0625, 0.0000, -0.0625, -0.0625, -0.0625, 0.0000, -0.0625, 0.0000, 0.0625, 0.0000, -0.0625, 0.0000, 0.0000, 0.0000, -0.0625, 0.0000, 0.0625, -0.0625, -0.0625, 0.0625, 0.0625, 0.0000, -0.0625, 0.0000, -0.0625, 0.0000, -0.0625, -0.0625, 0.0625, 0.0000, 0.0000, -0.0625, 0.0000, 0.0000, 0.0000, 0.0000, 0.0000, -0.0625, 0.0625, 0.0000, 0.0000, 0.0000, -0.0625, 0.0625, 0.0000, 0.0000, -0.0625, 0.0000, 0.0625, 0.0625, 0.0000, 0.0625, 0.0000, -0.0625, 0.0000, 0.0000, 0.0625, 0.0000, 0.0000, 0.0625, 0.0000, 0.0000, 0.0625, 0.0000, 0.0625, 0.0000, 0.0625, 0.0000, 0.0000, 0.0000, 0.0625, 0.0000, 0.0000, 0.0625, -0.0625, 0.0625, -0.0625, 0.0000, 0.0625, 0.0000, 0.0000, -0.0625, 0.0000, 0.0625, -0.0625, 0.0625, 0.0000, 0.0000, 0.0625, -0.0625, 0.0000, 0.0000, 0.0000, 0.0625, -0.0625, 0.0000, 0.0000, 0.0000, -0.0625, -0.0625, 0.0000, 0.0000, -0.0625, 0.0000, 0.0000, 0.0000, 0.0000, -0.0625, 0.0625, 0.0000, 0.0000, -0.0625, -0.0625, 0.0625, 0.0625, 0.0000, -0.0625, 0.0000, 0.0000, 0.0000, 0.0000, 0.0000, 0.0000, 0.0000, -0.0625, 0.0625, 0.0625, -0.0625, 0.0000, 0.0000, -0.0625, 0.0000, 0.0625, 0.0625, -0.0625, 0.0625, 0.0625, 0.0000, 0.0000, 0.0000, 0.0000, 0.0000, 0.0000, 0.0000, 0.0000, 0.0625, -0.0625, -0.0625, 0.0625, 0.0000, 0.0000, 0.0000, -0.0625, 0.0625, -0.0625, 0.0000, -0.0625, 0.0625, 0.0625, -0.0625, -0.0625, -0.0625, -0.0625, 0.0000, 0.0000, 0.0625, 0.0000, -0.0625, 0.0000, 0.0000, -0.0625, -0.0625, 0.0000, 0.0000, -0.0625, 0.0625, 0.0000, 0.0000, 0.0000, 0.0000, 0.0000, -0.0625, 0.0000, 0.0000, 0.0625, 0.0000, -0.0625, 0.0000, 0.0000, 0.0625, -0.0625, 0.0000, 0.0000, -0.0625, 0.0000, -0.0625, 0.0000, 0.0625, -0.0625, 0.0625, -0.0625, 0.0000, 0.0000, -0.0625, 0.0625, -0.0625, 0.0625, 0.0625, 0.0000, 0.0625, 0.0000, 0.0000, -0.0625, 0.0000, 0.0000, 0.0000, 0.0000, 0.0000, 0.0625, 0.0000, 0.0000, -0.0625, -0.0625, 0.0625, -0.0625, 0.0000, 0.0000, 0.0000, 0.0625, 0.0000, 0.0000, 0.0000, -0.0625, 0.0625, 0.0000, 0.0000, 0.0000, 0.0000, 0.0000, 0.0000, 0.0625, 0.0625, -0.0625, 0.0000, 0.0625, 0.0625, 0.0625, -0.0625, 0.0625, 0.0000, -0.0625, 0.0000, 0.0000, 0.0000, 0.0000, 0.0000, -0.0625, 0.0000, 0.0000, 0.0000, -0.0625, -0.0625, -0.0625, 0.0625, -0.0625, 0.0625, -0.0625, -0.0625, 0.0000, -0.0625, 0.0000, 0.0000, 0.0000, -0.0625, 0.0000, 0.0000, 0.0000, 0.0000, 0.0000, 0.0625, 0.0625, 0.0625, -0.0625, 0.0000, -0.0625, 0.0625, 0.0000, 0.0000, 0.0000, -0.0625, 0.0000, 0.0625, 0.0000, -0.0625, 0.0000, 0.0000, 0.0000, -0.0625, 0.0625, 0.0000, 0.0000, -0.0625, 0.0000, 0.0625, 0.0000, 0.0000, 0.0000, 0.0000, 0.0625, 0.0000, 0.0625, 0.0000, -0.0625, 0.0000, -0.0625, 0.0000, 0.0000, -0.0625, 0.0000, -0.0625, 0.0625, -0.0625, -0.0625, 0.0625, -0.0625, -0.0625, 0.0625, -0.0625, 0.0625, 0.0625, -0.0625, -0.0625, 0.0000, 0.0000, 0.0625, -0.0625, 0.0625, 0.0000, 0.0000, 0.0000, 0.0000, 0.0625, 0.0000, -0.0625, 0.0000, 0.0625, -0.0625, 0.0000, 0.0000, 0.0000, 0.0625, 0.0000, 0.0000, 0.0000, 0.0000, 0.0625, 0.0625, 0.0000, 0.0000, -0.0625, 0.0000, 0.0000, 0.0625, 0.0625, 0.0000, 0.0000, 0.0000, 0.0000, 0.0625, 0.0000, 0.0000, 0.0000, -0.0625, 0.0000, 0.0000, -0.0625, 0.0000, 0.0000, 0.0000, 0.0000, 0.0625, 0.0000, -0.0625, 0.0000, 0.0625, 0.0625, -0.0625, 0.0625, 0.0625, 0.0625, 0.0000, -0.0625, 0.0625, -0.0625, 0.0000, 0.0625, -0.0625, 0.0625, 0.0000, 0.0000, -0.0625, -0.0625, -0.0625, 0.0625, 0.0000, -0.0625, 0.0000, -0.0625, 0.0000, 0.0000, 0.0625, 0.0000, 0.0625, -0.0625, 0.0000, 0.0625, 0.0625, 0.0625, -0.0625, 0.0000, 0.0000, -0.0625, 0.0625, 0.0625, -0.0625, 0.0000, 0.0000, -0.0625, 0.0000, -0.0625, 0.0000, -0.0625, 0.0000, 0.0000, 0.0000, 0.0625, 0.0000, 0.0000, 0.0000, -0.0625, 0.0625, -0.0625, -0.0625, 0.0625, 0.0000, 0.0000, 0.0000, -0.0625, 0.0625, -0.0625, 0.0000, -0.0625, -0.0625, 0.0000, 0.0000, 0.0625, -0.0625, 0.0000, 0.0000, -0.0625, 0.0625, -0.0625, -0.0625, 0.0000, 0.0000, 0.0625, -0.0625, 0.0000, 0.0000, 0.0625, -0.0625, 0.0000, 0.0625, -0.0625, 0.0625, 0.0000, 0.0000, 0.0000, 0.0000, 0.0000, -0.0625, 0.0625, 0.0000, 0.0000, -0.0625, 0.0625, -0.0625, -0.0625, 0.0000, 0.0625, 0.0625, -0.0625, 0.0000, 0.0625, -0.0625, 0.0000, -0.0625, -0.0625, 0.0625, 0.0000, 0.0625, 0.0000, -0.0625, 0.0625, -0.0625, -0.0625, 0.0625, -0.0625, 0.0000, 0.0000, 0.0625, -0.0625, 0.0000, 0.0625, -0.0625, 0.0625, 0.0000, 0.0000, 0.0625, 0.0000, -0.0625, -0.0625, 0.0625, -0.0625, 0.0625, -0.0625, 0.0625, 0.0000, 0.0000, 0.0625, 0.0625, 0.0000, 0.0625, 0.0000, -0.0625, -0.0625, 0.0625, 0.0625, 0.0000, 0.0000, 0.0000, 0.0000, 0.0625, 0.0000, 0.0000, 0.0000, -0.0625, -0.0625, 0.0625, -0.0625, 0.0625, 0.0000, -0.0625, -0.0625, 0.0625, 0.0000, -0.0625, 0.0000, 0.0000, -0.0625, 0.0000, -0.0625, 0.0625, 0.0625, -0.0625, 0.0625, 0.0000, 0.0000, 0.0625, -0.0625, 0.0000, -0.0625, 0.0000, 0.0625, -0.0625, 0.0000, -0.0625, -0.0625, 0.0625, 0.0000, 0.0000, 0.0000, 0.0000, 0.0625, 0.0000, 0.0000, -0.0625, -0.0625, 0.0000, 0.0000, 0.0625, 0.0000, -0.0625, 0.0625, 0.0000, 0.0000, 0.0000, 0.0000, 0.0000, 0.0000, 0.0625, 0.0000, 0.0000, 0.0625, 0.0000, 0.0000, 0.0000, -0.0625, 0.0625, 0.0625, -0.0625, 0.0000, 0.0625, -0.0625, 0.0000, -0.0625, 0.0625, 0.0000, 0.0000, 0.0625, -0.0625, 0.0625, 0.0000, -0.0625, -0.0625, 0.0000, 0.0000, -0.0625, 0.0000, -0.0625, 0.0000, 0.0000, -0.0625, 0.0625, 0.0000, 0.0625, -0.0625, -0.0625, 0.0625, 0.0625, 0.0000, -0.0625, -0.0625, 0.0000, 0.0000, 0.0625, 0.0000, -0.0625, -0.0625, 0.0000, 0.0000, 0.0000, 0.0000, 0.0000, 0.0000, 0.0000, -0.0625, 0.0625, 0.0625, 0.0625, -0.0625, 0.0000, -0.0625, 0.0625, 0.0000, -0.0625, 0.0000, 0.0000, 0.0000, -0.0625, 0.0000, 0.0000, -0.0625, 0.0625, 0.0000, 0.0625, 0.0000, 0.0000, 0.0625, -0.0625, 0.0000, 0.0000, 0.0625, 0.0000, 0.0000, 0.0000, 0.0000, 0.0000, 0.0000, -0.0625, -0.0625, 0.0000, 0.0000, -0.0625, 0.0000, 0.0000, 0.0000, 0.0000, -0.0625, 0.0000, 0.0000, 0.0625, 0.0000, 0.0625, 0.0000, 0.0000, 0.0000, 0.0000, 0.0625, 0.0625, 0.0000, -0.0625, -0.0625, 0.0625, 0.0000, 0.0000, 0.0000, 0.0625, 0.0625, 0.0000, 0.0000, -0.0625, 0.0000, 0.0000, 0.0000, 0.0000, 0.0000, 0.0000, 0.0625, -0.0625, -0.0625, -0.0625, 0.0000, 0.0000, -0.0625, 0.0000, -0.0625, 0.0625, 0.0000, 0.0000, -0.0625, 0.0000, 0.0000, 0.0000, -0.0625, 0.0000, 0.0000, -0.0625, 0.0000, 0.0625, -0.0625, 0.0625, 0.0625, 0.0000, 0.0000, -0.0625, 0.0000, 0.0000, -0.0625, 0.0000, 0.0625, 0.0000, -0.0625, -0.0625, 0.0000, 0.0625, -0.0625, -0.0625, 0.0000, 0.0000, 0.0000, -0.0625, 0.0000, 0.0000, 0.0000, 0.0625, 0.0000, 0.0000, 0.0625, 0.0000, -0.0625, 0.0000, 0.0000, 0.0625, -0.0625, 0.0000, 0.0000, 0.0000, 0.0625, -0.0625, -0.0625, -0.0625, 0.0000, 0.0625, 0.0000, -0.0625, 0.0000, -0.0625, 0.0000, 0.0625, 0.0000, 0.0000, -0.0625, 0.0000, -0.0625, -0.0625, 0.0000, 0.0000, 0.0000, -0.0625, 0.0625, -0.0625, 0.0000, -0.0625, 0.0000, 0.0000, 0.0000, 0.0000, 0.0625, 0.0625, 0.0000, 0.0000, 0.0625, 0.0000, -0.0625, -0.0625, 0.0000, -0.0625, -0.0625, 0.0000, 0.0000, -0.0625, 0.0625, 0.0625, 0.0000, 0.0000, -0.0625, 0.0000, -0.0625, 0.0625, -0.0625, 0.0000, 0.0625, -0.0625, 0.0000, -0.0625, 0.0000, -0.0625, 0.0000, 0.0625, 0.0000, -0.0625, 0.0625, 0.0625, 0.0000, 0.0000, -0.0625, 0.0000, 0.0000, 0.0000, 0.0000, -0.0625, 0.0000, 0.0625, -0.0625, 0.0000, 0.0000, -0.0625, 0.0000, 0.0000, 0.0000, -0.0625, -0.0625, 0.0625, 0.0000, 0.0000, 0.0000, -0.0625, 0.0000, 0.0000, -0.0625, 0.0000, 0.0000, 0.0625, -0.0625, -0.0625, 0.0625, 0.0625, 0.0000, 0.0625, -0.0625, 0.0625, 0.0625, -0.0625, 0.0625, -0.0625, 0.0000, 0.0625, 0.0000, -0.0625, 0.0625, -0.0625, 0.0000, 0.0000, -0.0625, 0.0000, 0.0625, -0.0625, 0.0625, 0.0000, 0.0000, -0.0625, 0.0625, 0.0000, 0.0000, 0.0000, 0.0000, 0.0625, 0.0000, 0.0000, 0.0625, 0.0000, 0.0625, 0.0625, -0.0625, 0.0000, 0.0000, -0.0625, 0.0000, 0.0000, 0.0625, 0.0000, -0.0625, 0.0000, 0.0000, 0.0000, -0.0625, 0.0000, -0.0625, 0.0625, 0.0625, -0.0625, 0.0000, -0.0625, -0.0625, 0.0000, -0.0625, -0.0625, -0.0625, 0.0000, 0.0000, 0.0000, 0.0625, 0.0000, 0.0000, 0.0000, 0.0000, 0.0000, 0.0625, 0.0000, 0.0000, 0.0000, 0.0625, 0.0625, -0.0625, -0.0625, -0.0625, 0.0625, -0.0625, 0.0000, 0.0625, 0.0000, 0.0625, 0.0625, 0.0000, 0.0625, 0.0000, 0.0625, 0.0000, -0.0625, 0.0625, 0.0000, -0.0625, 0.0000, 0.0000, 0.0000, 0.0000, 0.0000, 0.0000, -0.0625, 0.0625, 0.0000, 0.0000, 0.0625, -0.0625, 0.0000, 0.0625, -0.0625, 0.0625, -0.0625, 0.0000, -0.0625, 0.0625, 0.0625, -0.0625, 0.0000, -0.0625, 0.0000, 0.0625, -0.0625, -0.0625, 0.0000, 0.0625, 0.0000, 0.0000, 0.0625, 0.0000, -0.0625, 0.0625, 0.0625, 0.0000, 0.0000, 0.0000, 0.0625, 0.0000, 0.0000, 0.0000, 0.0000, 0.0000, 0.0625, -0.0625, 0.0625, 0.0000, -0.0625, 0.0000, -0.0625, 0.0000, 0.0000, 0.0000, -0.0625, 0.0000, 0.0625, 0.0000, 0.0000, 0.0625, -0.0625, 0.0000, 0.0000, 0.0000, 0.0000, 0.0625, 0.0000, 0.0000, 0.0000, -0.0625, -0.0625, -0.0625, 0.0000, 0.0000, 0.0000, 0.0625, 0.0000, 0.0625, 0.0625, 0.0625, 0.0625, -0.0625, 0.0625, 0.0625, 0.0000, 0.0000, -0.0625, 0.0625, 0.0000, 0.0625, 0.0000, 0.0000, 0.0625, 0.0625, 0.0000, 0.0000, -0.0625, 0.0625, 0.0000, 0.0000, -0.0625, -0.0625, 0.0000, -0.0625, 0.0000, 0.0625, 0.0000, 0.0000, -0.0625, -0.0625, 0.0625, 0.0000, 0.0000, 0.0000, -0.0625, 0.0000, 0.0000, -0.0625, -0.0625, 0.0625, 0.0000, -0.0625, 0.0000, 0.0000, 0.0000, 0.0000, 0.0625, -0.0625, 0.0625, 0.0000, -0.0625, 0.0625, 0.0625, 0.0625, 0.0000, 0.0000, 0.0625, -0.0625, 0.0625, -0.0625, 0.0000, 0.0625, -0.0625, -0.0625, -0.0625, -0.0625, -0.0625, -0.0625, 0.0000, 0.0000, 0.0625, 0.0000, -0.0625, 0.0000, 0.0000, -0.0625, -0.0625, 0.0000, 0.0000, 0.0000, 0.0000, -0.0625, 0.0000, -0.0625, 0.0625, 0.0000, 0.0000, -0.0625, -0.0625, 0.0000, 0.0000, 0.0625, 0.0000, -0.0625, 0.0625, 0.0000, 0.0000, 0.0000, -0.0625, -0.0625, 0.0000, 0.0625, 0.0625, 0.0000, -0.0625, -0.0625, 0.0625, 0.0000, 0.0000, -0.0625, -0.0625, 0.0625, 0.0625, -0.0625, 0.0000, 0.0625, -0.0625, 0.0000, 0.0000, 0.0000, 0.0625, 0.0625, -0.0625, 0.0625, 0.0000, 0.0000, 0.0000, -0.0625, 0.0000, 0.0000, 0.0000, 0.0625, 0.0000, -0.0625, -0.0625, -0.0625, 0.0000, -0.0625, 0.0625, -0.0625, 0.0625, -0.0625, -0.0625, 0.0000, -0.0625, -0.0625, 0.0000, 0.0625, 0.0625, -0.0625, 0.0000, 0.0000, 0.0625, 0.0000, 0.0625, 0.0000, 0.0625, 0.0000, -0.0625, 0.0000, -0.0625, 0.0000, 0.0000, 0.0625, 0.0625, 0.0000, -0.0625, 0.0000, 0.0000, 0.0000, 0.0000, 0.0000, -0.0625, -0.0625, 0.0625, 0.0000, -0.0625, 0.0000, -0.0625, 0.0000, 0.0000, 0.0000, 0.0000, 0.0000, -0.0625, 0.0000, -0.0625, 0.0000, 0.0000, 0.0625, 0.0625, 0.0625, 0.0625, -0.0625, 0.0000, 0.0625, 0.0625, 0.0000, 0.0000, -0.0625, 0.0000, 0.0000, -0.0625, 0.0625, 0.0000, 0.0000, -0.0625, 0.0000, -0.0625, 0.0000, 0.0625, 0.0625, 0.0625, 0.0000, 0.0625, 0.0625, -0.0625, 0.0625, -0.0625, 0.0000, 0.0000, 0.0000, 0.0625, -0.0625, 0.0625, 0.0000, 0.0000, 0.0625, 0.0000, 0.0000, 0.0000, 0.0625, 0.0000, 0.0000, 0.0000, 0.0625, 0.0000, 0.0000, -0.0625, 0.0000, -0.0625, 0.0000, -0.0625, 0.0000, 0.0000, -0.0625, 0.0625, 0.0625, -0.0625, 0.0625, 0.0000, 0.0625, 0.0000, 0.0000, 0.0000, 0.0000, 0.0625, -0.0625, 0.0625, -0.0625, 0.0000, 0.0000, -0.0625, 0.0000, 0.0000, 0.0625, 0.0000, 0.0625, 0.0000, 0.0000, 0.0625, -0.0625, -0.0625, 0.0625, -0.0625, 0.0625, 0.0000, 0.0000, 0.0625, -0.0625, 0.0625, -0.0625, 0.0000, 0.0625, -0.0625, 0.0625, 0.0000, 0.0625, 0.0625, 0.0625, 0.0000, 0.0000, 0.0000, 0.0000, 0.0000, 0.0625, 0.0000, -0.0625, -0.0625, 0.0000, 0.0000, -0.0625, 0.0000, -0.0625, 0.0625, 0.0000, 0.0000, 0.0000, 0.0000, 0.0000, 0.0000, 0.0000, 0.0000, 0.0625, 0.0000, 0.0000, 0.0000, 0.0000, 0.0625, 0.0000, 0.0000, 0.0625, 0.0000, -0.0625, -0.0625, -0.0625, 0.0000, 0.0000, -0.0625, 0.0625, -0.0625, 0.0000, 0.0000, 0.0625, -0.0625, -0.0625, -0.0625, -0.0625, -0.0625, 0.0000, 0.0000, 0.0000, 0.0625, 0.0625, -0.0625, 0.0625, 0.0625, 0.0000, 0.0000, 0.0625, -0.0625, -0.0625, 0.0625, 0.0000, 0.0625, 0.0000, 0.0000, 0.0625, -0.0625, 0.0625, 0.0000, 0.0000, 0.0000, 0.0000, -0.0625, -0.0625, 0.0000, 0.0000, -0.0625, 0.0000, -0.0625, 0.0000, 0.0000, -0.0625, 0.0000, 0.0000, 0.0000, 0.0000, -0.0625, 0.0000, -0.0625, 0.0625, 0.0000, 0.0000, 0.0000, -0.0625, 0.0000, 0.0000, 0.0000, 0.0000, -0.0625, 0.0000, 0.0000, 0.0000, -0.0625, -0.0625, 0.0000, 0.0000, 0.0000, 0.0000, 0.0625, 0.0000, 0.0000, 0.0000, 0.0000, 0.0000, 0.0000, 0.0000, 0.0625, 0.0000, 0.0000, 0.0625, -0.0625, 0.0000, 0.0000, 0.0000, 0.0000, -0.0625, 0.0625, 0.0625, 0.0625, 0.0000, -0.0625, -0.0625, -0.0625, 0.0000, 0.0000, 0.0625, -0.0625, 0.0000, 0.0625, 0.0000, 0.0000, 0.0625, 0.0000, 0.0000, -0.0625, -0.0625, 0.0000, 0.0000, 0.0000, 0.0000, 0.0000, -0.0625, -0.0625, 0.0625, -0.0625, 0.0625, 0.0000, -0.0625, -0.0625, 0.0000, 0.0000, 0.0625, 0.0000, 0.0000, 0.0000, 0.0000, -0.0625, 0.0000, 0.0000, -0.0625, 0.0625, 0.0625, 0.0000, 0.0000, 0.0625, 0.0000, -0.0625, 0.0000, 0.0000, 0.0000, -0.0625, 0.0000, 0.0625, 0.0625, 0.0625, 0.0000, 0.0000, -0.0625, 0.0000, -0.0625, 0.0625, 0.0000, 0.0000, -0.0625, 0.0625, 0.0000, 0.0000, -0.0625, 0.0000, 0.0625, 0.0625, 0.0000, 0.0625, -0.0625, 0.0000, 0.0000, -0.0625, -0.0625, -0.0625, 0.0625, 0.0000, 0.0000, 0.0000, 0.0000, 0.0000, 0.0000, 0.0000, 0.0625, 0.0625, 0.0000, 0.0000, -0.0625, 0.0000, 0.0000, 0.0000, 0.0000, 0.0000, 0.0000, 0.0000, 0.0625, 0.0000, -0.0625, 0.0000, -0.0625, 0.0000, -0.0625, -0.0625, 0.0000, -0.0625, 0.0000, 0.0000, 0.0000, 0.0000, 0.0000, 0.0625, 0.0000, 0.0000, -0.0625, 0.0000, 0.0000, 0.0000, -0.0625, 0.0625, -0.0625, -0.0625, 0.0000, 0.0625, -0.0625, 0.0625, -0.0625, -0.0625, 0.0000, 0.0000, 0.0000, -0.0625, -0.0625, 0.0625, 0.0000, -0.0625, 0.0000, -0.0625, 0.0000, 0.0000, 0.0000, 0.0625, 0.0000, 0.0000, 0.0000, -0.0625, 0.0000, 0.0000, 0.0625, 0.0625, 0.0625, -0.0625, 0.0000, -0.0625, 0.0000, 0.0000, -0.0625, 0.0625, -0.0625, 0.0000, -0.0625, 0.0000, 0.0000, 0.0000, 0.0000, 0.0000, 0.0000, 0.0000, -0.0625, 0.0000, 0.0000, 0.0000, -0.0625, -0.0625, -0.0625, -0.0625, 0.0625, 0.0625, -0.0625, -0.0625, 0.0000, -0.0625, -0.0625, -0.0625, 0.0000, 0.0000, 0.0625, 0.0625, 0.0000, 0.0000, 0.0000, 0.0000, 0.0625, 0.0625, 0.0625, -0.0625, 0.0625, 0.0000, 0.0000, 0.0000, 0.0000, 0.0000, 0.0000, 0.0000, 0.0000, -0.0625, 0.0000, 0.0000, -0.0625, 0.0000, 0.0000, 0.0000, -0.0625, 0.0000, 0.0000, 0.0000, 0.0000, 0.0625, 0.0000, 0.0625, 0.0000, 0.0625, 0.0625, 0.0000, 0.0625, 0.0000, 0.0000, 0.0625, 0.0000, 0.0625, -0.0625, 0.0625, 0.0000, -0.0625, 0.0000, 0.0000, -0.0625, 0.0000, 0.0000, 0.0000, 0.0000, -0.0625, 0.0000, 0.0625, 0.0000, 0.0625, 0.0000, 0.0625, 0.0625, -0.0625, -0.0625, -0.0625, 0.0625, -0.0625, 0.0625, 0.0000, 0.0625, -0.0625, 0.0000, 0.0000, 0.0000, -0.0625, 0.0000, 0.0000, -0.0625, 0.0000, 0.0000, 0.0000, 0.0625, -0.0625, 0.0000, 0.0625, -0.0625, 0.0000, 0.0000, 0.0000, 0.0625, 0.0625, -0.0625, -0.0625, 0.0000, 0.0000, 0.0000, 0.0000, -0.0625, 0.0625, 0.0625, -0.0625, 0.0000, 0.0625, -0.0625, -0.0625, 0.0625, 0.0625, 0.0625, 0.0000, -0.0625, 0.0000, -0.0625, 0.0000, 0.0000, 0.0000, 0.0000, 0.0000, 0.0000, 0.0625, 0.0625, 0.0000, -0.0625, 0.0000, 0.0000, 0.0000, 0.0000, 0.0000, 0.0000, 0.0000, 0.0000, 0.0000, -0.0625, -0.0625, 0.0000, 0.0000, 0.0000, 0.0625, 0.0625, 0.0000, 0.0000, 0.0625, 0.0625, 0.0625, -0.0625, -0.0625, -0.0625, 0.0000, 0.0000, 0.0000, 0.0000, -0.0625, 0.0000, 0.0625, -0.0625, 0.0625, 0.0625, 0.0000, -0.0625, 0.0000, 0.0000, 0.0000, -0.0625, 0.0625, -0.0625, 0.0000, 0.0000, 0.0000, 0.0625, -0.0625, 0.0625, 0.0625, -0.0625, 0.0625, 0.0000, 0.0625, 0.0625, -0.0625, 0.0625, 0.0000, -0.0625, 0.0000, -0.0625, 0.0000, 0.0000, 0.0000, 0.0000, 0.0000, 0.0000, -0.0625, 0.0625, 0.0625, 0.0000, -0.0625, -0.0625, 0.0000, 0.0625, 0.0000, 0.0625, -0.0625, 0.0625, 0.0625, 0.0000, 0.0000, 0.0625, 0.0000, 0.0000, -0.0625, 0.0625, 0.0625, 0.0000, 0.0000, 0.0000, 0.0000, 0.0625, 0.0625, 0.0000, 0.0000, 0.0000, 0.0000, 0.0000, 0.0000, 0.0000, 0.0000, 0.0625, 0.0000, -0.0625, 0.0625, 0.0000, 0.0000, 0.0000, -0.0625, -0.0625, -0.0625, 0.0000, -0.0625, 0.0000, 0.0000, -0.0625, 0.0000, -0.0625, -0.0625, 0.0000, 0.0000, 0.0000, 0.0000, -0.0625, 0.0625, -0.0625, 0.0000, 0.0625, 0.0000, 0.0625, 0.0625, 0.0000, -0.0625, 0.0000, -0.0625, -0.0625, 0.0000, 0.0000, 0.0000, -0.0625, 0.0000, 0.0625, 0.0000, 0.0625, 0.0625, -0.0625, 0.0000, 0.0625, 0.0000, 0.0000, 0.0000, -0.0625, 0.0000, 0.0000, 0.0000, 0.0000, 0.0625, 0.0000, 0.0000, -0.0625, 0.0000, -0.0625, 0.0625, 0.0000, -0.0625, 0.0000, 0.0000, 0.0000, -0.0625, 0.0000, 0.0000, -0.0625, 0.0000, 0.0000, 0.0625, 0.0000, 0.0000, 0.0000, 0.0000, 0.0000, -0.0625, 0.0000, 0.0625, 0.0000, -0.0625, 0.0000, 0.0625, -0.0625, 0.0000, 0.0625, -0.0625, -0.0625, -0.0625, -0.0625, 0.0625, 0.0000, 0.0000, -0.0625, -0.0625, 0.0625, 0.0000, 0.0000, -0.0625, -0.0625, 0.0625, 0.0000, 0.0625, -0.0625, 0.0000, 0.0625, -0.0625, 0.0000, -0.0625, 0.0000, 0.0625, -0.0625, 0.0625, -0.0625, -0.0625, 0.0000, 0.0000, 0.0625, 0.0000, -0.0625, 0.0000, 0.0000, 0.0000, 0.0000, -0.0625, 0.0000, 0.0000, 0.0625, -0.0625, 0.0000, 0.0625, 0.0000, 0.0000, 0.0625, 0.0000, 0.0625, -0.0625, 0.0000, -0.0625, 0.0000, 0.0000, -0.0625, 0.0000, 0.0000, -0.0625, 0.0000, -0.0625, 0.0000, 0.0625, -0.0625, 0.0625, -0.0625, 0.0625, -0.0625, -0.0625, 0.0625, -0.0625, 0.0000, 0.0000, 0.0000, 0.0000, 0.0000, 0.0000, 0.0000, 0.0000, 0.0000, 0.0625, 0.0000, 0.0000, 0.0000, -0.0625, 0.0000, -0.0625, 0.0625, 0.0000, 0.0000, -0.0625, -0.0625, 0.0000, 0.0000, 0.0625, 0.0625, 0.0625, -0.0625, 0.0000, -0.0625, 0.0625, 0.0000, 0.0625, 0.0000, 0.0625, 0.0000, 0.0000, 0.0000, -0.0625, 0.0000, 0.0625, 0.0000, 0.0625, 0.0000, 0.0000, 0.0625, 0.0000, 0.0625, 0.0000, 0.0000, 0.0000, -0.0625, 0.0000, -0.0625, 0.0000, 0.0625, 0.0000, 0.0000, 0.0625, 0.0625, 0.0000, 0.0000, -0.0625, -0.0625, 0.0000, 0.0000, 0.0000, -0.0625, -0.0625, 0.0625, 0.0000, 0.0000, -0.0625, 0.0000, 0.0000, 0.0000, 0.0000, 0.0000, 0.0000, 0.0625, -0.0625, 0.0000, -0.0625, -0.0625, 0.0000, 0.0000, 0.0000, 0.0000, 0.0000, 0.0625, -0.0625, 0.0000, 0.0000, 0.0000, 0.0000, 0.0000, 0.0625, 0.0000, -0.0625, 0.0625, -0.0625, -0.0625, -0.0625, -0.0625, 0.0625, 0.0000, 0.0000, 0.0000, 0.0000, 0.0000, 0.0000, 0.0625, 0.0000, 0.0000, 0.0625, 0.0625, 0.0625, 0.0000, -0.0625, 0.0000, 0.0000, -0.0625, -0.0625, 0.0625, 0.0625, -0.0625, 0.0625, -0.0625, 0.0000, 0.0625, 0.0000, 0.0625, -0.0625, 0.0000, 0.0625, 0.0625, 0.0000, 0.0000, -0.0625, 0.0625, 0.0000, 0.0000, 0.0000, 0.0000, 0.0000, -0.0625, 0.0000, -0.0625, 0.0625, 0.0000, -0.0625, 0.0625, 0.0000, -0.0625, 0.0625, -0.0625, 0.0625, 0.0625, -0.0625, -0.0625, 0.0625, 0.0625, 0.0000, 0.0000, 0.0625, 0.0000, 0.0000, 0.0625, -0.0625, 0.0000, 0.0000, 0.0000, 0.0000, 0.0625, 0.0625, -0.0625, 0.0000, 0.0000, 0.0000, 0.0000, 0.0625, -0.0625, -0.0625, 0.0000, 0.0000, 0.0000, -0.0625, 0.0000, 0.0000, 0.0000, -0.0625, 0.0000, 0.0625, 0.0625, 0.0000, 0.0000, 0.0000, -0.0625, -0.0625, 0.0000, 0.0000, -0.0625, 0.0000, -0.0625, 0.0625, 0.0000, 0.0000, 0.0000, 0.0000, -0.0625, -0.0625, 0.0000, 0.0000, -0.0625, 0.0000, 0.0000, 0.0000, 0.0000, -0.0625, 0.0625, -0.0625, 0.0625, 0.0000, 0.0000, 0.0625, -0.0625, 0.0625, -0.0625, 0.0625, 0.0625, 0.0000, 0.0000, 0.0000, 0.0625, 0.0625, 0.0000, 0.0000, -0.0625, 0.0000, -0.0625, 0.0000, 0.0625, 0.0000, -0.0625, 0.0625, 0.0625, 0.0625, 0.0000, -0.0625, 0.0000, 0.0000, -0.0625, 0.0000, -0.0625, 0.0625, -0.0625, 0.0000, 0.0000, 0.0000, 0.0625, 0.0000, 0.0625, 0.0000, 0.0625, 0.0000, 0.0000, 0.0625, 0.0625, 0.0000, 0.0625, 0.0000, 0.0625, -0.0625, 0.0000, 0.0000, 0.0000, 0.0625, 0.0000, 0.0625, -0.0625, -0.0625, 0.0625, -0.0625, 0.0000, 0.0625, 0.0000, -0.0625, 0.0000, -0.0625, -0.0625, 0.0000, 0.0000, 0.0000, -0.0625, 0.0625, 0.0625, -0.0625, -0.0625, -0.0625, 0.0000, 0.0000, 0.0000, 0.0000, 0.0625, -0.0625, 0.0000, 0.0000, -0.0625, 0.0000, 0.0000, -0.0625, 0.0000, 0.0000, 0.0000, 0.0000, 0.0000, 0.0000, -0.0625, 0.0625, 0.0000, 0.0000, 0.0625, 0.0000, 0.0000, 0.0625, -0.0625, 0.0625, 0.0000, -0.0625, 0.0000, 0.0625, -0.0625, -0.0625, 0.0625, 0.0000, -0.0625, -0.0625, -0.0625, 0.0625, 0.0000, -0.0625, 0.0625, -0.0625, 0.0000, 0.0000, 0.0625, 0.0000, 0.0000, 0.0000, 0.0625, 0.0000, 0.0625, 0.0000, 0.0000, 0.0625, 0.0000, 0.0000, -0.0625, 0.0000, 0.0625, 0.0000, 0.0000, 0.0625, 0.0625, -0.0625, -0.0625, 0.0625, 0.0000, 0.0000, -0.0625, -0.0625, 0.0000, 0.0625, 0.0625, 0.0625, 0.0000, 0.0625, -0.0625, -0.0625, 0.0000, 0.0000, 0.0000, 0.0000, 0.0000, 0.0000, 0.0625, 0.0000, -0.0625, -0.0625, 0.0625, 0.0625, -0.0625, 0.0000, 0.0625, 0.0000, 0.0625, 0.0625, 0.0000, 0.0000, 0.0000, 0.0000, 0.0000, 0.0000, 0.0000, 0.0000, 0.0625, -0.0625, 0.0625, 0.0000, 0.0625, 0.0000, 0.0625, 0.0000, 0.0625, 0.0000, 0.0000, -0.0625, -0.0625, -0.0625, 0.0625, -0.0625, -0.0625, 0.0000, 0.0000, 0.0000, 0.0625, -0.0625, 0.0000, 0.0625, 0.0000, 0.0625, 0.0000, 0.0625, 0.0000, -0.0625, 0.0625, 0.0625, 0.0000, -0.0625, 0.0000, 0.0000, -0.0625, 0.0000, -0.0625, 0.0000};
#endif

#endif
