//Numpy array shape [793, 64]
//Min -1.625000000000
//Max 1.625000000000
//Number of zeros 12455

#ifndef W3_H_
#define W3_H_

#ifndef __SYNTHESIS__
weight3_t w3[50752];
#else
weight3_t w3[50752] = {0.000, 0.750, -0.500, -0.625, 0.000, 1.125, 0.000, 0.750, -0.500, 0.625, -1.125, 0.000, -1.250, 1.000, -0.875, 0.000, -0.875, 1.250, 0.375, -0.375, 0.000, -0.375, 0.500, -0.625, -0.875, 0.625, -1.125, -1.125, -0.500, 0.750, 0.000, 0.375, 1.125, -0.875, 0.000, 0.875, 0.625, 0.375, -0.375, -0.375, 0.000, 0.000, 1.000, 0.875, 0.625, 0.375, -0.625, -1.000, 1.000, 0.500, -0.625, 0.500, -0.875, -1.250, -0.875, 1.250, 1.000, 0.750, -1.000, 1.250, -1.375, 0.000, 0.000, 0.375, -1.250, -0.875, -0.625, 0.000, -0.750, -1.250, 0.000, 0.500, -0.500, 1.000, -0.375, -1.000, 0.750, 0.750, -1.250, -0.375, 0.000, -1.125, -0.375, 0.000, 0.625, 0.000, -0.625, 0.000, -0.500, 1.000, 0.000, -0.500, -1.125, 0.375, -0.375, 1.250, -0.625, -0.875, 0.000, -0.500, -1.000, 0.750, 0.000, 0.875, 0.000, -0.875, 0.750, 0.000, 1.125, -1.250, 0.500, -0.750, 0.000, 1.000, 1.125, -0.875, 0.000, 0.000, -0.375, 0.875, -1.125, -0.375, -0.625, -0.625, -0.875, 0.750, 0.000, -1.250, 0.750, 0.000, -0.625, -0.500, 0.000, 0.750, 0.375, 0.000, 1.000, -0.875, 1.250, -0.750, 0.625, 1.375, -0.625, 0.000, -0.750, -1.125, -0.875, 0.000, 0.375, 0.000, 1.000, 1.250, 1.375, 0.000, 0.625, -1.000, 0.000, -1.125, -0.500, -0.875, 0.625, -0.375, 0.000, -0.500, -0.375, 0.500, 0.875, 0.000, 0.000, 0.875, 1.000, 0.875, 0.625, -1.000, 1.125, -0.500, -0.750, -0.625, 1.125, 0.375, 0.000, 1.000, 0.000, 0.625, 0.000, -1.000, -1.000, -0.500, 0.000, 0.500, 0.625, 1.250, -0.375, -1.250, -1.125, -0.875, 0.500, -0.750, -0.375, -1.125, -0.500, -0.875, 0.875, 0.000, 0.000, 1.250, 0.000, 0.000, -0.500, -0.375, 0.000, -0.625, -0.750, 0.625, -0.500, -0.875, -1.000, 1.125, 0.000, -0.875, 0.375, 1.250, 0.750, 0.500, 0.875, 0.875, -0.625, -1.250, 0.000, 0.000, 0.500, -0.750, -0.625, -0.500, 0.875, -0.625, -0.375, 0.000, -1.125, 0.000, 0.000, 0.000, 0.500, -0.375, 1.000, -0.750, 0.000, -0.625, 0.375, 0.000, -0.750, 0.625, -0.625, -1.250, 0.000, 1.125, 0.375, 0.500, -1.125, -0.375, 0.500, -0.875, 0.000, 0.000, -0.375, 0.000, -0.500, -0.625, 0.750, 0.000, -1.000, 0.000, 1.125, 0.500, 0.375, -0.625, -1.125, 0.000, 0.625, 0.000, -1.125, 0.000, 1.000, 0.500, -1.000, -0.875, -0.375, 1.125, 0.375, 0.000, -0.500, 0.750, 1.250, 0.000, 0.000, 0.000, 0.000, 0.000, -0.500, 0.750, 1.125, 0.375, 1.125, 0.500, 0.500, -0.500, 0.000, 0.500, 0.625, 1.000, -1.250, -0.875, 0.000, -0.625, -0.750, 0.875, 1.125, 0.750, -0.625, 0.875, 0.000, 0.000, -1.250, -0.625, 0.000, -0.875, 1.125, -0.625, 0.750, 0.000, 0.500, 0.000, 0.000, -0.375, -0.875, 0.625, 0.875, -1.125, -1.250, 0.000, -1.125, -0.500, -0.500, 1.000, -0.750, 0.000, 0.000, 0.000, -0.500, 1.250, 0.000, 0.875, 0.000, 0.000, 1.000, -0.625, 0.000, 0.000, 1.250, 1.000, 0.000, 0.500, 0.000, -0.875, 0.750, -0.500, 0.750, 0.000, 0.000, 0.000, 0.000, -0.750, 1.125, -0.375, -0.500, 0.750, 0.000, 0.000, -1.000, -1.250, 0.500, -1.000, 0.375, -0.625, -0.625, -1.250, -1.250, 0.000, 1.250, -1.000, -0.625, 0.375, -0.375, -0.375, -1.250, 0.000, 0.000, 1.125, 0.875, -0.375, -1.000, -1.250, -0.500, -0.625, 0.000, 0.000, 0.375, 1.250, 0.000, 0.000, 0.000, -0.750, 0.625, 0.000, -0.750, -1.000, 0.500, 0.750, 1.125, 0.875, 0.875, -1.125, -0.375, 0.000, 1.125, 1.000, -1.375, 0.875, -0.875, -0.750, 1.125, -1.375, 0.625, 0.375, 0.375, 0.000, -1.125, -0.375, 0.000, 0.375, 0.625, 0.875, 0.625, -1.250, -0.875, 1.375, 0.000, 1.250, 0.000, -1.125, 0.500, -0.375, 0.875, -0.875, 0.375, 0.000, 0.000, -1.250, 0.500, 0.875, 0.000, -1.000, 0.750, -0.875, -0.750, -1.250, -0.625, 0.000, -0.750, -1.125, -0.500, -1.000, 0.000, 1.125, -0.875, 1.000, 0.875, -0.625, -0.500, -0.500, 0.875, 1.000, 0.000, -0.500, -0.875, 0.625, -1.125, 0.750, -0.875, -1.000, -1.250, -0.875, -0.875, 1.000, -0.500, 0.875, 0.000, 0.375, 1.000, -0.625, 1.000, 0.500, -0.625, 0.000, 0.000, 0.000, -1.375, 0.375, -1.125, -0.625, 0.000, -0.750, 0.875, 0.000, -0.875, 0.375, -0.625, 1.000, 1.250, -1.000, 0.000, -0.625, 1.000, 0.000, -1.125, 1.250, 0.000, 0.500, 0.000, 0.875, 0.375, -0.875, 0.750, 1.125, -1.000, 0.500, 0.000, 0.375, 1.000, -0.625, 0.375, -0.375, 1.000, 0.000, 0.625, 1.250, -0.750, 0.375, 0.000, -1.125, -0.750, -0.750, -1.000, 0.750, 0.375, -1.125, 0.500, 1.125, -1.250, -0.750, 1.000, -0.625, -0.625, -0.500, 0.000, 1.125, 0.000, 1.250, -0.500, -0.750, 0.000, -1.125, 1.125, 0.625, 0.375, 0.000, 0.000, 0.000, 0.000, 0.875, -0.500, 0.750, 0.625, 1.000, -1.250, -1.125, -0.750, -0.500, 0.000, 0.000, 0.000, 0.000, 0.500, -0.875, -0.875, 0.000, -0.625, 0.000, 0.000, -0.750, -1.250, 0.000, 0.000, 1.125, -1.250, 1.125, 0.000, 0.000, 0.750, -0.875, 0.000, 0.000, 0.000, -1.125, -1.125, -0.625, 0.500, 0.500, 1.125, -0.375, 0.000, 0.000, 0.875, 0.000, -0.625, 0.000, -0.875, 0.375, 1.125, 1.000, 0.000, -0.875, 1.125, 0.000, 0.875, 0.750, 0.625, 0.500, 0.000, 1.000, -0.875, -0.500, 0.625, -0.500, 1.125, -0.875, 0.000, 0.000, -0.625, -0.375, 0.000, -1.000, 0.750, 0.500, 0.000, -0.875, 0.000, 0.625, 0.875, -0.750, 0.875, 0.500, 0.875, 0.000, -0.875, 0.000, 1.125, 1.125, 0.000, 1.250, -1.125, 0.750, -0.875, 1.000, -0.500, -0.750, -0.750, 0.000, 0.625, 0.500, 0.875, 0.500, -0.375, 0.000, -1.000, 0.000, 1.000, 0.000, -0.625, -1.000, -1.000, -1.250, -0.625, 0.375, 0.375, 0.875, 1.125, 1.125, -1.125, -0.750, 0.625, 0.000, -0.750, -0.500, 0.500, 1.000, 0.000, -1.000, -1.250, 0.000, -0.375, 1.250, 0.500, -0.375, 0.500, 0.000, -0.375, 0.000, 1.125, 0.500, -1.250, -0.750, 0.500, 1.125, -1.000, 0.000, 0.750, 1.125, 0.375, 0.500, -0.625, 0.000, -0.500, 0.000, -0.500, 0.000, 0.375, -1.250, 0.000, -0.625, 0.000, 0.000, 0.000, 1.250, -1.125, -1.000, 0.625, 0.750, -0.375, 0.625, 0.875, 0.500, 1.000, 0.000, 0.625, -1.250, 0.000, 0.750, 0.500, -1.375, -1.000, 0.000, 0.500, 0.000, 1.250, 1.125, -0.875, 1.000, -1.250, 0.875, -0.750, -0.375, 0.000, 0.875, -0.875, -1.250, -0.500, -0.625, -0.625, -0.625, 1.125, 0.875, -1.125, 0.500, -0.500, 0.375, 0.750, -0.375, -0.375, 0.750, -0.750, -1.250, 0.750, 0.375, 0.000, -1.250, -0.500, -0.375, 0.625, 0.000, 0.625, 0.750, 0.625, 0.000, -0.375, 0.750, -0.500, 0.375, -1.125, -1.125, -0.875, 0.000, -0.625, 0.875, 0.000, 0.875, 0.500, -0.625, 1.125, -0.875, 1.375, 0.000, -0.625, 0.875, 1.125, 0.000, 0.375, -1.000, -0.375, 0.625, 0.750, 0.625, 0.000, -1.000, -1.125, 1.125, 0.000, -1.000, 0.000, -1.000, 0.000, 0.500, 0.000, 1.250, -0.750, 0.500, -0.750, 1.125, -0.500, 0.000, -0.375, 0.625, 1.000, -0.625, 1.375, -1.000, 0.875, 0.000, -1.250, 0.375, 0.375, 1.125, -0.375, 0.000, -1.000, 0.625, 0.375, -0.500, 1.125, 0.000, 0.000, 0.000, 1.000, -0.375, -0.875, 0.375, 1.000, -1.250, 0.625, -0.875, -0.875, -0.875, -0.750, 1.000, 1.125, 1.125, -0.500, -0.500, -0.500, 0.000, -1.000, 1.250, -0.500, -0.875, 1.125, -1.000, 1.000, 0.500, -0.625, 0.000, -0.500, -1.375, 1.250, 1.125, -0.625, 0.375, 0.000, -1.125, 0.000, -0.750, -0.375, 1.250, -0.875, 0.375, 0.750, -0.875, 0.875, -0.375, -0.625, 1.250, -0.500, -0.875, 0.000, 1.000, 0.000, -0.875, 0.375, 1.375, 0.500, -1.375, -1.250, -0.875, 0.750, 0.750, -0.375, 0.000, 0.000, -0.625, 0.000, -0.875, -0.500, 0.000, -1.125, 0.625, 0.000, 0.875, 0.500, -1.250, -1.000, -0.500, -1.000, 0.625, -1.000, -1.125, 0.000, 0.875, 0.000, 1.250, -0.625, 1.000, 1.000, 0.750, -0.625, 0.000, -0.375, 0.750, 0.000, -1.125, -1.125, 0.000, 0.375, 0.875, -0.625, 0.000, 0.000, 0.875, -0.500, 0.875, -0.875, 0.000, 0.625, 0.000, -0.750, -1.125, -0.500, 0.750, -1.250, -1.250, 0.000, 1.250, 0.500, 0.375, 0.000, 1.000, 1.000, -0.875, 0.000, 0.000, -1.250, 1.250, -0.875, 1.000, 1.000, -0.375, -1.000, -0.625, -1.000, 0.000, 0.000, 0.875, -0.750, 1.250, -1.375, 0.875, 0.625, 0.500, -1.000, 0.000, 0.750, 1.125, -0.500, 0.000, 0.000, -0.500, 0.375, 1.125, -1.375, 0.000, 0.625, 0.750, 0.000, -0.500, 1.125, -1.125, 1.125, -0.625, -0.875, 0.000, -0.750, 0.000, 0.000, 0.500, 0.000, -0.750, 0.500, -1.375, -0.500, 0.000, 0.000, -0.750, 0.375, 1.125, 0.875, -0.750, -0.375, 0.000, 1.250, 0.500, 0.000, -0.875, 0.000, 0.875, 1.375, 0.000, 1.125, -0.625, 0.500, 0.000, -0.625, 1.000, -1.125, 0.000, 0.375, -0.750, 0.750, -1.000, -0.875, -0.500, -1.000, -1.125, 0.000, -1.000, -0.750, -0.750, 0.000, -1.000, 0.000, -0.500, 0.000, -0.625, -0.500, 1.500, -1.125, 0.000, 0.000, -0.375, 0.000, 1.000, 0.625, 0.000, 0.875, 1.125, 0.375, -0.750, -0.375, -0.500, 0.000, 1.250, 0.000, -0.625, -0.750, -0.875, 0.000, 0.750, -0.750, 0.000, 0.500, 1.125, -1.000, 0.875, -1.125, 0.875, -0.875, 0.000, 0.000, 0.000, -0.500, -0.750, 1.000, 0.000, -1.125, 0.750, -0.625, 0.875, 0.000, -1.375, 0.000, 1.125, 0.875, 0.000, 0.000, 1.125, 0.000, -0.875, 0.625, 0.000, 1.125, 0.875, 1.125, 1.250, 0.000, -0.500, 0.625, 0.875, -0.500, 0.750, 0.000, 0.000, 0.000, -0.750, 0.000, 0.500, -1.000, 1.000, 0.000, -0.500, 1.125, 0.000, 0.000, 0.000, 0.000, -0.750, -0.750, -1.125, -1.000, 1.250, 0.000, 0.625, 0.625, -0.375, 0.000, -0.750, -0.375, 0.875, -1.125, 0.500, 1.250, 0.625, -1.000, 0.625, 1.125, 1.250, 0.500, -0.375, -0.750, 0.000, 1.250, -1.000, 0.375, 0.500, -0.750, 0.625, -0.625, 1.000, -0.875, -1.250, 0.375, 1.125, 1.250, 0.000, -1.000, -0.875, 0.750, 0.000, 1.250, 1.000, 1.000, -0.500, -0.625, -1.000, 1.000, -0.500, 1.000, -0.875, 0.000, -1.375, 0.000, 0.500, -0.875, -0.625, -0.875, -0.625, -1.000, -0.750, 0.000, 1.000, 0.000, 0.000, -1.125, 0.875, -1.000, 0.750, -0.875, 0.000, 0.875, -1.250, 0.750, -1.375, 0.000, 0.000, 0.875, -1.250, -0.750, 0.000, 0.750, 0.625, 0.000, 1.125, -1.000, 0.000, 0.000, -0.875, 0.750, 1.000, 0.000, 0.000, -0.375, 0.000, 0.000, -0.750, 1.000, 0.000, -0.750, 0.000, 0.000, 1.000, -1.125, 0.750, 0.000, -1.250, -1.000, 0.375, 0.000, 0.500, -0.500, 1.250, 0.625, 0.000, -1.000, -0.625, 0.000, -0.625, -0.875, 0.000, -0.375, -0.375, 0.000, 0.375, 1.250, 0.875, -0.750, -0.375, 1.000, -0.500, 0.000, -0.625, -0.375, -0.500, 1.000, -1.250, 0.375, 0.875, 0.750, -0.375, 0.875, -1.250, 1.000, 0.000, 0.000, 0.000, 1.000, 0.000, 0.000, -1.125, -0.750, -1.125, 0.375, -0.750, 0.000, 0.875, -0.500, -0.625, -0.875, -0.875, -0.625, 0.500, -1.250, 0.000, 0.500, 0.000, 1.125, 0.000, -0.875, 1.125, -1.250, -1.250, 1.250, 0.000, 0.625, -0.500, -0.500, 0.375, 0.750, -0.750, 1.000, -1.125, -1.375, 0.000, 0.500, 0.000, 0.000, 0.000, 0.500, 1.250, -0.500, 0.000, 0.500, 0.625, 0.500, 0.000, -0.375, -0.875, 0.000, 1.125, 0.750, -1.125, 0.000, 0.375, 0.000, 0.875, -1.125, 1.125, 0.625, -1.125, -0.375, 0.000, 0.000, 0.000, 0.000, 1.000, -0.750, 0.000, 0.000, 1.125, -0.625, 1.250, 0.875, 0.625, 0.000, -0.375, 0.750, 0.375, -1.250, 1.125, 0.875, -0.750, 0.000, 0.000, -1.125, 0.000, 1.125, 0.000, -0.375, 1.000, 0.000, 0.000, 0.500, 0.750, 0.625, -0.750, 0.000, 1.125, 0.750, 0.000, 0.000, 1.375, 0.000, 0.750, 0.000, 0.000, 0.750, -1.000, 0.500, 0.000, -0.625, 0.000, 0.875, 0.000, 1.000, 0.875, -1.125, 0.375, -0.375, -0.500, -0.875, 0.000, 0.750, 1.000, -1.125, 0.875, 0.500, 0.500, -0.875, -0.375, -0.375, -0.750, 0.000, 0.000, -1.250, -0.625, 0.000, -0.750, 0.500, -0.625, 0.500, -0.750, -0.500, 0.000, 0.000, -0.500, 1.250, -0.625, 0.500, 1.125, -0.625, -1.250, 1.000, 1.250, -0.875, -0.375, 1.250, 1.250, 0.875, -1.000, 0.500, 0.000, 0.000, -0.375, -1.125, -0.750, 1.250, 0.875, 0.500, -1.000, -0.625, 1.000, 0.750, -1.250, -0.875, -1.125, -0.875, -1.000, -1.125, 0.750, 0.000, 0.000, 0.500, 0.000, 0.000, -0.625, -0.625, -1.250, -0.625, 0.000, 0.750, 0.625, 0.625, 0.000, -0.500, 0.750, 0.000, 0.000, 1.000, -1.000, -1.125, 0.750, -0.875, 0.625, -0.375, 0.375, 0.000, 1.000, 0.750, -0.625, 0.625, 0.625, 0.000, 0.375, -0.875, -0.625, 0.000, -1.000, 1.000, 1.250, -1.000, -0.375, 0.000, 0.375, -0.500, 0.000, 0.000, 0.000, 0.000, 0.000, 0.000, 0.000, -1.250, -0.375, -0.500, 0.750, -1.125, -1.125, 0.000, 0.000, 0.000, 0.000, 0.000, 0.000, 0.875, -0.500, -0.500, 0.875, -1.000, 0.000, -0.750, -0.625, 0.000, -1.125, -1.000, 0.000, 0.000, 0.875, -1.375, -0.750, -0.750, -0.750, -0.750, -0.625, -1.125, 1.250, -0.875, 1.250, 1.250, 0.375, 1.000, -0.500, 1.125, -0.625, -1.125, 0.000, 0.000, -0.375, -1.000, -1.000, 0.500, 0.625, 1.250, 0.375, 0.000, -0.750, -0.750, 1.125, 0.000, -1.000, 0.000, -0.625, 0.375, -1.250, -1.125, 0.500, -1.375, 0.750, 0.000, 1.125, -1.000, -0.375, -1.000, 0.750, 0.000, 0.375, -0.875, 0.375, 1.125, 0.375, 1.250, 0.750, -1.250, -0.750, -0.500, -1.250, -1.250, 1.125, 0.000, -1.250, 0.750, -0.875, 1.250, -0.625, -1.125, 1.125, -0.625, 0.000, -0.750, -1.000, 0.000, 0.375, -0.750, -0.750, -1.125, 0.000, -0.625, -1.000, 1.250, -0.375, 1.125, -0.500, 1.000, 0.000, 0.750, 1.250, 1.250, 1.250, 0.000, -0.500, 0.000, -0.875, 0.500, 1.125, 0.375, 1.000, 0.375, -0.750, 0.750, -0.500, -0.625, -1.125, 0.000, 1.125, -1.125, -0.375, 0.000, 0.625, -1.125, 0.000, -0.500, 0.000, -1.125, 0.375, 1.250, -0.375, -0.375, -1.250, 0.875, -0.500, 0.625, -0.625, 0.500, 1.125, 0.750, -0.375, -0.750, -1.000, 0.625, 0.000, 0.000, -0.875, 0.000, -0.500, -0.875, -1.000, -1.000, -0.375, 0.000, 0.000, 0.000, 0.000, 0.500, 0.625, -0.500, -1.125, -1.000, 0.000, 0.000, -1.375, -0.500, -0.500, -0.625, 0.625, 0.000, 0.625, 0.750, -0.750, 0.000, 0.500, 1.250, 0.000, 0.000, -0.500, 0.000, 0.000, 0.500, -0.500, -0.875, -0.625, 0.000, 1.125, 0.500, 0.000, 0.500, 0.000, 0.000, -1.000, -1.250, -0.750, 0.750, 0.375, 0.875, -0.625, 1.000, 1.250, 1.250, 0.625, 0.875, 0.625, 0.750, 0.375, 0.000, 0.000, 1.250, -0.375, 0.500, 0.750, 1.375, -0.500, 1.125, 0.000, 1.125, 0.500, 0.500, 1.125, -1.250, 0.000, 1.000, -1.125, 0.500, 0.500, 0.625, -1.125, -1.125, 0.750, -0.375, 0.000, -0.875, -0.375, -0.875, -0.500, 0.000, 0.000, -1.125, 1.125, 0.500, -0.750, 0.875, -0.500, 0.875, 1.125, 0.375, 0.875, 0.000, 0.750, 0.000, 0.625, 0.000, -0.375, -1.000, -1.000, 1.125, -0.875, 1.125, 1.000, 1.125, -0.875, 0.500, 0.875, 1.000, -0.625, 0.000, -0.750, 0.500, 1.000, -0.875, -0.625, 1.000, 0.000, -0.750, 0.000, 0.000, 0.000, 0.000, 0.500, -0.500, -0.375, -0.750, 0.875, 1.250, 0.500, -0.750, -0.375, -1.250, -0.750, -1.125, 0.875, -0.375, 1.125, 0.625, 1.000, -0.625, -1.000, -0.875, -0.375, -0.750, 1.000, 0.375, 0.875, 0.000, 0.000, -0.875, 0.375, 0.000, 0.750, 0.375, -0.875, -0.750, -0.875, 1.000, -0.625, 1.000, 0.875, -0.375, 1.250, 0.000, 0.000, 0.625, 0.000, -0.750, -1.125, 0.625, -0.500, -0.750, -0.625, -0.500, 0.750, 1.250, 0.000, 0.000, -1.000, 1.125, 0.500, -1.125, -0.500, 0.625, -1.000, 0.000, -0.750, -0.500, 0.000, -0.750, -1.125, 0.000, 0.000, -1.125, -0.375, -1.125, 0.500, 0.375, -0.500, -0.750, -1.125, 1.250, 1.250, 1.250, -0.750, 0.000, -0.875, 0.000, 0.625, 1.250, -0.375, 0.750, 0.625, -0.625, -0.875, 1.125, 1.250, 0.000, 0.375, 0.875, -0.500, -1.250, 1.125, 0.000, -0.875, 0.625, 0.000, 0.375, -1.375, 0.500, 0.000, 1.125, -0.375, -0.625, -0.625, 1.000, -0.875, -0.750, 1.125, 0.000, -0.875, 0.000, -0.625, 1.125, 0.000, -0.375, 1.125, 0.375, -0.375, -0.500, 0.000, 0.750, -0.500, -0.625, -0.375, 1.125, -0.750, 0.875, -1.125, 0.500, -0.500, 1.250, -1.375, -1.000, -0.875, -0.375, 0.000, 0.000, 1.250, -0.625, 1.000, 0.000, -0.625, -1.125, -0.375, -0.500, 0.000, -0.750, -0.500, 0.000, -0.500, 1.125, 0.000, -1.250, -1.125, -1.250, 0.000, 0.875, 0.000, 0.500, 0.000, 0.000, 0.375, -0.875, 0.875, 0.500, -0.500, 0.625, 0.000, -1.125, -0.875, 0.875, -0.750, 0.000, 0.375, -0.500, 0.625, 0.875, 0.000, 0.000, 0.750, 0.000, 1.125, 0.000, -0.625, 1.000, 0.000, -0.375, 0.375, 0.000, -0.875, -0.625, 0.000, 0.000, -0.875, 0.750, -1.125, 0.375, 0.375, 0.375, -0.625, -0.875, 1.000, 0.875, -0.375, 1.125, -1.000, 0.000, -1.000, 0.875, -0.875, 0.000, -0.375, 1.000, -0.750, -0.375, 0.000, -0.750, 0.500, 0.500, -0.750, 0.000, -0.375, 1.000, 1.250, 1.000, -0.375, 1.375, -0.875, -0.750, -1.000, -1.125, -0.625, 0.000, 0.500, -0.750, -0.750, -0.500, 1.000, -0.500, -0.875, -0.500, 0.750, 0.375, 0.750, 1.125, -0.625, -0.750, 0.000, 0.625, -1.000, 0.000, -0.625, 0.000, 0.000, -0.750, 0.000, -0.750, 0.000, -1.250, 0.000, 0.000, 0.875, -1.250, 0.500, 0.875, -0.625, 1.125, 0.375, 1.250, 0.750, -0.875, 0.000, 0.750, 1.125, -1.250, -0.750, 0.875, -0.750, 0.500, 0.000, -0.875, 0.000, 0.875, 1.250, -1.375, 0.625, -1.000, 0.000, -0.750, 1.000, 0.750, 0.375, 0.000, 0.500, -0.750, -0.500, 0.000, 0.625, -0.375, 0.750, -1.125, 0.000, 0.750, -1.125, -0.875, 0.750, 0.875, 0.625, 0.000, 0.000, 0.750, 1.250, -1.125, 1.250, 0.000, 0.000, 0.750, -0.625, 0.625, 0.000, 0.000, -0.500, 0.750, 1.125, -1.125, -1.000, 0.625, -1.250, -1.000, 0.000, 0.000, 1.000, 0.000, 0.750, 0.875, 1.250, 1.000, 0.000, -0.500, 1.125, 1.125, -0.500, 0.625, -1.125, 0.000, 1.000, 0.000, -1.250, 0.625, 0.000, -0.500, 0.625, 1.250, 0.000, 0.000, -0.750, 0.500, -0.625, -0.500, -1.125, -1.125, -0.500, 0.375, 1.000, -0.625, 0.000, 0.000, 0.000, 0.000, 1.125, 0.000, 1.000, 1.000, 0.000, 0.000, -1.000, 0.375, 0.375, 1.000, -0.375, 0.500, 0.750, 1.250, -0.875, 0.000, -0.875, -1.250, -0.500, 1.125, 0.000, -0.750, 0.375, -1.125, 0.000, -1.250, 1.000, -0.750, -0.750, -1.375, -1.125, 0.000, -0.750, -1.250, 1.000, 0.375, 1.250, 0.000, 0.000, -0.500, 0.000, 0.000, 1.125, -1.125, 1.000, -1.250, -0.750, 0.000, 0.750, -1.250, -1.125, 1.125, -0.625, 1.125, 0.625, -1.000, -0.625, -0.875, 0.500, 0.500, 0.875, 0.500, 1.250, -0.375, 0.000, 0.875, -1.250, 0.000, -0.875, 0.875, -0.750, -0.875, 1.000, -0.625, 0.000, 0.750, 0.625, -1.125, 1.125, 1.250, -0.875, -0.875, 0.000, 0.500, 1.000, -0.375, 0.000, 0.500, -0.500, 0.375, -1.125, 1.125, 0.625, 0.375, -1.250, 0.500, 0.000, -1.125, -1.125, 0.375, 1.000, 0.000, 1.000, -0.750, -1.000, 0.000, 0.625, -1.250, 0.000, -0.500, 0.000, -1.000, -0.875, 0.000, 0.875, -0.625, 1.000, 0.000, 0.000, -0.875, 1.125, -0.625, 0.000, 0.750, 0.625, -0.875, 0.750, 0.750, 0.375, -1.125, 0.500, -0.750, 0.000, -0.750, 0.875, 0.000, -0.875, -0.500, -1.375, 0.875, -0.625, 0.000, 0.000, 0.375, 0.000, 1.125, 0.000, 0.000, 1.000, -1.125, 0.625, -0.500, -0.500, -0.625, 0.625, -0.750, -1.250, 1.125, -1.375, 0.875, 1.250, 0.625, -0.500, 0.000, 0.750, -1.125, -0.750, 1.000, -0.875, 0.625, -1.125, 0.750, -0.750, 0.000, 0.375, 0.375, -1.000, 1.125, -0.375, 0.500, 0.625, 0.000, -0.625, 0.000, 1.125, -0.750, -0.875, -1.000, 0.375, -1.250, 0.625, -0.500, 0.375, 0.000, 0.750, -0.875, -0.750, 0.000, 0.625, 1.000, 0.000, 0.875, 0.500, 0.000, 0.000, -0.875, -1.375, -0.375, 0.375, 0.000, 1.375, 0.000, 0.000, 0.000, 0.000, 1.250, -0.875, 0.750, -1.250, 0.750, 0.500, 0.000, -1.000, 1.000, 0.000, 0.625, -1.250, 0.625, -1.250, 0.000, -0.750, 0.000, -1.125, -1.125, 0.750, 0.875, -0.375, -1.000, 0.500, -1.250, -0.500, -0.750, 0.000, 0.875, -0.875, -0.625, 0.000, -0.375, 1.125, 0.000, 0.000, 0.000, 0.000, 0.000, 0.625, -0.750, 0.000, 0.000, -1.000, -1.375, -0.750, -0.875, 0.000, -1.125, 0.000, 1.250, -0.750, 0.000, 0.000, 1.000, 0.000, 0.000, -1.000, 0.625, 0.875, 1.000, -0.875, 0.875, -0.500, 0.375, -0.750, 0.875, 1.125, 0.000, 0.000, 0.000, 0.000, 0.500, -0.500, -0.375, 0.000, 0.875, -0.750, 0.750, 0.875, -1.125, -1.000, -0.375, 0.000, 0.750, 0.000, 0.000, 0.375, 0.500, -1.125, 1.125, -0.375, -1.125, 1.250, -0.375, -1.250, -1.000, 0.000, 1.125, 0.000, -0.625, -1.250, 1.375, 0.000, -0.500, 0.000, 0.750, -1.250, 0.000, -1.125, 0.000, -0.375, -0.875, 0.000, 0.625, -1.250, -1.125, 1.250, 0.875, 0.000, -1.250, -0.625, 0.500, 0.000, 0.000, -0.625, 1.125, -0.500, 0.875, 0.000, 1.125, -0.750, 1.125, -0.875, 0.000, -1.125, -0.625, 0.375, -1.000, 0.000, 0.000, 0.750, -1.125, 0.875, 1.250, 1.250, 0.500, 0.625, -1.125, -1.125, 1.250, 0.000, 0.000, 0.625, 0.000, 0.000, -1.250, 0.000, -1.000, 0.000, 1.000, 0.625, -0.500, -0.375, -0.375, -0.500, 0.000, 0.000, -1.250, 0.000, 1.250, 1.000, 0.000, 0.500, -0.625, 0.000, 1.125, -0.625, -0.375, 0.000, -1.125, 0.375, 0.375, 0.875, 0.000, -0.625, -0.750, -0.750, 0.000, -0.375, 0.000, 1.250, -0.500, 1.000, -0.750, -0.625, 0.000, -0.875, -0.625, 0.000, -1.250, 0.875, -0.375, 0.000, 0.000, 0.000, -0.750, -1.375, -1.375, -0.875, 0.000, 0.500, 1.000, -0.875, 0.500, 0.750, -1.000, -0.750, 0.375, 1.250, -0.750, -0.500, 1.000, 0.000, 0.750, 0.875, 0.000, 0.000, 0.750, 1.125, 0.750, 0.625, 0.000, 0.000, 0.000, 0.000, -1.125, 1.125, -1.000, 0.625, 1.125, 0.875, -0.750, 0.375, -0.875, 0.000, -0.750, -1.000, 0.000, 0.500, 0.750, 0.375, 1.375, 0.875, -0.375, 0.500, 0.500, 0.000, 0.875, -0.375, -1.125, 0.500, 0.000, 0.000, 0.000, -0.500, 0.000, 1.000, 1.125, -1.125, -1.125, -0.625, 0.000, -0.375, 0.000, 0.625, 0.000, 0.375, -0.500, 1.375, 0.625, 0.750, 0.375, 0.375, -0.375, -1.125, 1.125, -0.750, 0.750, 1.000, 1.250, -0.500, 0.875, 1.125, -0.500, 0.875, -0.375, 0.000, -0.625, 0.500, 0.375, 0.375, -1.250, 0.375, 0.000, -1.250, 1.000, 0.000, 0.500, 0.500, 0.000, -0.750, -1.000, -0.750, -0.875, -0.750, -0.750, 0.000, 0.625, 0.500, 0.000, 1.125, -0.875, -0.875, -0.375, 0.750, -0.500, 0.000, -0.375, 1.000, 1.125, 0.000, 0.500, 0.000, 0.000, -0.875, -0.500, -0.375, 1.125, 0.750, 0.875, 0.750, -1.000, 0.000, 0.750, 0.000, 1.250, 0.625, -0.500, -1.125, -0.500, 0.000, 0.500, 0.000, 0.750, -0.500, -0.500, 0.000, 0.375, -0.875, -0.375, 0.625, -1.000, -0.875, -1.125, -1.000, 0.000, -0.625, 0.000, 0.625, 0.750, -1.000, -1.000, 0.000, 0.625, 0.500, 0.000, -0.500, 0.000, 0.000, 0.000, 0.375, -1.000, 1.000, 1.000, -0.375, 0.625, -1.000, 0.500, -0.500, -0.875, 0.500, -0.375, -1.125, -0.625, 1.000, -1.250, 0.875, -1.000, 0.625, 0.000, -1.000, -1.125, -1.125, 0.000, 0.750, 0.000, -0.625, 0.750, -0.625, 0.000, -0.625, 1.125, -0.500, 1.125, -1.250, 1.000, -1.000, 0.375, 0.000, -0.875, -0.875, 0.625, 0.625, -1.000, -1.000, 0.000, 1.125, 0.750, 0.500, 0.875, 0.000, -0.875, 0.500, 0.000, -1.250, 0.000, 1.250, -1.250, 0.000, -0.625, 0.000, -0.375, 0.000, 0.000, -0.625, 0.000, -0.875, -0.750, 1.125, -0.375, 0.000, 0.000, 0.000, 1.125, 1.000, 0.000, 0.750, -0.875, 0.500, 0.000, 1.250, -0.750, 0.000, 0.875, 1.250, -0.625, 0.625, -0.750, 0.625, -0.750, -0.375, -0.375, -0.875, 1.250, -0.500, 0.625, 0.750, 1.250, -1.125, -0.625, 0.000, 0.750, -0.875, -0.625, 0.375, 0.000, 1.000, 0.625, -0.625, 0.000, 0.375, -1.125, -1.125, 0.500, -0.625, -0.750, 0.000, -1.000, 0.750, 0.000, 1.125, 0.000, 0.875, 0.500, 0.000, -0.750, -0.875, 0.500, 0.875, 1.000, -1.000, -0.875, -0.625, -0.875, 1.125, 0.375, 0.750, -1.375, 1.000, 0.000, -1.000, 0.000, 0.000, 0.750, -0.500, -1.125, -1.250, -0.500, 0.375, 0.000, -1.125, 0.000, 0.750, 0.000, 0.000, 0.625, -1.000, 1.000, -1.000, 0.000, -0.875, 0.000, -0.500, -0.375, 0.375, 0.875, 1.125, 1.000, -0.875, -0.750, 0.000, 0.750, 0.000, 0.875, 0.625, 1.125, 1.000, 1.000, 0.000, -1.125, -0.500, 0.000, -1.000, 1.000, -0.750, -0.750, 0.500, 1.000, 1.375, -0.375, 0.000, 0.000, 0.375, -0.625, 1.250, 1.000, 0.000, 0.375, 0.000, -1.000, -0.375, -0.500, 0.000, 0.000, 1.125, 0.000, 0.000, -0.750, 0.000, 0.000, 1.250, 0.500, 1.250, 0.000, -0.375, -1.000, -0.500, 1.125, -0.750, 0.625, 0.750, -0.625, -0.375, -0.750, 0.000, -1.125, 1.000, 1.375, 0.750, 0.375, 0.625, -0.875, -0.500, 0.625, -0.750, 0.000, -1.125, 1.250, 1.250, -1.250, 1.000, 0.625, 1.125, -0.500, -1.000, 0.000, 0.000, 1.250, 0.375, -0.500, -0.750, 1.000, -0.875, 0.000, -0.625, 0.750, -0.625, 0.000, 0.000, -0.875, 0.000, 0.000, -1.250, -1.250, 0.500, -1.375, 0.000, -1.250, -0.750, -0.375, -1.250, 0.875, -0.625, 0.000, -0.750, -1.000, -1.125, 0.000, 0.500, -0.500, -1.250, 0.000, -1.250, -0.375, 0.625, -0.375, -1.000, 0.000, 0.500, -1.125, 0.500, -0.500, 0.000, -0.750, -0.500, 0.875, 0.000, -1.125, 0.750, -1.000, -1.375, -1.125, 0.875, 0.000, 0.000, 1.250, 0.000, -0.875, 1.250, 1.000, -0.500, -0.625, -0.875, 0.375, 0.000, 0.750, -0.625, 1.125, 0.875, 0.625, -0.750, 0.875, 1.250, 0.000, 1.250, -0.625, -1.375, 0.000, 0.000, 1.000, 0.000, -0.500, 0.000, 0.625, -1.125, 1.375, 1.000, -1.125, 1.000, 0.500, -1.250, -0.750, -0.625, 0.375, -0.750, -0.500, 0.500, 0.000, 0.375, 0.375, 0.000, 0.000, -1.000, 1.250, -1.000, 0.000, 0.000, -0.625, -1.125, -0.375, -1.125, 0.000, 1.250, -0.375, 0.000, 0.000, -1.000, 0.625, -1.375, 0.000, 0.875, 0.000, 0.000, -0.875, -1.125, 0.000, 0.000, 0.500, 0.375, 0.000, -1.125, 0.750, -1.125, 0.000, 0.000, 0.625, -0.625, -1.000, 0.000, 1.125, 0.000, 0.750, 1.250, 0.375, 0.750, -0.875, 1.000, -0.750, -0.500, -0.750, 0.875, 1.250, 0.625, 1.125, 0.750, 0.000, 1.000, 0.000, 1.375, 0.000, -0.750, 1.000, 0.000, 0.000, 0.750, 0.000, -1.000, 0.000, 0.000, 0.000, -1.125, 0.625, 0.375, -0.500, 1.250, 0.000, -0.625, -0.750, 1.125, -0.625, -0.375, -0.375, -1.250, 0.500, 0.750, 0.375, 0.000, 1.125, 0.875, 1.000, -0.750, 1.125, 0.000, -0.750, -0.625, 0.000, 1.250, 0.625, 0.500, 0.875, 1.125, 0.875, 0.875, 0.875, 0.000, 0.875, 0.375, 1.000, -0.625, 0.000, 0.000, -0.500, 0.000, 0.625, 0.000, 1.250, 0.000, 1.125, 0.375, 1.125, 0.500, -1.000, 0.750, 0.500, 0.000, -0.625, 0.750, -1.000, 0.000, 0.000, 1.125, -1.000, 1.125, 1.125, 0.000, -0.500, -0.375, -0.875, -0.625, 0.000, 0.875, 0.500, 0.000, 0.750, -1.000, -0.750, 1.000, -1.000, 0.750, 0.000, 0.000, 0.750, 0.000, -1.250, -1.125, 1.000, -0.625, 0.000, 1.250, -1.250, 0.500, 1.000, 1.125, 0.000, -1.000, -1.250, 0.000, -1.125, 0.875, 1.375, -0.875, 0.375, 0.500, 0.625, 0.500, 0.750, -0.500, 0.500, 1.250, -1.375, -0.500, 1.375, -0.875, 0.000, 0.000, 0.625, -0.500, -0.375, -0.875, 0.000, -0.875, 0.000, 0.375, 0.000, -1.125, 0.000, 0.000, 0.500, -1.000, 0.000, -0.375, -0.500, 1.250, 1.125, -0.625, 0.750, -0.875, 1.250, -1.250, 0.625, -1.000, -1.000, 0.000, -0.500, -0.375, 0.000, -0.875, 0.375, 1.000, 0.875, 0.625, -0.625, -0.875, 0.000, -1.375, 1.000, 0.750, 0.750, 0.750, -0.625, 0.375, -0.375, -0.500, -1.125, -0.875, 1.000, -0.750, 0.000, -1.125, 0.750, -0.500, 0.500, 0.000, 0.625, -0.750, 0.500, 0.375, -1.250, 0.625, -0.875, -0.500, 0.000, 0.000, 0.000, -0.875, 0.875, 1.000, 0.625, -1.000, 1.125, -1.125, 1.375, 0.875, 0.000, 0.375, 0.000, -0.875, 0.750, -0.875, -0.375, 0.000, 0.625, -0.875, 1.125, 1.000, 0.000, -1.000, 0.625, -0.625, 0.000, 0.750, 0.000, -0.500, 0.500, -0.625, 0.000, 1.000, 0.750, -0.875, 0.625, -0.750, -0.750, 1.250, 0.000, -0.500, 0.750, -0.375, -1.000, -1.125, -1.125, 1.250, 0.875, 0.000, 0.000, 0.000, 1.125, -0.875, 0.000, -0.750, -1.000, 0.000, 0.000, -0.875, 0.750, 1.000, 0.500, 1.125, -0.500, -0.625, 0.000, -0.625, -0.500, 0.000, 0.000, 1.250, -1.000, 0.000, -1.125, 1.125, -0.875, 0.000, -0.500, 0.000, 1.250, -0.625, -0.625, -0.750, -1.500, -0.500, 1.375, -0.500, 0.500, -0.500, -0.500, 0.000, 1.250, -0.750, 0.500, -0.500, -0.500, -1.250, -0.375, -0.875, -0.625, -1.000, 0.000, 0.500, 1.000, 0.875, -1.125, 0.375, 0.375, -1.250, -0.875, 0.000, 0.375, 0.000, -0.875, 0.625, 1.125, 0.375, 1.250, 0.000, 1.000, 0.750, 0.000, 1.000, 1.125, -0.875, -1.125, 0.500, 1.250, -1.250, -0.875, 0.500, -1.000, -1.250, 0.750, 0.000, -0.750, -1.250, 1.000, 0.875, 0.000, 1.000, 0.875, -0.500, 1.125, -0.500, 0.000, 1.000, 0.375, 0.875, -0.500, 0.875, 0.750, -1.250, 0.375, 1.000, 0.625, 1.250, -0.375, 0.000, 1.125, -0.875, 0.000, 0.000, 1.250, 0.750, -1.000, -0.875, -0.625, 1.375, 0.750, 1.250, 0.000, 0.000, 0.000, 1.125, -0.750, -1.125, 0.000, -1.250, -1.125, 0.000, -0.750, 0.000, -1.250, 0.375, 0.500, 0.500, -1.250, 0.000, 0.000, 1.250, 0.875, -0.750, -1.125, 0.875, 0.750, 0.375, -0.500, 0.625, -1.375, 0.750, 1.000, 0.000, 1.000, 0.000, 1.000, 1.125, 1.250, -1.000, -0.750, 0.625, 0.875, 0.000, -0.500, 0.750, 0.625, 0.000, 0.000, 0.000, 0.000, 0.625, -0.750, -1.000, -0.875, -0.625, -1.000, 0.000, 0.000, 0.625, -1.125, -0.625, 0.000, -0.875, 0.000, 0.000, -0.500, -0.500, 0.000, 1.000, -0.625, 0.500, -0.750, -0.625, 0.500, -0.750, 0.625, -1.125, 0.000, -1.000, 0.375, -0.750, 0.375, -1.000, -1.000, -0.875, 0.500, 1.250, 0.750, 1.250, -1.000, -1.000, 0.000, -0.375, 0.000, 1.250, -1.250, 0.000, 0.000, 0.000, -0.875, 0.000, 0.000, 0.000, -0.875, -1.250, 0.750, 0.000, -1.125, -0.875, -1.125, 0.000, -0.625, 0.000, 1.125, -1.000, 1.000, 1.250, -0.625, 0.000, 0.875, 0.500, 0.500, 0.625, 0.000, 0.000, -0.500, 0.875, 1.125, -0.625, -0.750, 1.000, 1.250, 0.875, 1.250, -0.875, 0.000, 0.000, -1.000, 0.000, 0.000, 0.500, 0.625, -0.750, 0.000, 0.000, 1.125, -0.750, -0.500, 0.000, -0.375, 0.000, 1.000, 0.000, 0.000, -0.625, 0.500, -0.375, 0.000, 0.000, 0.000, 0.000, 0.000, 0.375, -0.750, -1.125, 1.500, -0.375, 0.625, 1.000, 0.625, 0.000, -1.125, 0.625, 0.000, -1.375, 0.000, -0.750, -1.125, 1.125, 1.125, 0.875, -0.375, 1.000, -0.375, 0.000, 0.000, 0.500, 0.000, -1.125, 0.500, -0.500, 0.750, 0.000, 0.500, 0.625, 0.000, 1.375, -0.625, 1.375, -1.125, -0.750, -1.125, 0.750, -1.375, 1.000, -1.250, 0.000, 0.000, -0.625, -0.875, -0.375, -0.750, -0.875, -1.125, -0.875, 0.000, 0.500, -0.625, -0.375, 0.000, -1.000, 0.500, 0.000, -0.500, -0.500, 0.000, -0.625, 0.750, 1.125, -0.750, -0.500, 0.000, 1.000, 0.000, 0.000, -1.125, 0.500, -0.750, 1.375, 0.500, -1.000, -1.250, 0.000, 0.875, -1.125, 0.875, 1.375, 0.000, -1.000, 1.000, 0.375, -0.375, -0.625, 1.250, 0.500, 1.125, 0.625, -0.500, 0.875, -1.250, -0.875, -0.625, 0.000, 1.250, -0.875, 0.000, 1.000, -0.500, 0.000, -1.000, 0.000, 0.750, -0.875, 0.500, 0.500, 0.375, -1.125, 0.000, 0.000, 0.625, -0.625, -0.375, -0.750, 0.000, -0.625, -0.625, 0.500, -1.375, -0.375, -0.625, 0.750, -1.000, 0.500, -1.125, -0.500, 0.000, 0.750, 0.000, -0.375, -0.500, -1.000, -0.750, -0.875, -1.250, -0.875, 0.500, -1.000, 0.750, 1.250, 0.625, -1.000, -0.375, -0.750, 0.000, 1.125, 0.000, 0.625, -0.625, 0.000, -1.375, 0.000, -1.000, -0.500, 0.000, -0.625, -1.000, 0.000, 0.375, 0.000, 0.875, -0.375, 1.250, -0.875, 0.000, -0.625, 0.000, 1.125, 0.000, 1.000, -0.625, 1.000, 0.000, 0.875, 1.000, 1.000, 0.000, -1.125, 0.000, -0.500, 1.000, 0.375, 0.750, 1.000, -1.125, 0.000, 0.000, 0.625, -1.000, -0.750, 0.750, 1.250, 0.750, 0.750, 0.000, 0.000, -1.125, 0.625, 0.750, 0.000, -0.500, 0.500, -1.000, 0.000, 0.625, 0.625, 0.750, -0.875, 0.000, 0.500, -1.250, 0.000, -0.750, 0.000, -1.000, -0.500, 0.875, -0.375, -0.500, 0.000, -0.500, 0.000, 0.375, 0.375, 1.375, 0.625, 0.000, 0.750, 0.875, 0.000, 0.000, -0.625, 0.500, 0.000, 1.125, -1.000, 0.375, 0.875, 1.250, -0.625, 1.000, -0.625, -1.250, 0.625, -1.000, 0.875, -1.125, -0.875, -0.500, 0.875, -1.125, -1.000, 0.500, 0.750, 1.000, 0.000, -0.750, 0.000, 0.000, 0.500, -1.250, 0.750, 0.750, -0.875, 0.000, 0.000, -0.500, 0.000, 1.375, -0.750, 1.000, 0.000, -1.250, 0.000, -0.375, 0.000, 1.000, 1.125, 1.000, -1.375, 1.000, 0.625, 0.000, -0.500, -1.125, 1.000, -0.625, 0.000, -1.250, -0.750, 0.000, -0.750, 0.875, 0.000, -0.625, 1.125, 1.125, 1.125, -1.250, -0.750, 0.875, 1.375, -0.750, -0.625, 1.125, 0.625, -0.625, 1.125, 1.250, 0.875, -0.750, 0.000, 0.500, 0.000, 0.000, 1.125, 0.000, 0.000, -0.500, -0.875, 0.000, -1.000, 0.500, -1.125, 0.500, -0.750, -1.250, 0.500, -1.000, 0.500, 0.750, 0.750, -0.750, 0.375, 0.500, 0.875, 0.875, -1.125, 1.125, -1.125, 0.500, 0.000, 0.375, 0.000, 0.000, 1.250, 0.000, 1.125, -0.750, 0.875, -0.875, 0.375, 1.000, 0.000, 0.000, -0.875, 1.250, 0.000, -0.750, -0.500, 0.000, -0.500, 0.000, 0.750, 0.625, -0.750, 0.750, -0.875, -0.875, -1.250, 0.875, 0.375, -0.875, 1.000, 0.000, 1.375, 0.000, -0.500, -0.750, 0.000, 0.000, 0.000, -0.750, 1.000, -0.500, 1.250, 0.750, 1.250, -0.500, 1.125, 0.000, 0.375, -0.750, 1.250, 0.750, 0.000, 0.500, -1.000, 0.000, 0.625, -0.500, 0.000, -1.000, 0.000, -1.125, -1.125, 0.000, 0.625, -0.750, 1.125, 0.875, -1.250, -1.000, 0.875, -1.125, 0.375, -1.000, 0.000, 0.375, -1.000, -0.375, -0.375, 0.625, -0.875, -1.250, 1.125, 0.500, 0.750, 0.000, -0.625, -0.625, 0.000, -0.375, -1.000, 0.750, 1.000, -0.500, 0.750, -0.625, -1.125, -0.750, 0.625, 0.000, 1.125, 0.000, 0.000, 0.500, 0.500, -0.500, 0.875, 0.875, 0.000, 0.000, 0.000, 0.000, 1.250, -0.375, 0.750, -1.000, -1.000, -1.000, 1.125, 1.125, -0.500, -0.875, 0.000, -0.500, -0.375, -1.125, 0.875, 1.000, -0.875, -1.000, -1.000, -0.375, -0.875, 0.000, -0.375, -1.125, -0.625, 0.000, 0.875, 0.000, 0.875, 0.000, 0.625, 0.000, 0.000, -0.500, 0.500, 0.000, 1.125, 1.250, 1.250, 0.000, -0.750, 0.750, -0.500, 0.375, 0.000, -0.625, 1.000, 0.500, -1.500, 0.000, 1.125, 0.625, -1.250, 0.625, -0.500, 0.000, -1.250, 1.000, -0.875, 1.000, 0.000, 0.000, 0.000, 0.375, -0.625, -1.125, -0.875, 0.625, 0.000, 0.000, 0.000, 1.250, 0.875, -1.000, -1.375, 0.000, 1.250, 0.750, -1.125, -0.875, 0.375, 0.750, -1.250, 1.000, 1.125, 1.250, -1.000, -0.875, 0.500, 1.125, 0.000, 1.250, 1.000, 0.500, -1.250, 0.875, 0.875, -0.500, 0.875, -0.500, 0.750, 1.250, 0.750, 1.375, 0.500, 1.000, 0.000, 0.375, -0.500, 0.000, 0.000, -1.125, 0.000, 0.625, 0.000, 1.125, -0.625, 1.375, 0.000, -0.750, 1.250, -1.250, 1.375, 0.625, 1.125, 0.625, 1.125, 0.000, 0.000, 0.500, 0.375, -1.375, 0.000, -0.625, -0.500, -0.375, 1.125, -1.125, 0.375, -1.125, 1.000, -1.375, -0.875, 0.000, 1.250, 0.000, -0.625, 0.000, -1.125, 1.125, -1.250, -0.500, 0.375, 1.000, -1.125, 1.000, 0.000, 0.000, 0.375, 0.375, 0.500, 0.000, 0.625, 1.250, -0.875, -0.500, -1.000, 0.000, 1.375, -0.625, 0.000, 1.125, 0.000, -1.000, -0.625, 0.875, -1.250, -1.000, 0.000, 0.500, 0.000, 0.750, -0.375, 0.625, -0.375, 0.750, -0.375, 0.000, 0.625, -1.125, -1.000, -0.500, 0.375, 0.875, -0.875, -0.500, -1.000, 0.625, -1.000, 0.625, 0.000, -0.500, 0.625, 0.000, -0.750, 0.000, 0.000, -0.875, -0.625, 1.125, 0.625, 0.375, -0.875, 1.125, 0.750, 0.625, 0.500, -0.375, -0.625, -0.750, 0.500, 0.000, -1.250, 0.000, -0.625, -0.750, 0.000, -0.500, -0.500, 0.500, 0.500, 0.500, 0.875, 0.000, 0.625, -0.375, 0.375, 1.000, 0.000, 1.000, -1.125, -0.500, -1.250, -1.250, -0.875, 1.125, 0.750, 0.750, -0.625, -1.000, 0.750, -0.875, 0.500, 0.000, 0.875, 0.875, -0.625, 0.500, 0.000, 0.000, -0.500, 0.750, 1.250, 0.000, 0.000, 0.750, -1.000, -0.625, -0.500, 0.625, 0.375, 0.875, -0.625, 0.000, -1.000, 0.375, -0.375, 0.750, -0.500, -0.500, -1.000, 0.875, 0.500, -0.500, -1.250, -0.375, 1.250, -0.750, 0.750, -0.875, 0.500, -0.375, -0.500, 0.000, 1.250, 1.375, -1.250, 0.000, 0.500, -1.125, 1.250, 1.250, -1.250, 0.000, -1.125, -1.250, -0.500, 0.000, -0.875, 0.000, 1.125, 0.500, 0.000, -0.875, 1.000, 0.500, 0.875, 0.000, 0.000, 0.000, 0.625, 0.625, 0.000, 0.625, 0.625, 0.000, -1.000, 0.000, 1.000, -0.875, -0.375, 0.750, -0.375, 0.375, 0.000, 0.000, -0.750, 0.375, 0.375, -0.750, 0.000, -0.375, -0.375, 1.125, -0.750, 0.000, 0.625, -0.625, 0.750, 0.000, -0.625, 0.875, 0.000, 0.750, 0.000, 0.500, 1.125, 0.375, 0.625, 0.750, -0.625, -0.375, 0.375, -1.000, 0.875, 1.250, 0.500, -0.750, 1.000, 0.500, 0.875, 0.750, 0.000, 0.000, 1.250, -0.500, 0.000, 1.125, 0.000, 0.500, 0.500, -1.000, -0.625, 1.125, 0.875, -0.375, -0.500, -1.125, 0.750, -0.875, 0.750, 1.250, 0.875, -0.875, 1.125, 0.000, -0.875, -1.250, 0.375, -0.875, -0.625, 1.000, -0.500, -0.750, 0.000, 1.125, 0.625, 0.875, 0.625, 0.625, 0.000, -0.750, 0.375, 0.000, -1.125, -0.875, 0.000, 0.000, 0.000, 0.000, 0.500, 0.375, -0.500, 0.000, 0.000, 0.875, -0.750, 0.000, 0.000, -0.750, -0.500, 0.000, -0.875, -0.875, 0.000, 0.000, -0.375, -1.000, 0.000, 0.000, -0.750, 0.000, 0.000, -0.625, -0.625, -0.750, 0.000, 1.000, -0.625, 0.875, -0.500, -1.125, -0.750, 0.000, 0.000, -0.875, -0.750, 1.000, 0.750, -0.625, -0.500, 0.000, 0.000, 1.000, 0.000, 0.500, -0.625, 0.625, -0.375, 0.000, -1.125, 0.000, -0.625, 0.875, 0.000, -0.625, 0.000, 0.000, 0.000, -0.750, -1.375, 0.000, 0.625, -0.500, 0.875, 1.000, 0.500, -0.375, -0.875, 1.125, 0.000, -0.500, -0.875, 0.375, -1.125, 0.375, -0.375, 0.000, -0.500, 0.000, -0.750, 0.875, -0.875, -0.625, 1.375, 0.500, -1.125, 0.500, 0.750, -0.500, 0.000, -0.875, 0.000, 0.375, -1.250, -0.625, 0.000, 0.750, 0.000, 1.000, 0.000, -0.750, -1.125, -1.250, 0.000, 0.625, -0.375, 0.000, -1.250, -1.125, 1.125, 0.000, 0.000, -1.125, -1.000, 0.000, -1.125, -1.000, 1.000, 0.000, 0.000, -0.875, -0.875, 1.250, 1.125, 0.500, 0.625, 0.750, -0.875, -0.875, -1.125, -1.125, -1.000, -0.625, -0.750, 1.250, -1.000, -0.375, 1.000, 0.375, 0.625, 0.750, 1.125, 0.000, -1.125, 0.000, -0.625, -1.000, 0.625, -0.750, 1.125, 0.625, 0.625, -0.375, 0.625, 1.375, 0.625, 0.750, 0.875, -0.500, 1.125, 1.125, -1.125, -0.625, 1.375, 0.000, 1.250, 0.375, -0.500, 0.000, -1.250, -0.500, 0.000, -0.750, -1.125, -0.875, -0.375, 0.625, 0.000, 0.750, 0.750, 0.000, -0.875, 0.375, 0.000, 0.000, 0.500, 0.000, -1.000, 1.250, -0.750, 0.000, 0.000, -1.000, 1.000, -0.375, -0.625, 1.000, -1.250, -0.625, 0.500, -0.625, 0.750, -1.125, -1.000, 0.000, 0.000, -1.000, -0.750, 0.875, -1.250, 0.000, 1.125, 0.000, 0.000, 0.625, -1.000, 0.000, -0.500, -1.250, 0.000, 0.000, 0.000, 0.875, 0.000, -1.000, 0.000, 0.500, 1.000, -1.250, 0.500, -0.500, -0.375, 0.000, -0.625, 0.875, 0.500, 0.000, -0.625, -0.625, -0.375, -0.375, -0.500, -0.375, -0.875, 1.125, -1.125, 1.125, 0.625, 0.500, -0.750, 0.000, -1.125, 0.500, -0.375, 0.500, -0.500, -0.625, 1.250, 0.750, 0.625, 0.000, -0.375, 1.250, -1.125, -0.375, 0.000, 0.375, -1.125, 0.750, 0.750, 0.750, -1.000, 0.750, 0.000, 0.000, 1.000, -0.500, 0.625, 0.375, 0.750, 0.750, 0.500, 0.750, 1.125, -1.250, -0.625, 0.000, 0.625, 0.625, 1.125, -1.000, -1.125, 0.625, 0.875, 1.000, -0.875, 0.625, 0.000, 0.875, -0.625, 0.000, 0.000, 0.000, 1.125, 0.500, 0.000, 0.375, -0.375, -0.500, 0.625, -0.625, -1.125, -1.000, 0.375, 0.000, 1.125, -1.000, 0.000, 0.500, -1.125, 0.000, 0.500, 0.375, 0.625, 0.000, 0.000, 0.625, 1.000, -1.125, -1.125, 0.000, -0.750, -1.000, 0.375, 0.000, -1.375, 1.250, 1.000, 0.750, -0.500, -0.500, -1.250, 0.000, 1.250, -1.250, -1.125, 1.000, -1.125, 0.000, 0.000, 1.125, 1.000, 1.000, 0.000, 0.000, -1.000, -0.375, 0.000, 0.000, 0.000, 0.000, -0.375, -0.500, -0.500, 0.750, -0.625, 1.000, 0.750, 0.875, 0.000, 1.250, -1.125, 0.375, -0.875, -1.250, -1.125, 0.000, -0.750, 1.250, 1.000, 1.125, -1.000, 0.750, -1.375, 1.125, -0.750, -0.750, 0.375, -0.500, -0.750, -0.500, 0.500, 1.125, 0.000, -0.625, 0.625, 0.875, 0.500, 1.250, 0.875, 0.000, -0.750, 0.000, 0.000, 0.625, 0.000, -0.750, 0.000, 0.375, 0.000, -0.500, -1.250, 0.000, -0.625, -0.625, -0.625, 1.000, 0.875, 0.625, 0.000, 0.500, 0.000, -0.625, -0.500, 0.000, -1.375, 0.750, -0.625, 1.125, 1.000, 0.500, 0.875, -1.000, 0.875, -1.000, 0.750, 0.500, 0.750, -0.375, 0.000, 0.375, 0.000, -1.250, -1.250, -0.375, -1.250, 0.375, 0.000, -0.875, -0.875, -0.500, -0.875, -0.375, 1.250, 1.000, 0.625, -0.875, -0.750, -1.250, 1.000, 0.000, 0.500, 0.000, 0.625, -1.125, 1.000, 1.125, -1.125, -1.000, 0.500, 0.000, -1.250, -0.625, 0.000, -1.125, 0.000, 0.750, 0.000, 0.000, -0.500, 1.250, 0.625, 1.250, 0.000, -1.125, -1.000, 1.250, 1.000, 0.000, 0.000, 0.000, -1.000, -0.375, -1.125, 0.000, 0.000, -0.750, -0.625, 0.625, 0.000, -0.500, -0.375, 0.625, 0.000, -0.625, 0.750, -1.125, 1.250, 1.125, 0.000, 0.000, 1.250, -0.625, -1.375, -0.375, 1.125, -1.250, 0.500, 0.000, 0.000, 0.750, -0.375, 0.875, 0.000, 0.375, 0.000, 0.000, 1.125, 1.000, 1.000, -0.875, 0.000, 1.000, 1.375, 0.000, 0.625, 0.375, 0.000, 1.000, 1.250, 0.625, -0.750, 0.375, -0.750, -0.750, -1.250, 0.000, -0.750, 1.000, -1.125, -0.625, 0.000, 0.000, 0.000, -0.625, 1.000, 0.000, -0.500, -1.000, 0.000, 0.000, -0.625, 0.000, -1.250, 0.000, 1.375, 0.875, -1.000, -1.125, -0.375, 0.750, 0.000, 0.000, 0.750, -0.375, 0.000, 1.000, 0.500, 0.625, -0.625, -0.500, -1.000, 0.750, 0.750, 0.500, 0.875, 0.625, -1.125, 0.000, 1.000, -0.875, 0.000, -0.375, 0.625, 0.000, 0.875, 0.000, -1.250, 0.375, 1.250, 0.000, -1.250, 0.375, 1.000, -0.750, -1.000, 0.000, 0.000, -0.875, 0.875, 0.000, 1.250, -0.500, 0.500, 0.000, 0.000, -0.625, 0.625, -1.500, -0.750, 0.875, 0.000, 0.750, 0.000, 0.000, 0.000, 0.625, 0.000, -1.000, -1.125, 0.000, 0.000, -0.625, 0.000, -1.250, -0.875, -0.375, 0.000, -1.250, 0.000, 0.375, -0.500, -0.500, 0.000, -0.750, 0.000, 0.000, 0.875, 0.000, -1.125, 0.000, 0.625, -0.625, -0.750, 1.000, 0.000, 1.000, 0.000, -1.125, 0.000, -0.875, -1.125, 0.000, 0.625, -1.375, 0.375, -1.125, -1.000, -1.250, 1.125, 0.000, -0.875, -0.375, 0.000, 0.000, 0.000, -1.125, 0.000, 0.750, -0.625, -0.750, 0.000, -0.375, 0.000, 0.750, 0.000, 1.000, 0.750, -0.375, -0.750, 0.000, 0.375, 0.000, -1.250, -0.625, 0.000, -0.875, 0.000, -0.750, -0.625, 0.750, 0.625, 0.000, -0.500, 1.125, 0.750, 0.000, -1.125, 0.000, -0.750, 1.250, 0.875, -1.000, 1.125, -1.125, -0.750, -0.500, -1.000, 0.000, -0.625, 1.125, 0.000, -1.250, 0.625, -0.625, 0.625, -0.375, 0.000, 0.875, 0.875, -1.000, -0.500, 0.000, -0.375, 0.000, 0.000, 1.125, 1.375, 1.000, 0.750, 1.375, 0.000, -0.625, 0.000, -1.375, -1.250, -0.875, 0.375, -1.000, 0.500, -0.750, 0.000, -1.000, 0.000, 0.000, -0.375, -0.500, 0.000, 0.875, 0.000, 0.000, 0.000, 0.000, -0.625, -0.500, 0.750, 0.000, -0.625, 0.375, 0.000, 1.375, 0.000, 0.000, -0.875, 0.000, 0.000, 0.000, -1.125, 0.000, 0.375, -1.250, -1.125, 0.875, 0.875, 0.000, 0.000, -0.875, 1.250, -0.875, 1.250, 0.000, 0.750, 1.000, 0.000, 0.000, 0.625, 1.125, -0.500, 1.000, -0.875, 0.000, -1.125, -1.125, 0.000, 0.000, 0.875, -1.250, -1.125, -0.625, -0.500, -0.375, 1.000, 0.000, 1.000, 0.375, 0.000, 0.000, -1.000, 1.250, -0.500, -1.000, 0.000, 0.875, 0.000, 0.875, -0.375, -0.875, 1.125, 0.000, -1.000, -0.500, -0.750, -1.375, 0.000, 0.375, 1.000, -1.250, -0.750, -0.875, 0.500, -1.125, -0.750, -0.500, 0.000, 1.250, 0.875, -0.625, 1.250, 1.000, 0.375, 0.000, -1.125, 0.875, 0.875, 0.000, 0.000, 0.000, 1.000, -1.250, 0.000, 0.750, 0.000, -0.875, -1.000, 1.250, 1.125, 0.875, 0.000, 0.500, 0.000, 0.000, 0.000, 0.375, 0.875, 0.625, 0.750, 0.000, 0.000, 0.625, 0.000, 0.000, 0.875, 0.000, 0.000, -1.000, -0.500, 1.000, -1.000, -1.125, -0.750, 0.500, -0.625, -0.625, -0.625, -0.875, 0.750, -0.750, 0.000, -1.000, -0.500, -1.125, 0.875, -1.250, -0.625, 0.875, 0.625, 0.000, 1.375, 0.000, -0.750, -0.750, -1.000, 0.375, 0.000, 1.125, 1.125, -0.750, 0.625, 0.000, 0.875, -0.500, -0.500, -1.000, 1.000, 0.000, 0.500, -0.750, 0.875, 0.875, 0.375, 1.125, -1.000, 1.000, 0.000, 1.000, 1.000, 1.250, 0.750, 0.000, -1.125, -1.125, 0.000, -0.500, 0.750, 1.125, -0.625, -0.625, -1.125, -1.125, 1.125, 0.375, 0.000, -1.250, -0.625, 0.375, 1.375, -1.000, 0.750, -0.875, 1.125, 1.000, -1.250, -0.750, 0.000, 1.000, 0.625, 0.000, 0.375, 0.000, 0.000, -1.125, 0.000, -0.750, 0.000, 0.875, 0.625, -0.375, -1.125, -0.750, -0.500, -0.875, 0.375, 0.000, 1.250, 1.250, 0.625, 0.000, 0.375, 0.750, 0.000, -1.000, 0.000, -1.000, -0.750, 0.000, -1.000, 1.000, -0.750, 0.000, 0.000, -1.125, -0.875, -1.250, 0.000, 1.000, -0.625, -0.750, 0.000, -0.500, -0.375, 0.000, -0.750, -1.250, 0.375, 0.000, 0.000, 0.750, -1.125, 0.000, 0.000, -0.375, -1.125, 0.000, 0.625, -1.125, 0.625, -0.750, 0.000, -0.875, -1.250, -0.875, 0.625, 1.250, -0.625, 0.000, 0.000, 0.375, -0.625, 0.875, -0.750, -0.875, 0.375, 0.625, 0.000, 0.375, -0.750, 0.375, 0.625, 0.375, 0.000, 0.875, 1.000, -0.625, -0.750, 1.375, 0.000, 0.000, 0.500, 1.125, -1.375, 0.000, 0.000, 0.875, 0.750, 0.875, -1.125, 0.500, -1.125, 1.000, 0.500, 1.375, -1.375, 0.000, 0.375, 0.375, 0.000, 1.250, -0.500, -1.000, -0.500, -0.500, 1.250, 0.500, 0.500, 0.000, 1.250, -0.500, 0.500, 1.125, 0.625, 1.250, -0.750, 0.000, 0.625, 1.000, 0.000, 0.750, 1.125, 0.000, 0.000, -0.500, 1.250, 0.000, 0.375, 0.625, 0.000, 1.125, 1.000, 1.125, 0.000, 0.000, -0.750, -0.750, -1.125, 0.000, 0.500, 1.250, 0.750, 0.875, -0.500, -0.875, -0.500, 0.000, 0.000, 1.000, -1.250, -1.000, 0.625, 0.750, -0.750, 0.000, 0.000, 0.000, -0.625, 0.500, -1.125, -0.750, 0.000, -1.125, 0.000, 0.750, -0.750, 0.000, -0.625, 0.000, 0.000, 1.000, -0.625, 0.750, -1.000, 0.000, -1.000, 1.125, -1.125, 0.375, 0.000, 0.000, 0.750, 0.000, 0.000, 0.000, 0.000, 0.750, -0.625, 0.750, 0.625, 0.000, 0.000, 0.375, 1.000, 0.375, 1.250, -1.250, 0.750, 0.500, -0.625, 0.875, -0.500, 0.750, -1.250, 1.125, -1.250, -1.250, -1.250, -0.500, -1.125, 1.000, 0.375, -0.500, 1.000, 0.000, 0.375, -1.000, -0.500, 0.000, 0.625, 0.000, 0.000, -1.250, -0.750, 1.250, 1.000, -0.750, -0.500, 0.500, 0.000, -0.875, 0.750, 0.500, 0.000, -1.125, 1.000, -0.750, 0.625, 0.000, 0.000, 0.000, 0.000, 0.000, 1.125, 0.000, -0.875, 0.875, 0.750, 1.000, 1.000, 1.000, 0.500, 0.000, 0.875, -0.500, -0.875, -0.500, -0.500, -1.250, 0.875, -0.375, 0.750, -1.250, -0.375, 1.250, -1.125, 0.000, -0.875, 0.000, -1.250, -0.875, -0.875, -0.375, 0.750, -0.625, 0.000, 0.000, -0.375, 1.250, -0.625, -0.750, 0.625, 0.000, -0.500, -1.000, 0.000, -1.250, 0.375, -0.375, 0.500, -0.500, -0.875, -0.625, 1.125, -0.750, 0.000, -0.625, 0.875, -1.250, 0.375, 0.000, 0.750, 1.000, 0.000, 1.250, 0.375, -0.875, 0.000, 0.500, 0.000, -0.875, 1.125, 0.500, 0.000, 0.000, 1.125, 0.625, 0.000, 0.875, -1.250, 0.000, 1.000, -0.875, -0.375, 0.750, -0.750, 1.125, 0.000, -1.125, 1.125, -1.125, -0.750, -1.000, 0.000, -1.000, 0.500, 0.875, 0.625, 1.250, -1.125, 0.625, 0.000, 0.375, -0.750, 0.875, 0.000, -0.375, -1.125, 1.000, 0.500, -1.000, 0.000, 0.000, 0.000, 1.000, 0.000, -0.750, -0.875, -0.375, 1.000, 0.000, -0.750, 1.000, -0.750, 1.000, 0.625, -0.375, 0.000, 0.000, -1.250, 0.000, 0.625, 0.750, 0.000, 0.000, 1.375, 0.000, -1.250, -0.750, -0.750, 1.375, 1.125, 0.000, 0.000, -0.750, 0.500, 0.875, 0.375, 0.750, 0.000, 0.000, 1.000, 0.000, -0.500, 1.250, 0.875, 0.750, 0.000, 0.500, 1.125, 0.500, -0.875, 0.625, 0.625, 1.000, 1.000, -0.875, -0.500, -0.500, 0.000, 0.500, 0.000, 0.750, -0.875, 0.000, 0.000, 0.000, 1.000, -0.875, -0.375, 0.625, 1.375, -1.250, 0.000, 1.000, 1.250, -0.500, -1.250, 0.000, -0.750, 0.000, -0.375, 1.125, -1.125, 0.000, -1.000, 0.750, 1.250, 0.500, -0.875, 0.375, -0.625, 0.000, -0.625, 1.000, -1.125, -1.250, 0.625, 1.250, 1.125, -0.875, 0.875, -0.625, -1.000, -0.375, 0.000, 0.000, 0.625, 0.000, 1.125, 0.000, -0.625, -0.875, -0.750, 0.000, -0.500, -0.625, -0.875, -0.625, -1.125, 0.375, -0.875, -0.875, 0.000, -0.750, 0.000, 0.875, -1.000, 0.375, -0.625, 0.000, 1.125, 0.000, 0.750, -0.875, 0.875, 1.125, -0.750, -0.375, 0.000, 0.000, -0.875, -0.875, -0.750, 0.000, -1.250, 1.000, -1.375, 0.500, 0.375, 0.000, 0.750, 0.000, 0.000, 0.000, -0.625, -0.875, -1.000, 0.250, -0.625, 0.375, -0.500, 1.250, 0.500, -0.875, 1.250, 1.000, 0.875, -1.000, 1.375, 0.000, -0.750, -0.375, -0.625, 0.000, -1.000, 1.125, -0.625, 0.375, 0.625, 0.000, 0.000, 0.000, 1.250, 0.000, 0.000, -1.125, -1.125, -0.625, 0.000, 0.000, 1.125, -0.500, 0.750, 1.250, 1.250, 0.625, 0.000, 0.000, 1.250, 0.000, -0.375, -0.875, 1.250, 0.625, -0.625, 1.000, 0.000, 0.875, -0.375, 1.250, 0.000, -0.625, 0.000, -0.500, 0.000, 1.125, 0.000, 0.500, -0.625, 0.500, -1.125, 0.000, -1.000, -0.625, 0.000, -1.000, -1.250, -0.750, 0.500, -1.000, -1.000, -0.750, -0.875, 0.750, 0.500, 0.000, 0.000, 0.000, 0.500, 0.500, 0.000, -1.000, 1.000, -0.500, 0.000, -1.000, -0.875, 0.000, -0.625, -0.750, 0.000, -0.375, 0.375, 0.375, 0.750, -0.625, 0.750, 1.000, 0.375, -0.500, -1.250, -0.875, -0.500, -0.500, 0.000, -1.250, 0.875, -1.125, -0.750, 0.750, 0.000, 0.000, 0.375, 1.250, -0.375, -0.375, 0.000, 0.625, 0.375, -0.500, 1.000, -1.125, 0.000, 0.750, 0.500, 0.000, -0.750, 0.625, -0.375, 0.000, 0.500, -1.250, 0.000, -0.375, 0.000, -1.125, 1.000, 0.000, -0.750, 0.500, 0.500, 0.000, 0.875, 1.375, 0.000, 0.000, 0.875, 0.500, 0.000, -1.375, 1.125, 1.125, 1.000, 1.250, -0.500, 0.000, 0.000, 0.000, 0.875, 0.000, 0.000, -0.500, 1.250, 0.000, 1.250, 1.000, 1.000, 0.000, -0.625, -0.750, -0.500, 0.750, 0.625, 0.375, 0.375, 0.375, 0.000, -1.000, 1.250, 0.750, 0.000, 0.875, 0.500, 0.500, -1.250, -1.000, -1.250, 0.750, 1.125, 0.000, -0.625, 0.625, 0.750, 1.000, -0.625, -0.375, 1.000, -1.250, -1.000, -0.750, -0.875, 1.125, 1.000, 0.000, -1.250, -0.625, 0.500, -0.375, 0.000, 0.000, 0.500, -0.375, 1.000, 0.000, -0.375, 0.500, 0.000, 0.000, 1.000, 0.000, 0.875, 1.375, 0.000, 0.625, 0.000, 0.625, 0.000, 1.125, 0.000, 0.750, 1.250, 0.875, 0.000, -0.875, 0.000, 1.250, 0.625, -1.125, -0.375, -0.625, 0.000, -1.000, 0.000, 0.875, -0.500, 0.500, 0.875, -0.500, 1.250, -1.250, -0.375, -0.375, -1.000, 1.000, -0.875, 0.000, 0.000, -1.000, 0.500, -1.125, -0.875, 1.000, 1.125, -0.500, 1.125, -0.375, 0.500, 0.000, 0.750, 0.000, -0.500, 0.000, -1.250, 0.875, -1.125, 0.000, -0.375, -0.875, 0.000, 1.125, 0.000, -0.375, 0.000, 0.000, -0.875, 0.875, 0.000, -0.375, 1.375, -1.250, 0.000, 0.375, -1.250, 0.875, -0.375, 0.000, 0.625, -0.625, 0.500, -0.500, 0.000, -1.000, -0.500, 0.000, 0.000, 0.000, -0.625, 0.625, -0.500, 0.750, 0.000, -0.375, 0.000, -1.125, -0.625, -1.375, 0.000, 0.875, -0.375, 1.000, -0.375, 0.500, 0.000, 0.000, 0.750, -0.625, 0.875, 0.000, 0.625, 0.625, 0.000, -0.625, -0.625, 0.875, 0.000, 0.500, 0.750, 0.000, 0.000, -0.750, -0.500, 0.500, 0.625, -1.000, 0.000, 0.500, -0.750, 0.000, 0.000, -0.625, -0.625, 0.750, 0.000, -0.750, 0.875, -1.250, 1.000, 0.000, 0.000, -1.250, 0.375, 0.000, -0.875, 0.000, 0.000, -1.250, 1.125, 0.750, 0.500, 0.875, 0.875, 0.625, -0.625, -0.375, 1.000, -0.500, -0.375, 0.375, -1.000, 0.750, -1.000, -1.250, 0.625, 1.000, -1.125, -0.500, 1.125, 1.125, -0.375, -1.000, -0.500, -0.750, 1.000, -1.125, 1.375, 1.000, -1.125, 0.750, 1.000, 0.500, 0.875, 1.125, 0.000, 0.375, -1.000, -0.625, -1.125, -0.625, 0.000, 0.000, 0.750, -0.500, 0.000, -1.125, -0.625, -0.875, 0.000, 0.000, 0.000, 0.000, -1.000, -0.625, -0.625, -1.125, 0.625, 0.000, 1.500, 0.750, 0.750, 0.000, -0.750, -0.375, -1.000, -0.500, 1.000, 0.000, 0.500, 0.000, 0.000, 0.375, 0.875, -0.500, 1.375, 0.000, 0.000, -0.750, -1.125, -0.500, -1.500, 0.000, 0.875, 0.000, 1.000, -1.125, -0.750, -0.750, -1.375, 0.750, 0.000, 0.000, 0.000, -0.750, 1.125, 0.750, 0.500, 0.500, 0.000, -0.875, -0.875, -1.250, 0.000, 1.125, -1.125, -1.125, 0.000, -1.250, -0.375, 0.500, 0.750, 0.000, -1.250, 0.500, -0.875, -1.000, -0.625, 0.750, 1.000, 0.000, 0.000, 1.125, 0.000, -0.625, -0.750, 0.000, 0.375, -0.500, 1.250, 0.000, 0.375, 0.875, 0.000, 0.000, 0.625, 0.000, 0.750, -1.000, 0.000, 0.000, -0.375, 0.000, 0.000, 0.000, 0.000, 0.375, 0.625, -0.750, 0.000, 0.625, 0.375, -1.250, -0.875, -1.000, -0.500, -1.000, -1.000, 0.000, 1.000, 0.625, 1.000, 0.000, -0.750, 0.000, 0.875, -1.000, 0.625, 0.875, 0.500, 0.000, 0.625, 1.125, -1.250, 0.375, 0.750, 0.000, -0.625, -0.625, -1.000, -0.375, 0.000, 0.000, -1.375, 0.875, 0.000, 1.125, 0.000, 0.000, -0.625, -1.125, 0.000, -1.125, 0.000, -0.500, -0.625, 0.000, 0.500, 0.000, 1.125, 0.000, 0.375, 1.250, 0.000, 0.625, -0.750, -1.000, -0.750, -1.125, -1.000, -1.000, 1.250, 0.500, -1.125, -0.625, 0.000, -1.000, -0.750, 0.625, 0.625, 1.250, 1.250, 0.000, 0.000, 1.250, -1.000, 0.000, -1.000, -0.625, -0.875, -0.375, 0.500, -0.500, 0.750, 0.500, 0.625, 0.000, 0.750, 0.000, 0.000, -1.125, -0.875, 0.000, 0.000, 0.875, 0.000, 0.000, 0.000, 0.000, 0.000, 0.000, 1.125, 0.375, 0.750, 0.000, 0.000, 0.000, 0.000, 0.500, 1.250, -0.375, 0.375, 0.000, 0.875, -0.375, -0.750, 0.000, -0.375, -0.750, 0.375, 0.000, 0.000, 0.000, 1.125, 0.000, 0.875, -1.125, -0.750, -0.500, 0.000, -1.125, 1.125, 0.000, 0.625, -0.500, -1.000, 0.875, 0.000, 0.875, 0.625, 0.000, -1.250, -0.625, 0.000, 1.000, 0.750, -1.000, -0.750, -0.375, -0.750, 0.000, 0.000, 0.625, 1.125, 0.000, 0.000, 0.000, 1.250, -1.000, 0.625, 0.500, -0.375, 1.250, 0.000, 0.625, -1.000, 0.375, 0.750, 1.250, 0.750, -1.125, 1.250, 1.000, 0.875, -0.875, 0.000, -1.125, -1.000, 0.000, -0.750, -0.375, -1.000, 0.375, -1.250, -1.000, 0.000, 0.375, 1.000, 0.500, 0.375, -1.125, 0.000, -1.250, -0.750, 0.750, -0.750, -0.750, 0.000, 0.500, -0.500, 0.000, 1.000, 1.125, -0.500, -0.750, 0.500, -1.125, 0.000, 1.500, 1.125, 0.000, 0.000, 0.000, -0.625, 0.500, 0.000, 0.000, 1.250, -0.375, 0.625, -1.250, 0.875, -1.125, 0.500, -0.750, 1.125, -0.375, 0.000, 0.000, -0.875, -0.625, 0.375, -0.750, -0.375, -0.500, 0.000, -0.500, -0.625, -0.375, -0.375, 0.625, 0.000, 0.000, 1.000, 0.500, 0.000, 0.750, -1.375, 1.000, 0.500, -0.500, -1.250, 1.500, 0.000, 0.875, 0.000, 1.000, 1.125, 0.000, -1.375, 0.000, 0.750, 0.875, 0.000, 0.000, 0.000, 0.000, -1.375, 0.875, -0.375, 0.000, 1.375, -0.500, 0.875, 0.625, 0.000, 0.000, 0.000, 0.000, -0.750, 0.000, -0.750, 0.875, 0.375, 1.375, -0.875, 0.375, -0.500, 1.375, 0.000, 0.000, -0.500, 0.000, -1.375, -0.875, 0.500, 1.125, -1.125, -0.375, -1.000, -0.875, 0.875, 1.125, 0.375, -0.375, 1.000, 0.625, 0.500, -0.625, -0.875, 0.000, 0.500, 0.375, 0.750, 0.000, -1.125, -0.375, -0.375, 0.875, 0.375, 0.750, 0.000, 0.000, -0.750, -1.000, 1.375, 0.875, 0.000, 0.625, -1.125, 1.375, -0.750, -0.375, 0.375, 0.000, 0.000, 1.125, 0.000, -1.250, 0.000, 0.000, -0.750, -1.000, -1.000, -1.250, 0.000, 0.875, 1.125, 0.000, -0.375, 1.250, -0.500, -1.000, 0.000, 0.000, -0.375, 0.375, 0.625, 0.375, 0.750, 0.000, 0.000, 1.000, 0.500, -1.125, -0.500, -0.500, -0.625, 0.375, 0.500, -1.375, 1.125, -0.375, 0.000, -1.250, -0.375, -0.500, -0.750, -1.125, -0.500, -0.500, 1.000, 0.750, 0.625, -1.125, -1.000, 0.375, 0.875, 1.125, 0.750, 0.625, 0.375, -0.625, -0.875, 0.000, -0.500, 0.375, 1.000, 1.000, -0.750, 0.000, 1.000, 0.625, -0.375, 0.875, -1.250, 0.500, -1.000, 0.000, 0.000, 0.000, -1.375, 1.250, 0.000, 1.000, -1.250, 0.375, -0.875, -0.750, -0.750, -1.125, 0.000, 0.000, 0.625, 0.000, -1.125, -1.125, 0.875, 0.000, -0.625, 1.250, 1.250, 0.500, 0.375, -1.125, 0.750, 1.250, -0.875, -1.125, -0.625, 0.000, -1.250, 0.000, 0.875, -0.375, 0.000, -0.500, -1.125, 0.375, 0.000, -0.875, -0.875, 1.000, -1.375, -1.375, 0.000, 0.500, -0.500, -0.875, 0.375, 0.000, -0.625, 0.875, 0.000, 0.375, 0.000, -0.500, -1.000, -1.000, 0.000, -0.875, 0.500, 0.000, 1.000, 0.625, -0.625, 0.000, 1.000, 1.125, 0.000, 0.000, 0.500, 0.000, 1.000, -0.500, -0.750, -0.750, 0.500, -1.250, 0.000, -0.500, 0.000, 0.625, 0.875, 0.000, 1.125, -1.125, 0.875, -1.250, 1.000, 0.000, 0.000, -1.250, -0.375, 0.000, -0.875, 1.000, 0.875, 0.500, -0.875, 0.000, 0.375, -1.125, -0.875, 0.000, 0.000, 0.500, 0.000, -0.750, 0.000, 0.750, -0.625, 0.500, -0.500, 1.125, 1.375, 0.750, 0.000, -0.625, 0.875, 0.000, -0.375, -0.500, 0.625, -0.750, 0.750, -0.500, 0.000, 0.750, 0.750, 0.000, -1.000, 0.000, -1.000, 0.875, 0.875, 0.875, -1.125, 0.500, -0.375, 1.250, -0.625, 0.875, -0.375, -0.375, 0.875, 0.000, 0.500, -1.125, -1.250, -1.125, -0.500, 1.250, -1.125, 0.000, 0.875, 0.000, -1.000, 1.125, 1.000, 0.750, 0.625, 0.000, -0.375, -0.625, 0.000, 0.000, -0.375, 0.000, -0.500, 0.375, 0.000, 0.000, 0.000, -0.375, 0.000, 1.125, 0.000, 1.125, -0.625, -0.375, 1.500, -1.375, -1.250, 1.125, -0.875, -0.750, 0.750, 0.000, 0.000, 0.000, 0.625, 0.750, 0.000, -1.000, -0.500, -0.625, 0.875, 0.000, 0.000, -0.625, 0.750, 1.125, -0.500, 0.000, 1.375, -0.625, 0.000, 1.000, -1.250, -0.375, 0.750, -0.750, 0.875, 0.000, -0.750, -0.875, 1.250, 1.125, 0.375, -0.375, 0.750, -0.875, 1.250, -1.000, 1.375, -0.375, -1.250, 0.875, -1.250, 0.000, -0.500, 0.500, 0.000, 1.375, -0.875, 0.875, -0.375, 0.375, -0.625, -1.125, 0.375, 1.125, -1.250, -1.000, 0.000, -0.875, -0.625, 0.000, 1.250, -1.125, 1.125, 0.750, -1.250, 0.000, 0.000, 0.000, -0.625, -0.500, 0.500, -1.125, 0.000, -1.125, -0.375, -0.875, -1.000, 0.000, -0.625, 0.000, -1.250, 0.000, -0.875, 0.625, 0.500, 0.750, 0.000, 0.750, 0.750, 0.000, 0.000, 1.000, -1.250, 0.000, 0.500, -0.625, -1.000, -0.500, 0.000, 0.750, 0.000, 1.125, 0.000, -0.375, -0.750, 0.875, 0.000, 0.625, 1.250, 1.000, 0.000, 0.375, 1.000, -0.625, -0.750, 0.000, 0.000, 0.875, 0.375, 0.000, 1.125, 0.875, -0.750, 0.625, 0.875, 0.000, 0.000, 0.000, -1.125, -0.625, 0.750, 0.000, -1.250, 0.750, -0.375, -0.875, 0.750, 0.000, -0.500, 0.750, 0.625, 0.000, 0.375, 0.375, -0.875, -0.750, 0.500, 0.000, -0.625, -0.500, 1.125, 0.000, -0.625, 0.375, 0.000, 0.625, -0.625, 0.625, 0.000, 0.375, -0.875, -1.375, 0.000, 0.000, 1.125, -1.250, 0.000, -0.625, -1.000, 1.000, 0.625, -1.000, -0.625, 0.000, 1.000, 0.000, 0.000, 1.375, -1.125, -1.250, 0.000, -0.500, 0.500, 0.875, 0.000, -1.125, 1.125, 0.000, 1.000, -0.625, -1.250, 0.000, -0.750, -1.000, -1.000, 0.500, -0.500, 1.375, -0.875, 1.125, 1.125, 0.500, -0.625, 0.875, -0.500, 1.250, 1.250, -1.000, -0.750, -1.125, 0.000, 1.000, 0.750, -0.875, -0.500, 0.000, 0.500, 1.000, 0.625, 0.000, 0.000, -0.500, -1.250, 0.625, 0.750, -0.625, 0.750, 0.000, 0.000, 0.000, 1.000, -0.625, -0.875, -1.125, 0.000, -0.500, 0.500, -0.750, 1.250, -1.125, 0.625, -0.875, 1.125, -1.250, -1.250, -0.500, 0.625, 1.000, -0.500, -0.375, -1.125, -0.875, 1.000, 0.500, -0.500, -0.875, -0.875, -0.750, -0.500, -0.500, -0.375, 0.000, 0.875, -1.125, -0.875, -0.750, -1.000, 1.125, 0.625, -1.250, 1.125, 0.625, 0.625, 0.500, 0.375, 1.000, 0.750, 1.000, 1.375, -0.625, 1.250, -0.750, 0.000, 0.000, 0.000, -0.875, 0.000, 0.375, -0.750, 0.750, 1.250, 0.000, 0.000, -1.125, 0.000, 1.125, -0.500, -1.125, 0.375, 0.000, -1.125, 0.500, 1.125, -1.000, -1.250, 1.000, -1.000, 0.500, -0.625, 0.000, -1.250, -0.500, 0.000, 0.750, -0.625, 0.875, 0.875, -1.125, -0.875, 1.000, -0.875, 0.500, 1.125, 0.750, 0.625, -0.750, -0.875, 0.750, 0.000, 0.875, 1.000, 0.000, 0.000, -1.250, 0.875, -0.875, -0.750, 0.375, -0.625, 0.000, -1.125, -1.000, -0.500, 1.000, -0.375, 0.000, -0.750, -1.125, -0.500, 0.875, 0.375, 1.000, 0.625, 1.250, -0.750, -1.125, -0.875, -1.250, 0.875, -0.625, 0.875, 0.000, 1.000, 1.250, 0.625, 0.000, -0.750, 0.000, -0.875, 0.500, 1.000, 0.000, -1.125, 0.625, 1.125, 1.000, 1.125, 0.000, 0.875, 0.750, 1.125, 1.000, 0.000, 1.250, -0.500, -1.250, -0.750, -1.000, 0.500, 0.000, -0.750, 0.000, -0.750, -0.750, -0.500, 0.625, 0.000, 0.625, -0.875, -1.250, -0.875, -1.250, 1.000, -0.375, 0.875, 0.000, 0.000, 0.625, 0.000, -0.625, 0.000, 0.000, 0.000, 0.000, -1.125, 0.000, -1.000, 0.000, 0.625, -1.250, 0.000, -1.000, 0.500, 0.625, 0.750, -0.750, 0.625, 0.000, -1.250, 0.000, -1.250, -0.875, 0.625, 0.875, -0.750, -1.000, 0.750, 1.000, 1.125, -0.750, -1.000, -0.500, -1.250, -0.375, 0.625, 0.750, 1.000, 0.000, 0.000, -1.250, -0.375, 0.375, 0.750, -0.875, 0.625, -1.125, 0.500, 0.000, 1.125, -0.625, 1.000, 0.500, 0.750, 0.000, 1.000, 0.500, 1.000, 0.375, 0.875, 1.000, 0.000, 0.000, 0.875, 0.000, 0.000, -0.750, -0.500, -1.125, 0.000, -0.375, 0.875, 0.000, -0.625, 0.375, -0.625, 0.000, 1.250, -0.375, 0.000, -0.750, 1.250, 0.375, -0.375, -0.625, -0.375, 0.500, -1.125, -0.375, -0.750, -0.500, -0.875, -1.000, -1.125, 0.750, 0.000, -0.875, 0.000, 0.000, 0.625, 0.875, 1.000, -1.500, 0.625, 0.500, -0.875, 0.000, 1.250, -0.375, 0.500, -0.750, 0.625, -1.250, 1.125, -1.000, 0.000, 0.000, -1.125, 0.000, -0.625, -1.125, 0.000, 0.000, -0.750, 0.750, -1.375, 0.000, -0.750, -0.375, -0.875, 0.625, -0.875, 0.750, 0.750, -0.500, -0.500, 0.000, -1.375, 1.125, -0.375, 1.375, 1.250, 0.875, 0.375, -1.250, -0.625, -0.625, 1.375, 0.000, 0.375, 0.000, 0.750, -1.125, -0.375, -1.250, 0.500, -0.750, -1.000, 1.000, 0.000, 0.000, 1.000, 1.125, 0.000, 0.500, -1.000, 0.000, -0.875, 0.750, -0.625, 1.250, 1.375, -1.125, -0.625, 0.000, 0.500, -0.750, 0.000, -0.625, 0.625, 1.000, -0.875, -0.500, -1.125, 0.625, 0.000, 0.000, 0.000, 1.250, 0.375, -1.000, 0.375, 0.375, 0.625, 0.750, -1.250, -0.750, 0.875, -0.750, 0.500, 1.250, 0.500, 0.375, -0.875, 0.625, 0.000, -0.500, -0.875, -1.000, -1.250, 0.000, 0.000, 0.375, 0.750, -0.625, 0.625, 0.625, 0.000, -1.000, 0.875, 1.125, 1.250, 1.375, -0.500, -1.000, -1.375, -0.375, -1.000, 0.750, -0.625, 0.625, -1.250, 0.000, 0.000, 1.250, 0.000, -1.250, 0.625, -1.250, 0.875, 0.000, 1.250, 0.000, 1.375, 0.000, -1.250, 0.000, 1.000, -1.000, 1.000, 0.375, 1.000, -0.625, 0.000, -0.375, 0.000, 1.250, 1.125, -1.000, 0.000, -0.625, 1.000, -1.000, -0.500, -1.250, -1.125, -0.875, 0.375, -0.375, 0.375, -1.375, 0.875, -1.250, 1.375, 1.375, 0.000, 1.125, 0.000, 0.000, 0.750, 0.000, 0.750, 0.000, 0.375, 1.250, -1.250, 0.000, -1.000, 0.000, 0.000, 1.000, -0.750, -1.250, -1.250, -1.125, 0.750, 0.375, 0.000, -0.875, 0.000, -0.375, 1.250, -0.625, 0.000, 1.250, 1.125, -0.875, -1.000, 0.625, 1.250, -0.500, -0.875, 0.000, 0.750, 0.375, -1.375, -0.875, -1.250, 0.000, -0.500, -0.875, 0.000, -0.875, 0.000, 0.000, 0.625, -0.500, 0.750, -0.750, -1.000, 1.125, -0.875, 1.000, -1.000, -0.375, 0.625, 0.625, -0.500, -0.500, -0.500, 0.000, -1.000, -1.000, -0.500, 0.375, 1.000, -0.750, 1.000, -1.000, 0.000, -0.375, 0.000, -1.000, 1.250, 0.000, 0.375, -0.500, -0.625, -1.125, -1.000, 0.500, -0.750, -0.625, 0.000, 0.750, -0.625, 0.000, -1.000, 1.250, -0.500, 0.000, -1.250, 1.000, 0.875, -1.000, 1.125, 0.750, -1.250, 0.500, 0.000, 0.000, 0.375, 1.000, -0.625, 1.000, 0.875, 0.875, -0.500, 1.000, 0.625, 0.000, -1.000, 0.000, -0.500, 1.000, -0.625, 0.000, -0.875, 1.125, -0.500, -0.625, 0.000, -0.875, -1.000, 0.000, 1.250, -1.125, 0.750, 0.000, 0.750, 0.875, 0.875, 0.000, 1.000, 0.000, 0.500, -0.375, 0.000, 1.125, 0.625, 0.000, 0.000, 0.500, -0.375, 0.000, 0.000, 0.000, 0.875, 1.125, -1.000, 1.250, 0.000, 0.000, 0.875, -0.750, 0.000, -0.375, 0.000, -0.375, -0.500, 0.000, -0.875, 1.250, 0.375, -0.375, 1.000, -0.625, 1.000, -0.750, 0.000, 0.875, 0.500, 1.125, 0.000, 1.125, 0.500, 0.375, 0.000, -0.875, 0.000, -1.250, 0.875, -0.875, 1.000, 0.000, -0.750, 1.250, 0.000, 0.000, -0.875, 1.375, 1.000, -0.750, 0.000, -0.625, -1.125, -1.250, 1.125, 0.875, 0.000, -0.875, -0.750, -1.000, -0.500, -1.000, 0.000, -0.875, 0.000, 0.000, -0.375, 0.000, 0.000, 0.000, 0.750, 0.375, -0.500, 1.375, 1.125, 0.000, -0.750, -0.750, -0.875, -1.000, 0.375, 0.000, 0.000, 0.000, -1.375, 0.500, 0.750, 0.000, -0.875, 0.000, 0.375, 0.000, -0.875, 0.000, 0.375, 1.000, 0.000, -1.125, 0.500, 0.000, 0.000, 0.875, 0.000, -0.375, -1.125, 0.000, 0.000, -0.750, -1.250, 0.000, -0.625, -1.000, 0.000, -1.125, -0.625, -0.375, 0.000, 0.000, 0.000, 0.750, -0.625, 1.250, 1.000, 0.000, 0.000, 0.625, 0.000, 1.250, -0.500, 0.875, -1.125, 0.000, 0.000, -1.125, 0.000, -0.500, -0.750, 0.875, -1.250, 0.750, 1.125, -1.125, 0.000, 0.500, -1.250, -0.375, -0.375, -1.000, -1.375, 0.000, -0.500, -1.250, 0.500, 1.125, -1.250, 0.000, 1.000, -1.000, -0.500, -1.000, 0.000, 0.750, -1.000, 1.000, 0.000, -0.500, 0.875, -0.875, -1.250, 1.375, 1.125, 1.125, -1.000, 0.000, 0.000, -0.375, -0.500, -0.750, -0.875, 1.125, -0.500, -1.000, 0.000, 0.000, 0.000, -0.500, 0.000, 0.000, 0.875, 0.625, 0.000, -0.625, -1.000, 1.250, -0.875, 1.250, -1.250, 1.000, 0.000, 1.250, 0.000, 1.250, 0.000, 0.500, -0.375, -0.375, 0.000, -0.750, 0.000, 0.000, -0.875, 0.625, 0.625, 0.000, -1.250, 0.750, -0.875, 0.000, 1.000, 1.000, 0.000, 0.000, -1.000, -0.500, 0.500, 0.750, -0.875, 0.000, -1.125, 0.500, -1.000, -1.000, -1.250, 0.000, 0.000, 1.250, 0.375, 0.000, -1.000, -1.000, 0.000, 0.000, -1.250, 0.000, 0.000, -0.875, 1.000, 0.000, 0.000, 0.000, 0.000, 0.000, 0.750, -0.750, -0.750, 0.500, -1.125, -1.125, 0.000, -0.500, -1.000, -0.750, 1.250, -0.500, -0.375, 0.000, 0.000, 0.625, -1.125, -0.625, 0.625, 0.625, 0.625, -0.375, -0.625, 0.500, 0.000, -0.500, -0.875, 1.125, 0.750, 0.875, 0.000, 0.000, 0.000, 0.000, 0.000, -1.250, 0.625, 0.000, -1.250, 1.250, 1.125, -1.000, 0.875, -0.625, -0.375, 0.000, 0.875, 0.000, -1.000, 0.000, 0.000, 0.500, 0.000, 0.000, 0.000, 1.000, 1.250, -1.250, -0.875, -1.125, -0.875, -1.000, 1.125, -0.875, -0.500, 0.000, 0.000, 0.000, 0.000, 1.000, -0.625, -0.500, 1.000, 0.000, 0.875, -0.375, -1.250, 1.125, 0.000, -0.750, 0.000, 0.000, 1.000, 0.000, 0.000, -1.125, 0.375, -1.125, 1.125, -1.125, 0.500, 1.125, 0.000, -0.625, -1.250, 0.875, 0.000, -0.875, 0.875, -0.750, 0.000, 0.625, 0.000, 1.000, -0.750, 1.000, -0.750, 0.500, -0.875, 0.000, 0.625, 0.625, -0.500, 0.000, -1.250, 0.375, -0.875, 1.000, -1.375, -0.750, 0.500, 1.125, -0.375, -1.000, 0.000, 1.375, -1.125, 0.375, -1.250, 1.125, 0.625, 0.000, 1.000, 1.000, -0.875, -1.125, -1.000, -0.875, 1.000, 0.000, 0.625, -1.000, 0.875, -0.750, -0.500, -1.125, 0.000, -0.500, 0.500, 0.000, 0.375, 0.000, 0.000, 1.000, -1.000, 0.000, 0.875, -0.375, 1.250, 0.000, 0.500, 1.250, 0.875, 1.000, 1.250, 0.000, -0.375, -1.250, -0.500, 0.000, 0.875, 1.125, 1.250, -0.875, -0.375, 0.875, -1.125, 0.750, 1.000, 0.000, -0.375, 1.250, 0.000, 0.000, -1.000, -1.000, -1.125, 1.000, 0.500, -1.000, 0.500, -0.750, -0.875, -1.375, -0.625, 1.500, -0.625, 0.375, -1.125, -0.500, -0.875, 0.500, 1.000, 0.625, 0.500, 0.750, -0.500, 0.000, 0.000, -1.250, -0.750, -0.375, -0.500, 0.750, 0.000, 1.000, 0.750, 1.125, -0.750, -1.000, -0.500, 1.125, 0.000, 0.000, 0.000, 0.375, 0.750, 0.750, -1.000, 0.875, 1.250, 0.000, -1.000, -0.875, -0.625, 1.000, 0.000, 1.125, 0.000, -0.875, -0.375, -1.125, 0.750, -0.500, -0.625, -1.125, -0.625, 0.000, -0.625, -0.625, 0.000, 0.625, 0.000, 0.875, 0.375, -0.500, 0.750, 0.000, 0.000, -0.625, -1.125, -0.750, -1.375, 1.000, 0.000, 0.000, 1.125, -0.500, 0.000, 0.750, 0.000, 1.375, 0.000, 0.000, -0.750, 0.000, -0.875, -1.250, -1.250, -1.000, 0.875, 0.000, -1.125, 0.750, 0.875, 0.375, 0.500, 0.000, -0.375, 0.625, 0.000, -0.875, -1.125, 0.500, 0.000, 1.000, 1.000, 1.250, 0.625, 0.500, -0.500, 0.000, 0.375, -1.000, 1.250, 0.750, 0.000, -0.875, 1.250, 0.000, -0.625, -0.875, 0.375, -0.500, -1.000, -1.250, -0.625, 0.875, -0.375, -0.875, 0.750, 0.000, 1.125, 0.750, 0.875, -1.000, -0.625, -0.500, 0.750, 0.000, 0.000, -0.750, 0.750, 0.625, 0.000, 0.500, -0.625, -1.000, 0.000, 0.625, -1.125, 0.000, -1.375, 0.500, 1.125, 1.250, -0.625, 0.000, 0.000, 1.125, -0.500, 0.625, -0.500, 0.750, 1.000, 0.000, -1.125, -1.000, 1.125, -0.625, 1.125, 0.000, -0.375, -0.625, 0.625, 0.500, 0.625, 0.625, 0.000, -1.125, 0.375, 0.375, -0.375, -1.250, -0.500, 0.000, 0.000, -0.625, 1.500, 1.250, 0.000, 0.000, -0.500, 0.375, -1.125, -1.000, -0.750, 0.000, -1.250, -1.000, -1.375, 1.000, 0.375, 0.625, 0.000, 0.000, 0.000, 0.000, 1.000, 0.375, 0.000, -0.750, -1.000, -0.750, 0.375, -0.875, 0.500, 0.000, 1.125, -0.625, -0.375, 0.000, -1.125, 0.000, 0.750, 1.000, 0.875, 0.000, 0.875, 0.750, 0.625, 0.875, 0.000, 0.000, -0.625, 0.000, 0.000, -0.750, 0.000, 0.000, 0.000, -0.875, 0.750, 0.000, -1.375, 0.625, -0.500, -0.875, 0.625, 1.125, 1.125, -0.375, -0.625, 0.500, 0.375, -0.750, -0.375, -0.875, 0.750, -1.125, -0.625, 1.000, 0.000, 0.875, 0.375, 0.000, -0.500, 0.625, 0.875, 0.500, 1.000, -0.625, 0.875, 0.500, 0.875, -0.750, -1.125, -0.625, 0.875, 0.000, 0.000, -0.750, 1.125, 1.000, 0.375, 1.125, -1.250, 0.000, 0.000, -0.875, 1.125, 0.875, 0.000, 0.000, -0.500, 1.125, 0.000, -0.625, -1.000, 0.000, 0.750, -1.125, -1.250, 1.000, 0.000, -0.875, -0.625, -1.375, 0.875, 0.750, 0.000, -0.750, -1.000, -1.000, -1.125, -1.000, -0.500, 0.000, -0.750, -0.375, 1.125, -1.000, 0.000, -0.875, 0.625, -0.500, 0.000, 0.375, 1.125, 0.000, 1.000, 0.000, 0.750, -0.625, 0.000, 1.250, -0.625, 0.625, 0.000, 1.000, 0.000, 0.750, -1.125, 0.000, 0.750, -1.125, 1.125, 1.125, 0.000, -1.250, 0.500, 0.375, 0.500, 1.250, 0.000, 0.000, 1.250, 1.000, -1.250, 0.750, 0.375, -0.625, 0.000, 1.375, -1.125, 0.000, 0.875, 1.125, 0.000, -1.000, -0.500, 0.000, 0.000, 0.000, 0.000, -0.500, 0.000, -0.875, 0.000, -0.750, 0.750, 1.000, 1.125, 0.875, -0.750, 0.000, 0.625, 0.000, -0.500, -0.375, 0.000, 0.000, -1.250, 0.375, -0.500, 0.000, 1.500, -1.125, -0.375, 0.000, -0.375, -1.125, 0.375, -0.375, 0.000, -0.750, -0.875, 0.625, 0.000, -1.000, 0.000, -1.250, 0.875, 0.875, 0.000, 0.500, -1.250, 1.000, 0.000, 0.500, -1.250, -1.125, 0.000, -0.375, -1.250, 0.625, 0.000, 0.000, -1.000, 0.000, -0.750, 0.000, 0.000, 0.500, 0.375, 0.750, 0.875, 1.375, -0.750, 0.000, 0.000, -1.000, -0.375, -0.750, 0.000, 0.625, 0.000, -0.625, -0.625, 0.375, 1.375, 0.875, 0.875, -0.875, 0.000, 0.000, 0.875, -1.000, 1.250, 0.875, 0.375, -0.500, 1.250, 0.750, 0.500, -1.125, 1.000, 1.000, 1.250, -1.000, 0.000, 0.000, 1.125, -0.875, -0.375, -1.000, 0.000, 0.000, 0.000, 0.000, 1.250, 0.375, 0.625, -1.000, 1.250, -0.875, 0.500, 0.625, 0.500, -0.875, 1.375, 0.625, 1.000, 1.125, 0.500, -0.375, -1.000, -1.125, 1.250, -0.875, -0.750, -1.125, -0.500, 0.000, -0.500, -0.625, 1.250, 0.000, -0.875, -0.500, -0.625, 0.000, 0.625, -1.375, 1.000, 0.375, -1.125, -0.750, -0.500, -1.250, -0.625, 0.000, 0.000, -1.250, -1.250, -1.250, -0.500, -1.125, 0.500, -1.000, 0.625, 0.750, -1.125, 1.125, 0.875, 0.750, -1.000, -0.750, 0.000, 1.000, 0.000, 0.750, -0.875, -1.125, -1.250, -1.000, 0.000, 0.750, 0.000, 0.750, -0.500, 0.000, 0.000, -1.125, 0.000, -0.625, 1.250, 0.000, -0.500, 0.000, -1.125, 0.000, -1.000, 0.000, 0.000, 1.000, 0.750, 0.000, -0.375, -1.250, 1.250, -0.875, 0.375, 0.625, -0.500, 1.125, 0.000, -0.750, 0.875, 0.500, -1.125, 0.500, 0.000, 1.375, -1.125, 0.375, 1.250, 0.000, 1.125, 0.875, 0.625, 0.000, 0.000, 0.750, 0.500, -0.875, -0.875, 0.625, 0.875, -0.625, -1.125, 1.125, -0.875, -0.625, -1.125, -0.750, -0.625, -0.750, -0.375, -0.375, 1.000, 1.000, -1.125, -1.250, 0.500, -1.250, 0.500, 1.125, -0.875, 0.000, 0.375, 0.375, 0.875, -0.625, 1.000, -0.375, 0.375, -0.500, 0.375, 0.000, 1.000, -0.625, -1.125, 0.750, 0.625, 1.125, 0.875, 0.875, 0.875, 0.500, 0.000, 1.000, 0.000, -0.375, 1.375, -0.500, -0.625, 0.000, -0.750, 1.250, 1.000, -1.125, 0.000, 0.000, 0.000, -0.875, 0.000, 0.375, 0.000, 0.375, 0.875, 0.875, 0.500, -0.750, -1.000, 0.000, -0.750, 1.125, 0.500, -1.125, 0.875, 0.000, -1.125, 1.250, 0.625, -1.000, -0.375, 1.250, -1.000, -1.250, 0.875, -0.375, -0.500, -1.125, 0.000, -0.375, -1.125, -0.875, 0.500, 0.500, 0.375, -0.625, 0.625, 0.750, -1.000, 0.000, -0.875, 0.750, 0.625, -0.500, 0.000, 1.125, 0.500, -1.000, 1.000, -0.625, -0.500, 0.750, 0.000, 0.875, 1.125, 0.625, 0.000, -0.500, 1.250, -0.500, 0.000, 1.250, 0.375, 0.750, 0.000, 0.000, 0.750, -0.875, -0.625, 0.000, 0.000, -0.875, -0.875, -0.875, -1.000, 0.625, 1.125, -1.125, 0.000, 0.750, 1.250, -1.000, -0.500, -0.625, -0.375, 0.000, 0.000, 0.000, -0.500, 0.875, -0.625, 0.000, 0.875, 0.500, 0.000, 1.125, -0.625, 0.000, -1.250, -0.375, 0.000, 1.125, -1.000, -0.500, 0.000, -1.000, -0.750, 0.000, 0.000, -0.500, -1.000, -0.750, 0.000, 0.000, -0.500, 0.000, 0.000, -1.000, 0.000, 0.625, 1.000, -0.500, 0.625, 0.375, -0.625, 0.625, -0.375, 0.000, -1.000, 1.000, 0.000, -1.000, 0.000, 1.000, 0.000, -0.750, -1.250, 0.375, 0.625, 1.250, -0.875, -1.125, 1.125, 0.375, 1.125, -1.125, 0.375, -0.625, -1.000, 0.000, -0.625, 0.625, -0.875, -1.125, 0.000, 0.625, 1.125, -1.125, 0.625, -0.875, 1.375, 1.000, 0.625, 1.125, 0.000, 0.000, 0.500, 0.000, -0.625, -0.375, 0.500, 0.000, -1.000, 0.625, 0.000, 1.375, -0.750, -1.250, 0.375, -0.875, 0.500, 1.000, 1.250, -1.000, -0.750, 0.000, 0.000, 0.500, 0.000, 0.750, 0.750, 0.000, -0.875, -1.000, 0.000, -0.625, -0.375, 0.000, -0.375, 0.625, 0.875, 1.250, -0.625, -1.125, -0.500, 0.875, 1.000, -0.375, -0.375, -1.125, -1.250, 1.125, 0.375, -0.500, -0.375, 0.000, 1.250, -0.375, -0.375, 0.875, 0.000, 1.125, 0.000, 0.875, -1.000, 0.500, -1.375, 0.375, 0.625, -1.250, -0.875, -1.125, -0.500, -0.500, -0.625, 0.000, -0.375, 0.500, -0.875, 0.625, 0.375, 0.000, 0.875, -1.000, -1.000, 0.000, 0.000, 1.000, 0.000, 1.000, 0.750, 0.000, 0.000, 1.125, 0.000, 0.875, -1.000, 1.250, 0.000, 0.000, 0.000, 0.000, 1.125, -0.750, -0.625, -1.000, -1.000, 0.000, 0.875, -0.500, 0.625, 1.250, 0.625, 1.000, 1.250, 0.000, -0.500, 0.000, 0.000, 0.500, 0.000, 0.000, -0.625, 0.875, 0.000, 0.875, 0.000, -0.750, 1.250, -0.375, -1.125, 0.000, 1.125, 0.000, 0.000, -1.250, 0.375, -0.500, 0.750, 0.000, -0.875, -0.625, -0.625, 0.000, 0.000, 1.375, 0.000, 0.000, -0.500, -1.375, -0.625, 0.375, -0.500, 0.875, 0.750, -0.750, -0.750, -0.375, 0.000, -1.000, 0.625, -1.000, 0.625, 0.875, -1.375, 0.625, 0.000, -0.375, 0.000, 0.625, 0.000, 0.000, 0.375, -0.375, 0.000, -1.125, -1.375, 0.750, -0.750, 0.000, 0.625, 0.000, -1.250, 1.125, 0.000, 0.625, -1.125, -1.375, -0.500, 0.625, 0.625, -1.250, 0.000, -0.500, -0.500, 1.250, -0.750, 0.000, 0.375, 0.000, -0.625, -1.000, 0.375, 1.000, 0.625, -0.625, -1.000, 0.000, 0.000, 0.000, 0.875, -0.375, 0.500, 0.000, 0.500, 0.875, 0.000, 0.625, 0.000, -0.625, 0.000, -1.125, -0.375, 1.250, 0.875, 0.375, 0.000, 0.000, 0.875, -1.000, 0.000, 1.250, -0.500, -0.625, -1.000, 0.875, -0.500, -0.875, 0.000, -0.500, -0.500, 0.500, 0.500, 0.500, 1.125, 0.750, 1.125, 1.250, 0.375, 1.250, 0.875, 1.250, 0.500, -0.750, -0.875, 0.000, -0.625, 0.000, 0.750, 0.750, 0.500, 0.500, 0.000, 1.125, -0.875, -0.875, 1.250, 1.375, 0.875, 0.750, 0.875, 0.000, -1.125, 1.000, -0.750, 0.000, 0.500, -1.500, 0.750, 1.250, 1.250, 1.000, 1.125, 0.000, 0.625, 0.000, 0.750, 0.375, 0.875, -0.875, 0.000, -1.000, -1.000, -0.875, 0.875, 1.125, 0.000, 0.000, 0.875, 0.000, 1.125, -1.000, 0.000, -1.125, 0.750, -0.375, 1.000, 0.375, 1.125, -0.500, 0.000, 0.000, 1.000, 0.875, 0.625, 0.625, 1.000, 0.875, 0.750, -1.125, 0.625, -1.000, 0.375, 0.000, 0.875, -0.375, 0.500, -0.875, -0.875, -0.625, 1.000, 0.500, 0.000, 0.500, 0.000, -1.125, -0.750, 0.750, -0.500, -0.375, 1.375, 0.000, -0.375, 0.375, 0.625, -0.750, 0.000, 0.000, 1.375, 0.000, -1.000, -0.750, 1.250, -1.125, 0.500, 0.750, 0.000, 0.500, 0.000, -1.000, 0.000, 0.000, 0.500, 0.500, -0.875, -1.000, -0.625, 0.000, 0.375, 0.875, 0.000, 0.875, 0.625, 0.375, -0.375, 1.250, 0.000, 1.000, -0.375, 1.000, -0.500, 0.750, -0.750, 0.000, 0.000, -0.500, 1.000, 0.000, 0.000, 1.125, -1.000, -1.125, -0.750, 0.000, 1.125, -1.125, -0.875, 0.000, 0.000, -1.250, 0.000, 1.000, 0.000, -0.750, 0.750, 0.000, 1.000, -0.500, 0.000, 0.875, 0.625, -0.875, 1.000, 0.000, -0.875, 0.000, 0.000, 1.125, -0.375, 0.625, 0.500, 0.875, -0.625, -0.625, -0.375, 1.000, -1.000, 0.625, -0.750, 0.750, -0.875, 0.000, 0.625, 0.750, 0.000, -1.500, -0.750, 1.125, -1.000, 1.250, 0.000, 0.000, 0.875, -1.375, -0.625, -0.750, -1.125, -1.125, -1.000, -0.500, -0.875, 1.250, 0.750, -0.500, 0.500, 0.000, 1.500, 1.250, -0.625, 0.875, 1.125, -1.250, 0.000, 0.000, 1.125, 0.875, -0.500, 0.000, 0.500, -0.750, 0.625, -1.125, 0.375, 1.125, 0.750, 1.000, 0.375, 0.625, 0.875, 0.000, -0.375, -0.500, 0.000, 1.125, -0.625, -0.875, -0.625, 1.000, -0.375, 0.000, 0.750, 0.000, 1.125, -0.500, 0.000, 0.375, -0.375, 0.500, 0.000, 0.000, 0.500, -1.000, -0.375, -1.125, 0.375, -0.875, -0.750, -0.375, 0.000, 0.500, -0.375, -0.375, -0.750, -1.250, -0.750, 1.250, 1.125, -0.500, 0.000, 0.375, 1.000, -1.125, 1.000, 0.875, 0.000, 0.375, -1.000, -0.875, -1.000, 0.000, 0.875, 0.000, 0.625, 0.500, -0.750, -1.375, -1.125, 1.125, 0.750, 0.000, 0.750, 0.000, 0.000, -0.500, 1.000, -1.000, 0.000, 0.000, 0.000, 1.000, 0.000, -1.250, 0.000, 1.000, 0.000, 0.000, 1.125, 0.875, 0.000, 1.000, 1.000, -1.125, -0.750, 0.375, -1.000, 0.000, 0.750, -1.375, 1.125, -0.375, -1.125, -1.125, 0.000, 1.250, 1.250, -0.875, -0.875, 0.000, -0.750, -1.250, 1.375, 1.125, -1.250, 0.375, -0.500, 1.250, 0.000, -0.750, 0.000, -0.625, 0.000, 0.000, -0.750, 0.000, 0.500, -1.000, 0.875, 0.000, -1.000, -0.375, -0.750, 0.000, 0.000, -1.000, 0.875, -0.375, 0.750, -0.500, 0.500, 0.000, -0.625, 0.375, 0.750, 0.750, 1.125, 1.125, 0.000, 1.250, 0.375, 0.875, 0.375, -0.500, -1.125, 0.375, 0.000, 0.500, 0.000, 0.000, -1.125, -1.375, 0.750, -0.500, 1.250, 0.000, 0.000, 0.375, -0.375, -1.250, 0.000, 0.625, 1.250, 1.000, -0.375, -0.875, -0.750, -1.125, -0.375, 1.250, -0.875, 0.625, 0.500, 0.500, 1.000, -0.875, 0.875, 0.375, -0.375, -0.750, 0.375, 0.000, -1.125, 0.500, 0.000, -1.125, 1.125, -0.375, -0.500, -1.000, -1.000, -0.750, -0.500, -0.375, 0.750, -0.375, 0.000, -1.125, -0.375, 0.000, -1.125, 0.000, 0.000, -0.875, 1.000, -1.000, -0.500, 0.500, -0.500, -0.750, 1.250, 0.375, -0.625, 0.625, -0.500, 0.000, -0.625, 0.000, -0.375, -0.750, -1.125, -1.000, 0.625, -0.500, -0.750, 0.625, 0.000, 0.750, -1.000, -1.125, 0.500, -0.625, -1.000, -0.375, 0.750, -0.500, 1.250, 1.000, 0.625, 0.000, -1.125, 0.875, 1.375, 1.125, 0.625, 0.375, -0.750, 1.000, 0.750, 0.000, 1.125, 0.500, 0.375, -0.750, -1.125, 0.875, -1.125, 0.500, -1.250, -0.500, 0.000, 0.375, -0.625, -0.500, -1.250, -0.750, 0.750, -0.750, 1.250, -0.375, -1.375, -1.000, 1.000, 0.000, -0.750, 0.000, -0.875, 0.000, 0.000, 1.125, 0.000, 0.000, 0.500, 1.250, -1.000, 1.250, -0.625, 0.000, 1.125, 0.000, 0.625, -0.875, -1.000, 0.750, -1.125, 0.000, 0.875, 0.000, 0.000, 0.875, 0.000, -1.250, 0.375, 0.625, 1.250, 0.000, -1.125, -0.375, 0.000, -0.875, 0.000, 1.125, 0.000, -0.750, 0.375, 1.250, 0.750, 0.500, -1.125, 1.000, 0.875, 1.000, 1.250, 0.625, -1.125, 0.750, -1.125, 1.250, 0.500, 0.750, -0.375, -0.750, 0.500, 0.625, 0.750, 0.875, 1.125, 1.000, -0.750, -0.625, -0.375, 0.375, 1.125, -1.125, -1.125, 1.125, -0.500, -1.000, -0.875, 1.000, 0.000, -1.375, 0.000, -1.125, 0.500, 1.000, 0.875, -0.500, 0.000, 1.250, -0.500, 1.125, -1.250, -1.375, -0.625, 0.000, -0.750, -1.000, 1.000, -0.375, 1.125, 0.500, 0.000, 0.000, 0.875, 1.000, -0.625, -0.750, 1.125, 0.750, -0.500, 0.000, -1.250, -1.125, 0.875, -1.250, -0.625, -0.375, -1.125, -0.875, -0.625, 0.625, 0.000, 0.000, -0.750, -0.875, 0.750, 0.375, 0.750, -1.125, 0.500, 0.000, -0.625, -0.750, -0.875, 0.000, 0.875, 1.375, 0.500, 0.000, 0.500, 0.625, -1.000, 1.250, 0.375, 0.625, 0.000, 0.000, -0.500, 0.000, -1.375, 0.750, 0.500, -0.625, -0.750, 0.750, 0.375, -1.000, 0.000, 0.875, 1.125, 0.000, 0.000, 0.750, -1.250, -0.500, -0.625, 0.000, 0.000, 0.875, 0.000, -1.125, -1.125, 1.000, 0.375, 0.000, -0.875, -0.625, 0.875, 0.000, -0.625, -0.375, -1.250, 0.000, 0.000, -0.500, -0.375, -0.750, -0.750, 1.125, -1.250, -0.625, 0.500, -1.125, 0.375, 0.500, 0.625, 0.625, 0.500, 0.000, 0.500, 1.125, -1.125, 0.750, 0.000, -0.875, -0.500, -0.750, 0.875, -0.625, -1.125, 0.375, 0.000, 0.000, -0.750, 0.750, 1.000, 0.000, 0.000, -1.375, 0.500, -0.875, -0.750, -1.000, -1.250, 1.125, -0.750, -0.500, -1.000, 0.000, 0.375, -0.875, 0.875, 0.625, 0.500, -1.375, 0.000, -0.500, 0.500, -0.375, 0.000, 0.000, -1.125, -0.750, 0.000, 0.875, -1.500, 1.375, 0.750, -0.375, -1.000, 0.625, 0.000, -1.125, 0.375, -0.750, -0.750, 0.375, 1.000, -0.375, -1.250, -0.750, 1.000, 0.625, -1.000, 1.000, -1.125, -0.750, 0.750, -0.875, 1.250, -0.625, 0.875, 0.000, -1.125, 0.000, 0.375, -1.000, -0.375, -0.500, 0.875, 0.500, 0.625, 0.750, 0.000, 1.000, -1.250, 0.875, 0.875, 0.000, -0.500, 1.000, -1.250, -0.875, 0.625, 0.000, 1.000, 0.750, 0.000, -0.625, -1.125, -0.875, -0.500, -0.500, 0.000, 1.125, 1.125, -0.375, -1.125, 0.000, 0.000, 1.250, 0.000, 0.375, 0.000, 1.000, 1.125, -0.375, 0.750, -0.625, 1.000, -0.375, 0.875, 0.000, -1.250, 1.125, 1.250, -0.750, 0.750, 0.000, 0.500, -0.500, 0.500, -0.875, 1.250, 0.000, 0.000, 0.000, -1.125, -1.375, 0.000, -0.375, 0.625, -1.250, 0.000, 1.000, 0.500, -0.375, 1.375, -0.625, -0.750, 1.000, 0.000, -0.750, -1.250, -0.750, 0.875, 0.500, -0.750, -0.375, 0.875, -1.125, -0.500, -0.375, -1.125, 0.000, 0.625, -0.750, 0.875, -0.500, 1.250, 0.750, 0.500, -0.875, -0.875, 0.000, 1.250, 0.750, 0.000, -0.375, 1.000, 0.875, 0.000, 1.000, 0.750, 0.375, 0.625, -0.750, -0.750, -0.875, 0.500, 0.000, 0.500, -1.125, 0.375, 0.875, 0.000, -0.875, 1.125, -1.125, -1.000, -0.375, 1.125, -1.000, 0.000, 1.000, -0.625, 0.000, 0.000, -1.000, 0.500, 0.000, -0.750, -0.375, 0.750, 0.625, -1.000, -0.375, 0.625, 0.000, 0.375, -0.625, -1.125, 0.000, 0.750, -0.625, -1.000, 0.625, 0.000, -0.375, -0.625, 1.125, 1.125, -0.625, 0.000, 0.500, 0.000, 1.000, -0.500, -1.250, 0.000, 0.000, 0.625, 0.000, 0.000, 0.625, 1.250, -0.750, 0.500, 0.625, 0.000, 0.875, 0.375, -1.250, 0.000, -1.375, 1.125, 0.750, 0.375, 0.625, -1.125, 0.000, -1.250, 0.750, -0.500, 0.625, 0.000, 0.750, -1.000, 1.125, -1.125, 0.000, 0.875, 0.000, 0.000, 0.375, -1.125, 0.375, -1.250, 0.000, -0.500, -0.500, 0.375, 0.625, 0.000, 0.875, 0.000, 1.375, -0.750, -1.000, 0.625, -0.625, -0.625, 0.750, 1.250, -0.875, 0.000, 0.375, 1.000, 0.875, -1.125, 1.125, -1.125, 0.625, 0.500, 0.000, -0.500, -0.375, -1.125, -1.250, 1.250, -1.000, -0.500, 0.875, -0.500, 0.000, 0.000, 0.000, 0.000, 0.750, 1.000, 0.625, 0.000, 1.250, -1.250, 1.000, -1.125, -0.750, -1.000, 0.000, -0.375, 0.000, 0.875, -1.000, 1.250, 1.125, 1.375, 1.000, -1.250, 0.375, 0.000, 1.250, 1.000, 0.625, 0.000, 1.000, -1.000, -1.000, -0.500, 1.250, -1.000, 1.000, 0.000, 0.625, 0.000, 1.000, 0.750, -0.500, 0.625, -0.875, 1.000, 0.750, -1.250, -0.375, 0.875, -1.000, 1.250, 0.000, -1.000, -1.000, 0.000, -0.500, 0.500, 0.000, 0.000, -1.000, 0.000, -0.375, -1.000, 0.000, -1.000, -1.000, -0.500, 0.000, -1.250, 0.875, 0.500, -1.000, 0.000, -0.625, 1.375, 0.375, 0.000, 0.500, 0.000, -1.250, -0.625, 0.000, 1.000, 0.875, 0.000, 1.125, 0.375, 1.000, -0.875, 0.000, -0.375, 0.000, -1.125, 0.000, 0.625, -0.875, 1.250, -0.375, 0.875, -0.375, 0.875, 0.000, 1.125, 0.625, 0.375, 0.375, -0.500, 0.000, 0.000, -0.625, 1.125, 0.375, 1.000, 0.375, 0.875, 0.500, -1.125, 0.000, 0.875, 0.625, 0.000, -1.000, -1.250, 0.875, 1.250, -0.750, 0.375, -0.500, 1.000, -0.750, -0.750, 0.375, 0.000, 0.750, 0.000, 0.625, 1.250, -1.125, -1.250, -0.875, 0.500, -0.750, 0.000, 0.000, 1.125, -1.000, -0.625, 0.000, -0.875, -1.250, 0.875, 1.250, 0.500, 0.000, -0.500, -0.750, 1.250, -1.125, -0.875, 0.500, 0.875, 0.000, -0.625, -0.625, 0.000, 1.250, -0.625, 1.125, 0.000, -1.000, 0.500, -0.625, 1.000, 0.875, 1.250, -1.125, 0.000, 0.625, -0.750, 0.750, -0.875, 1.000, -0.625, -0.375, -0.375, -1.250, 1.125, 0.000, -0.625, 0.000, 0.000, -1.250, -0.750, 0.625, 1.250, -0.625, -0.500, 0.000, -1.125, -1.000, 1.375, 1.250, 0.500, 0.875, -0.500, 0.000, 0.750, 0.375, -0.500, 1.000, 0.750, 0.000, -1.250, 0.000, 1.125, -0.875, 0.000, 0.000, 0.500, -0.750, -1.125, 1.125, 1.000, 0.000, 1.000, 0.000, 1.125, 0.750, 0.000, -0.750, 0.000, 1.125, -0.375, 0.000, -0.875, 0.750, -1.125, 0.375, 0.000, -0.875, -1.375, -0.875, 1.250, 0.000, 0.000, 1.250, -1.125, 0.625, -0.750, 0.000, -0.375, 0.375, -0.750, -0.875, -0.625, -1.000, 1.000, 0.000, 0.000, -0.625, 1.125, 0.750, -0.750, 1.375, 0.625, -1.125, -0.500, 0.000, -0.875, -1.000, -0.750, 1.250, 1.250, -0.500, 1.000, 0.750, -0.375, 0.000, 0.000, 0.500, 0.875, -0.875, 0.000, -1.375, -0.625, 1.000, 0.750, 0.000, 0.375, 0.000, 0.875, 0.875, -1.000, -1.125, -0.750, 1.250, 0.000, 0.625, 1.125, 1.125, 0.500, 0.500, -0.750, 0.375, 1.375, -1.000, 0.750, 0.375, 0.750, 0.000, 1.125, 0.625, 0.875, 1.125, 0.000, -1.000, -0.875, 1.375, 0.500, -1.000, 1.000, -0.500, 0.000, -0.375, 0.375, -0.625, -0.500, -1.125, -0.625, -0.375, 0.750, -0.875, 0.000, -1.250, -1.000, 0.000, -0.375, 0.000, -0.625, 0.750, 0.500, 0.375, -0.375, 0.000, -1.375, 0.000, 0.375, 0.625, -0.750, -1.125, 1.250, -0.875, 0.000, 0.875, 0.000, 0.000, -0.750, 0.000, -0.500, -1.125, 0.000, 0.875, -0.875, -0.375, -0.625, -0.500, 0.000, 1.125, 0.000, -0.375, 0.375, 0.000, 0.500, 0.000, -1.125, -0.625, 0.000, 1.250, 0.750, -1.125, 1.125, 0.000, 0.000, 0.000, 0.000, 0.000, 0.000, 0.000, -0.750, -1.125, -0.500, 1.375, -0.625, -1.125, 1.375, 1.250, 0.750, 0.000, -1.250, 0.000, 0.000, 0.000, 0.000, -0.625, 0.750, -0.500, -0.375, -1.125, 0.000, 0.000, 0.625, 0.875, -1.000, -0.375, 1.000, 0.500, -0.625, -1.000, 0.875, 0.000, 0.000, 0.750, 0.875, 0.000, 0.875, 1.375, 0.000, -1.375, 0.750, -0.750, 0.750, -1.000, -0.750, -1.250, 0.000, -0.625, 1.000, 1.125, 0.375, -1.000, -0.750, -0.625, 0.875, -0.750, 0.000, -0.500, -0.875, 0.000, -0.375, -0.750, 0.625, 1.250, 0.000, 0.000, -0.625, -0.750, 1.250, 0.500, -1.250, 0.750, 0.000, 1.000, 0.875, 1.125, -1.000, 0.500, -0.875, 1.125, -0.750, 0.000, 0.875, -0.500, -1.000, 0.375, -1.125, 1.125, -0.875, 0.000, -0.375, -0.875, 0.625, 1.375, -1.000, 0.000, -0.750, 0.000, -0.750, 0.500, 1.125, 0.375, -1.000, 0.000, 0.000, 1.000, 0.375, -0.875, -0.750, -1.000, -1.000, -1.000, -1.125, 0.375, 0.625, 0.500, -0.750, -0.375, 0.500, -0.875, 0.000, -0.375, -0.625, 0.750, -1.250, 0.750, 1.125, -1.375, 0.875, -0.875, -0.750, -0.500, 1.000, 1.125, 0.000, -0.375, 0.500, 0.000, -0.500, -1.000, 0.000, 0.625, -0.500, -1.250, -0.875, -1.250, 0.000, -0.625, 0.000, 0.750, 0.375, 0.000, 1.250, 0.000, -0.375, 0.000, -1.125, -0.750, 0.875, 1.125, -0.500, 1.000, 1.000, -1.375, 0.000, 0.000, 1.125, -0.375, 0.750, -1.000, -1.000, 0.375, -0.625, -0.500, -0.500, 0.000, 0.500, 0.625, 0.625, -1.000, -1.000, 0.750, 0.625, 0.000, 0.750, 1.125, 0.000, 0.000, 0.000, 0.000, 0.875, 0.500, 0.500, -1.250, 0.500, 0.500, -0.625, 0.500, -1.000, 1.000, 0.750, -1.125, 1.125, 1.125, 1.000, -0.750, 0.000, 0.750, 0.875, 0.750, 0.500, 0.625, 0.875, -0.500, 0.375, 1.125, 0.875, 0.000, 0.000, 1.250, 0.875, -1.125, -0.500, 0.000, -0.625, 0.500, -0.375, 0.000, 0.625, 0.875, -0.625, -1.000, 0.000, -0.375, 0.000, 0.000, 0.500, 0.750, 0.000, -0.875, 0.000, 0.000, -0.500, 0.000, 0.000, 0.000, 0.875, -0.750, 0.625, -1.000, 1.125, 0.000, 1.125, 0.000, -1.000, -1.125, -1.250, 0.000, 0.750, 0.875, -1.125, 1.250, 0.875, 0.500, 0.000, -0.375, -0.625, -1.375, 0.000, 0.000, 0.625, -0.625, 1.000, -0.625, 0.625, -0.625, -0.375, -1.000, 0.000, 0.875, -0.375, -0.875, -0.500, 0.375, 0.750, 0.625, -1.125, 0.000, -1.250, 0.000, -0.625, -1.125, -0.625, -0.750, -0.500, 0.000, -0.750, -0.500, -1.000, 0.625, 0.000, 0.000, -0.625, -0.750, 1.250, 0.625, 0.000, 0.000, 0.000, 0.625, 0.000, 1.125, 0.000, 0.000, -1.250, 0.000, 0.000, 1.250, -0.875, 0.500, -0.750, -1.250, 0.000, 0.000, 0.000, 1.000, 0.625, -0.625, -0.750, 0.000, -1.125, -1.125, 0.000, -0.375, 1.000, -0.875, -0.875, 1.125, -0.875, -0.875, 1.125, 0.000, 0.625, 0.875, 0.000, -0.500, -0.750, 1.125, -1.125, -0.625, 0.000, 0.000, 0.000, -1.250, 1.125, 1.000, 0.625, -0.875, 0.000, -0.375, -1.000, 0.000, 0.000, -1.125, 0.500, 0.000, -0.500, -1.125, -0.375, 0.375, 1.125, 0.000, -0.625, 0.000, 0.000, 1.000, 1.375, -1.250, -1.250, 0.375, 0.375, -0.750, -0.375, 0.000, 0.000, 0.375, -0.875, 1.250, 1.375, -0.875, 0.000, 0.000, -0.750, -0.375, -0.875, -0.750, 0.500, -0.875, -0.625, -1.125, 0.875, -0.625, 0.375, 1.000, 0.625, 0.500, 0.000, 0.000, 1.125, -1.125, 0.500, 0.375, -1.250, 0.625, -0.500, 0.000, -0.500, 1.000, 0.625, 0.625, 0.625, 0.000, 0.000, -0.625, -0.625, -0.625, 0.000, 0.000, -0.500, -1.000, -1.000, -1.125, -0.750, -1.250, 0.000, -1.125, 0.000, 0.000, -1.125, -0.875, 0.625, 0.750, -1.375, -0.375, -0.375, 0.625, 0.750, -0.500, 1.250, -1.250, 0.000, -0.625, 0.000, -1.000, 1.000, -1.125, 0.750, 1.125, -0.750, 0.375, -0.500, 0.000, 0.500, 1.375, 0.000, 0.750, 0.500, 0.875, 0.000, 1.000, 0.000, 0.000, 0.500, 0.500, 0.375, 0.375, -0.375, 1.000, 0.000, -0.500, 0.500, 0.875, -1.125, 1.250, 0.750, -0.625, 1.125, 0.500, -0.750, 0.000, -0.375, -0.750, -1.125, 0.750, 0.500, 0.500, 0.000, 0.000, 0.750, -0.375, -1.125, -0.750, -0.750, 0.500, 0.000, -1.125, 1.125, 1.000, 0.625, -0.875, 0.000, -0.625, 0.750, 1.000, 1.125, 0.500, 0.000, -0.625, -1.000, 1.125, -0.750, -0.375, 0.000, -0.750, -0.750, 0.000, 0.750, 1.250, 1.375, 0.000, 0.000, -0.625, 0.875, 0.500, -0.375, 0.375, 0.750, 0.625, 0.500, -1.125, -0.750, -0.375, 0.500, 1.125, -0.500, 0.000, -0.375, 0.875, -0.625, 0.000, 0.500, 0.000, 0.375, -0.625, -1.000, 0.000, 0.375, 0.000, -1.000, -0.500, -0.500, 1.250, -0.625, -1.000, 1.250, -0.750, 0.625, 0.750, 1.000, 0.375, -0.625, 1.000, -0.875, 0.000, 1.000, -1.125, 0.375, 0.625, 0.875, -0.375, 0.375, -0.500, -0.500, 1.125, 0.000, -0.750, 1.000, 0.000, -0.500, 0.750, -0.500, -0.625, 0.625, -0.625, -0.625, -0.625, -0.500, -1.000, 0.875, 1.250, -1.000, -1.000, 1.125, 0.500, 0.000, -0.375, 0.000, 1.125, -0.375, 1.250, 0.750, 0.000, 1.250, -1.000, -0.875, -0.875, 0.000, -0.375, 0.500, -1.000, -1.375, 1.000, 0.000, 0.375, -0.750, 0.875, 1.000, 0.000, 0.000, 0.500, -1.000, 0.000, -1.000, 0.000, 1.125, 0.000, -0.375, 0.375, 0.375, 1.250, 0.000, 0.875, 1.000, 1.000, 1.375, 0.500, 1.125, -1.250, 1.125, -0.750, -0.500, 0.000, 1.250, 0.875, 1.250, 0.500, 0.500, 0.000, -1.000, 0.000, -1.000, -0.875, 1.125, -1.000, 0.000, -0.500, -0.750, -1.250, 0.000, -1.250, -1.000, 0.375, 0.875, 0.000, -0.500, 1.250, -1.250, 0.000, 1.250, -0.500, 0.000, -1.000, -1.125, 1.125, -1.250, 0.000, -1.000, 0.000, -0.750, -1.125, -0.875, -0.750, -0.750, -1.125, 0.000, -0.875, 0.000, 0.500, 0.000, 1.125, 0.000, 0.000, 0.750, 0.000, 1.125, -0.875, 1.250, -0.625, 0.750, 0.500, -0.500, 0.875, 0.625, 0.500, 0.000, 0.375, 0.000, 0.750, 0.875, -1.125, -1.125, 0.750, 1.000, 0.875, 1.250, 0.500, -0.750, -0.625, -1.250, -0.375, 0.625, -0.875, 0.625, 1.000, -1.250, -0.875, -1.125, 0.000, 1.250, -1.250, -0.625, 0.500, -0.500, -1.250, -0.500, 0.000, 0.000, -0.500, -0.375, 0.000, -1.250, -1.000, -0.500, 0.000, -0.625, 1.125, 1.125, 0.500, 0.000, -0.750, 1.000, -0.875, 0.000, 0.875, -0.500, 0.500, -0.875, 1.000, 0.625, -0.750, -0.500, 0.375, 0.000, 0.375, -0.875, 0.000, -0.875, -0.375, -0.500, 0.750, 0.500, -0.625, -0.625, 0.750, -0.625, 0.000, -0.625, -0.375, 1.000, 0.375, -1.125, -0.500, -1.125, 0.375, 0.750, -0.875, -1.250, -1.125, 1.000, 0.375, -1.250, 0.000, -1.250, 0.000, -1.000, 1.125, 0.500, -1.000, -1.000, 0.500, 0.000, 0.750, 0.000, -0.750, 0.000, 1.125, -1.000, 0.000, -1.000, 0.375, 0.000, -0.500, 0.000, 0.000, -1.250, -0.375, 1.375, 0.875, 0.500, 0.875, -0.875, -1.000, 1.250, 0.000, 0.625, -0.375, -1.000, 0.000, -0.375, -1.125, 0.000, 0.625, 0.375, -0.375, -0.375, 1.000, -0.375, -1.000, -1.250, 0.375, -0.500, -0.875, 0.375, -0.875, -1.000, -0.375, 1.000, -0.750, 0.375, -0.375, 0.500, -0.625, 0.375, 1.250, 0.000, 0.000, 0.000, 0.750, 0.000, 0.000, 0.000, 0.000, 1.000, -0.750, 0.000, 0.500, -0.500, -1.125, -0.875, -1.250, 0.750, 0.500, 0.000, 1.250, 0.000, 0.500, -0.875, 0.500, -0.875, 0.000, 0.500, 0.500, 0.375, 1.125, 0.625, 1.375, -0.875, 0.750, 0.875, -0.750, -0.500, 0.000, 1.125, -0.625, 0.750, 0.000, -1.375, -0.375, 0.000, 1.125, 0.500, -0.375, -0.750, -0.500, -0.875, -0.875, 0.875, 0.750, 0.875, -0.750, 1.125, -0.375, 0.750, 1.250, -0.750, -1.000, -0.875, -0.375, 0.000, -0.375, 1.125, 0.000, 0.000, 0.750, 0.000, 0.000, 0.000, -0.875, -1.250, 0.625, 1.000, -0.875, 1.250, -0.875, 1.000, -0.500, -0.625, 0.000, 0.000, 1.125, 1.000, -1.125, 1.125, -0.875, 1.125, 0.500, 1.125, 0.875, 0.000, -0.375, 0.000, 0.875, -0.750, 0.000, 1.000, 0.750, 0.000, 1.250, 1.000, -0.750, -1.000, 0.000, 0.625, 0.375, 0.000, -0.375, 0.875, 1.000, -1.250, 0.000, -1.250, -1.000, -0.750, 0.000, -0.625, 0.625, 0.000, 0.000, 0.000, 0.875, 0.000, -0.375, -1.000, 0.750, -0.750, 0.750, 0.375, -1.000, 1.125, -0.750, 0.750, 0.000, -0.750, 1.125, -1.000, 1.000, 0.000, -1.125, -1.375, -1.250, -0.750, 0.000, 0.000, -0.750, 1.125, 0.000, -0.500, 0.875, 0.375, 0.000, -0.375, -0.750, 0.000, 0.375, 0.000, 0.000, -0.875, -0.375, 0.000, -0.750, 0.875, 0.000, 1.125, 1.125, 0.375, 0.000, -1.250, 0.000, -0.875, 1.000, 0.500, 1.125, 0.375, -0.750, 0.000, 0.875, 0.000, 1.000, -0.625, 0.000, 0.000, -0.625, 0.000, -0.750, 1.000, 0.000, 0.500, 0.000, 0.000, 1.125, 0.875, 0.000, -0.375, -1.250, 0.000, -1.125, -0.375, 1.250, 0.000, 1.000, -1.000, 0.000, -0.375, 0.000, 0.750, 0.000, 0.875, 0.875, 0.375, 0.000, 1.000, 0.500, -0.750, -0.375, 1.125, 0.000, -0.750, 0.000, -1.250, -0.750, 1.375, -0.625, 0.625, -0.375, -0.500, -1.000, 0.750, 0.375, 0.000, 0.625, 1.250, -0.500, 1.250, -0.500, 0.750, -1.250, -1.375, 0.000, 0.500, 0.000, -1.250, -0.750, 0.000, 1.000, 0.750, 0.500, 0.875, 0.000, 0.000, -1.000, 1.125, 0.000, -0.375, -1.250, -0.750, 0.750, 0.000, 0.875, 0.000, 0.000, 0.000, 0.000, -0.875, 0.000, 0.000, 0.000, 1.250, 0.000, 0.000, -1.250, -1.125, -0.750, 0.875, 0.375, 0.000, -0.750, 0.000, 1.125, -0.875, -1.250, 1.125, 0.875, 0.750, -0.375, -1.000, 0.000, 0.750, 1.250, -0.375, 1.125, -0.375, -0.750, 0.000, 0.375, 0.500, 0.500, 0.000, -0.625, 0.375, -0.750, 0.000, 0.000, 0.625, 0.875, 1.250, 0.000, -0.375, 1.125, 0.000, 0.000, -0.750, -0.750, 1.125, 0.375, -1.000, -1.125, 0.375, 0.875, 0.000, 1.000, 0.000, -0.375, 0.625, -0.500, 1.250, 0.000, 0.375, 0.625, 0.875, -0.750, 0.000, -1.125, -1.125, 0.000, -0.875, 0.625, -0.750, -0.875, 0.625, 1.375, 0.000, 1.125, 1.250, 1.125, 1.250, -0.875, 1.000, 1.000, 0.875, -1.250, -0.375, 0.000, 0.000, 0.625, -0.750, -1.000, 0.000, -0.625, 0.000, 0.000, -0.750, -0.625, 0.500, 1.000, -1.125, 0.000, 0.000, -0.500, 0.875, -0.500, 0.875, 0.000, 0.625, 0.000, -0.625, 0.000, 0.625, 0.000, -0.625, 0.875, -1.125, -1.250, -0.500, 1.000, 0.875, -1.000, 0.875, -1.125, 0.375, 1.000, -0.875, 0.875, -1.375, 0.000, -0.625, 0.750, 0.375, -1.375, -0.625, -0.750, -0.875, -0.375, -1.250, 0.000, -0.375, -0.875, -1.125, 0.000, 0.500, 0.375, 0.000, 0.000, -1.125, 0.000, 0.750, 0.875, 1.000, 0.500, 1.000, 0.000, -1.125, 0.000, 0.875, 1.250, -0.750, -0.625, 1.250, 0.000, -0.875, 0.875, 0.000, 0.000, 0.000, -0.500, -0.625, 0.500, 0.875, 0.000, 0.000, 0.750, -0.875, -0.500, -0.375, -0.875, 0.500, -0.625, 0.500, 0.875, 0.000, 0.000, 1.000, -0.750, 1.000, 1.250, -0.500, -0.500, 1.125, 0.000, -0.375, -1.250, -0.875, -0.750, -1.000, -0.625, 0.750, 0.000, -0.500, -0.875, -1.125, -1.125, 0.000, -0.500, -0.625, -1.375, 0.375, 0.000, 0.625, 1.125, 0.375, 0.000, 0.375, -1.000, 0.875, 0.000, 0.000, 0.875, -0.750, 0.375, 0.000, 0.750, -0.500, -0.875, -0.500, 0.000, 0.625, -1.125, 0.875, 0.875, 0.000, 0.875, 1.000, -0.875, 1.250, 0.625, -1.250, -1.250, 0.875, 0.000, 1.000, 0.500, 1.250, 0.750, -1.250, -0.875, -0.375, 0.875, 0.500, -0.625, -1.000, -0.750, 0.000, -1.000, -0.875, 0.000, 0.000, 0.750, -0.625, 1.125, -0.875, 1.000, 0.625, 0.750, -1.250, -0.875, 0.000, 0.000, -1.375, -1.000, -0.500, -0.750, 1.125, 0.500, 0.000, 0.000, 0.000, 0.500, -0.750, 0.000, 0.375, 0.000, 1.125, -0.625, 0.000, -1.250, 1.000, -1.375, 0.000, -0.625, 0.875, -1.000, -1.250, 0.625, -0.500, 1.000, 1.000, -1.250, -0.375, 0.375, 0.000, 0.750, 0.000, 0.625, 1.000, 0.750, 0.875, -1.125, -0.875, -0.875, -0.500, -1.250, 0.000, 0.750, -1.125, 0.500, 0.000, 0.000, -0.625, -0.500, -1.125, -1.000, -0.750, -1.125, 1.250, -0.375, -0.375, 0.000, -0.375, 0.500, -0.750, 1.125, 0.000, 0.375, 0.625, 0.000, -1.250, 0.375, 0.000, 0.375, -0.375, 0.000, 0.000, 0.625, 1.000, 0.000, 1.000, 0.000, 0.625, -0.625, 1.375, -0.875, 0.750, -0.750, 0.000, 1.000, -0.375, -1.125, -1.250, -1.000, 1.000, -1.000, 0.000, 0.000, 0.375, 0.000, -0.750, -0.625, -0.750, 0.000, 1.000, 0.625, -1.125, 0.375, -0.875, 0.625, -0.500, -1.125, -0.500, -0.500, -1.125, -0.375, -0.500, -0.625, -1.000, -0.375, 0.000, 1.125, -0.750, 0.000, -1.125, 0.000, 0.500, 1.000, 1.125, -0.500, -1.375, 0.000, 0.000, -0.625, -0.375, 1.125, 1.375, 0.375, -0.875, 0.000, -1.125, 0.500, 0.750, 0.000, 0.000, 0.625, 0.000, 0.000, 0.500, 0.750, 0.000, -0.375, 1.125, -1.000, 0.500, 0.625, -0.625, -0.750, 0.000, 0.000, 1.250, 0.000, 0.375, -1.125, 0.750, -0.750, 1.000, -1.375, 0.750, 0.875, -0.750, 0.750, 0.500, 1.000, -1.375, 1.125, 0.000, 0.875, 0.750, -0.500, 1.125, -1.000, 1.125, 0.500, 0.500, 0.000, 0.625, 0.875, -0.625, 0.000, 0.000, 0.000, -1.000, -0.625, -1.125, -1.250, 0.750, 0.000, 0.000, -0.500, 0.500, 1.125, 0.375, 0.750, 0.750, -1.000, 0.500, -1.250, 0.750, 0.000, 0.000, -0.625, 0.000, 1.125, -1.250, 1.000, 0.625, 0.875, 0.625, 0.500, 1.375, -0.750, 0.625, 0.625, -1.125, -1.250, 1.125, -0.375, 1.125, 0.000, 0.375, 0.375, 0.000, -1.000, -0.875, -1.000, 0.625, 1.125, -1.250, 1.000, 0.500, -0.750, 0.875, -1.250, 0.000, -0.750, 1.000, -0.625, 0.000, 1.125, 0.000, 0.625, 0.375, -0.375, 1.000, 0.000, -0.875, 0.000, -0.500, 0.000, 0.625, 1.250, -1.125, 0.000, -0.875, 0.750, 0.000, 0.500, 0.875, 0.000, 1.125, -0.875, -0.500, -1.125, 0.000, 0.000, 0.000, 0.000, 0.875, -0.875, 0.000, 0.000, 0.000, 0.000, 0.000, 0.000, -1.000, 1.125, -0.750, 0.000, -0.875, 0.875, 0.750, 0.000, -1.125, -0.500, 0.000, 0.625, -1.000, -0.625, 0.000, 0.000, -0.375, 0.000, 0.500, -1.375, 0.000, 1.125, 0.000, -0.625, 0.000, 0.000, 1.375, 1.250, -1.000, 0.500, -1.000, 1.250, 0.000, 0.625, 0.000, 1.125, 0.000, 0.500, 0.750, 0.000, 0.000, 0.000, 0.000, 1.000, -1.000, 0.875, 0.000, -1.125, -1.375, -0.625, 0.750, 0.625, -1.375, -0.625, -0.875, -1.250, 0.375, 0.000, 0.750, 1.125, 1.000, -0.375, -1.125, 0.000, 1.375, -1.250, 0.000, 0.500, 0.875, -1.250, -1.000, 0.500, 0.000, 0.750, 0.000, -1.250, -1.000, -1.000, 0.750, -0.750, -1.000, -0.375, -0.500, -0.500, -0.875, 1.000, 0.375, 0.000, 0.500, 0.000, 1.000, -0.625, -1.000, -0.500, -1.250, 0.375, 0.000, 0.750, 0.000, 1.250, 0.000, 1.125, 0.375, -1.250, -1.000, -1.000, 0.875, -1.000, -0.750, -1.000, 0.625, -0.500, 1.125, 1.125, 1.125, 0.000, 0.000, 0.000, 0.000, 0.000, -0.750, 0.000, 0.750, 1.000, -1.125, 0.000, 1.250, -1.000, 0.000, -1.250, -1.250, 0.750, 1.000, -1.125, -0.500, -1.375, -1.125, 1.000, -0.625, 1.000, -0.750, -1.250, 0.625, -0.875, 0.000, 0.000, -0.625, -0.750, 0.000, 0.000, -0.875, 0.000, 0.875, 1.125, 0.000, 0.750, 1.000, -0.875, 0.375, 0.500, -0.750, -0.750, -1.125, -1.375, -0.750, 0.000, -0.500, 1.125, 0.625, -0.750, -0.875, 1.375, 0.875, 0.500, 0.000, 1.250, 0.500, 0.000, -1.250, 0.625, 0.750, 0.500, 1.000, 0.500, 1.000, 0.500, -0.500, -0.625, -1.375, 0.000, 0.875, 0.625, 1.375, -1.125, -0.375, 0.000, 0.750, -0.625, 1.125, -0.875, -1.000, -0.875, -0.750, -0.875, 0.000, 0.375, 1.375, 1.000, 0.000, 0.000, 0.625, 0.500, -1.250, 0.625, 0.000, 0.750, -0.625, 0.375, 0.750, -1.250, 1.000, 0.875, 0.500, 0.000, 0.750, -1.000, -1.125, 0.875, 1.125, -0.750, 0.875, 0.000, -0.625, -0.625, -0.750, -1.000, 1.000, 1.000, 0.375, 1.000, 0.000, -0.500, -0.625, 1.250, -0.625, 1.000, 0.875, 0.500, -0.750, 0.000, 0.875, 0.500, -0.875, 0.000, 0.000, 0.000, -0.375, 0.875, 0.000, -0.500, -0.875, 0.500, 0.000, 1.250, -0.750, -0.375, 0.000, -1.250, -1.000, -0.875, 0.500, -0.500, 0.000, 0.000, -1.250, 0.000, 0.625, 1.125, 0.000, 0.000, -1.250, -0.875, 1.125, 1.125, 0.625, 0.000, 0.000, 1.000, 0.000, 0.875, 0.000, 0.750, 0.000, 0.625, 0.875, 0.625, 1.000, 0.625, 1.125, 0.000, 0.625, -0.375, -0.875, -0.500, -0.500, 1.125, 0.000, 0.000, 0.875, 0.000, 0.000, -1.125, 1.000, -0.750, 0.500, -1.250, 0.000, 0.375, 0.625, -0.375, -0.875, -0.875, 0.000, -1.250, -1.250, -1.125, 0.750, 0.000, -1.250, -0.750, 1.250, -1.000, 0.000, 0.000, 0.000, 0.000, -0.625, 1.125, 0.000, 0.000, 0.000, -0.500, 1.125, 0.000, 0.375, 1.250, 0.000, 0.500, -1.000, -0.750, 0.750, 1.125, -0.375, -0.750, 0.000, 0.000, 0.875, 1.250, 0.750, 0.500, 1.375, 1.000, -0.625, -0.750, 1.125, -0.875, 0.750, 0.000, 1.250, 0.000, 1.125, 0.000, 0.000, -1.375, 0.000, -1.000, 0.000, 1.125, 0.000, -1.000, -1.125, 0.000, 0.750, 0.000, 0.750, 0.750, -1.000, 0.000, 1.125, -0.500, -0.625, -0.625, 0.500, -1.125, 0.750, -0.625, -0.875, 0.000, 0.000, -1.125, -0.750, -0.750, -0.500, 0.750, -1.375, 0.375, -0.875, -0.500, 0.000, -0.500, -0.500, -0.750, 0.625, -0.625, -1.000, 1.125, -1.375, 1.125, 0.750, 0.000, 1.250, 0.000, -1.125, 0.625, -0.875, -0.875, -1.125, 0.000, 0.500, 1.000, -0.875, 1.375, -1.000, 0.000, -0.875, -0.500, 0.625, 0.000, 0.000, 0.375, 1.250, -0.625, 0.875, 1.000, 0.625, -0.375, -1.125, 0.500, -1.250, 0.000, 0.500, -1.125, -0.375, 0.000, 0.000, 0.500, 0.375, -0.875, 0.500, -1.125, -0.875, 1.375, -0.750, 0.625, 0.000, -1.000, 0.000, -0.375, 0.000, 1.250, -0.750, 0.625, -0.625, -0.375, -0.750, -0.750, -0.500, 1.125, 0.000, -1.125, -0.375, -1.375, -0.750, -1.250, 1.125, 0.000, 0.375, 0.500, 1.125, -1.000, 0.500, 0.000, 0.500, 0.000, -0.875, 0.750, 0.500, 0.625, 1.000, -0.625, 1.125, 0.375, 1.250, -1.250, 0.000, -1.125, 1.000, -0.750, 1.125, 0.000, -1.125, 1.250, 0.750, 0.000, -1.125, -1.375, 1.250, 0.000, 0.500, 0.000, -0.500, 1.125, -0.625, -0.750, 1.000, 0.750, -1.000, 0.000, 0.500, 0.000, -0.875, -0.500, 0.500, 0.000, 0.000, 0.375, 0.000, -0.625, -0.875, 1.250, 0.000, -0.750, -1.000, 0.000, 0.500, 1.250, -0.750, 1.250, -1.000, 0.625, -1.125, 0.875, 0.000, 0.500, 0.000, 0.000, -1.000, 0.000, -0.625, 0.500, 0.875, -1.000, 0.000, -0.750, -1.125, 0.000, 1.125, 1.000, -0.375, 0.000, -0.625, -1.250, 0.500, 0.625, -0.375, 0.000, -1.125, 0.000, -0.625, 0.000, -0.375, 0.000, 0.000, 0.500, 0.875, 1.250, 1.000, -0.750, 0.625, 0.750, 0.000, 0.000, 1.375, 0.500, 0.625, 0.000, -1.250, -1.000, 0.000, 0.375, -0.875, -0.625, 1.375, 0.875, 0.000, -0.500, -1.125, 0.375, 0.750, -0.625, 0.500, 0.500, 0.000, -1.125, -0.375, 0.000, 0.375, 0.625, 0.000, 0.000, 0.875, -0.625, 0.000, 0.000, 0.000, -1.125, 0.000, 0.375, 0.625, 0.000, 0.000, -0.500, -0.375, -1.125, 1.250, -0.375, -1.000, -0.375, 0.500, 1.250, -0.375, -0.625, -1.000, -0.875, 0.000, 0.500, 0.875, 0.625, 0.625, 1.250, -0.625, 0.000, 0.000, 1.000, 1.250, -0.500, 0.000, -0.625, 0.375, 1.000, -1.000, 1.000, 0.000, -1.000, -0.875, 0.750, 0.000, 0.000, 0.875, 0.750, -0.375, 0.000, 0.875, -0.375, -0.375, 0.000, 0.000, 0.000, 0.000, 1.125, 0.000, 1.000, -1.000, -0.750, 0.750, 1.000, -1.250, 1.125, -0.750, 0.000, 0.875, 0.375, 0.000, 1.000, 0.750, 0.000, 0.000, 1.250, -1.375, 1.125, -0.375, -0.500, -0.625, 0.625, -0.375, -0.375, -0.500, 0.750, -0.375, -0.750, 1.125, 1.250, 0.000, -0.375, -0.750, 1.125, -0.500, 0.500, 0.000, -0.625, 0.000, -0.625, 0.500, 0.375, 0.000, -1.000, 0.625, -0.375, 0.000, -1.125, 0.000, 0.500, 1.250, -0.625, 1.125, 0.000, -0.625, 1.000, -0.625, -0.875, 0.875, 0.375, 0.000, 1.125, 1.125, 0.000, -1.000, -0.500, 0.000, -0.625, 0.625, -1.000, 0.750, 0.000, -0.625, 1.000, -0.375, 1.125, -0.875, 0.375, 1.125, 1.125, 0.625, 0.625, 1.125, -0.375, 0.000, 0.000, -0.750, -0.875, 0.500, 0.625, -1.125, 0.000, 0.500, -1.125, 1.000, 0.000, -1.000, 0.000, 1.250, 0.000, 0.875, 0.000, 0.000, 0.375, 1.125, -0.500, -0.750, 1.125, 0.750, 1.000, 1.250, -0.625, 0.000, 0.500, 0.625, 0.625, 1.250, -0.875, 0.625, -0.625, 0.000, -0.875, -0.375, -0.500, -0.375, -1.125, 1.000, 0.000, 0.000, 0.375, 0.500, 0.000, 0.000, -1.000, 0.875, -0.875, -1.000, 0.875, 0.625, -0.875, 1.000, 0.000, 0.375, 0.000, 0.000, 0.875, -0.375, -1.250, 1.250, -0.750, 0.750, 0.875, 0.000, 0.625, 