//Numpy array shape [64, 32]
//Min -0.250000000000
//Max 0.250000000000
//Number of zeros 785

#ifndef W6_H_
#define W6_H_

#ifndef __SYNTHESIS__
weight6_t w6[2048];
#else
weight6_t w6[2048] = {0.000, 0.250, 0.125, 0.125, 0.000, 0.125, -0.125, 0.000, -0.250, 0.125, -0.125, 0.125, 0.000, 0.125, 0.000, 0.000, 0.125, -0.125, 0.000, 0.125, 0.000, 0.000, 0.000, 0.125, 0.000, -0.125, 0.000, -0.125, 0.000, 0.000, 0.125, -0.125, 0.000, 0.000, -0.125, 0.125, 0.000, 0.000, 0.000, 0.000, 0.125, 0.125, 0.000, 0.000, -0.125, 0.000, 0.000, 0.000, -0.125, 0.125, -0.125, 0.125, 0.125, -0.125, 0.125, -0.125, -0.125, 0.000, -0.125, 0.125, 0.125, -0.125, -0.125, 0.000, -0.125, 0.000, -0.125, 0.000, -0.125, 0.000, 0.125, 0.125, -0.125, -0.125, 0.000, 0.000, 0.000, 0.000, 0.000, 0.000, 0.125, 0.000, 0.000, 0.125, -0.125, 0.125, 0.000, 0.000, -0.125, -0.125, 0.000, 0.000, -0.125, 0.000, 0.000, -0.125, -0.125, 0.000, 0.125, 0.000, 0.250, 0.125, 0.000, 0.000, 0.000, -0.125, -0.125, 0.125, 0.000, 0.125, 0.125, 0.125, 0.250, 0.125, 0.000, 0.000, -0.125, -0.125, 0.125, 0.000, 0.125, 0.000, 0.000, 0.000, -0.125, 0.000, 0.000, -0.125, 0.125, -0.125, 0.125, 0.000, -0.125, 0.125, 0.000, 0.125, 0.000, -0.125, -0.125, 0.000, 0.250, 0.000, -0.125, 0.000, 0.125, 0.250, 0.125, 0.000, -0.125, 0.125, -0.125, 0.125, 0.000, 0.125, -0.125, -0.125, 0.000, -0.125, -0.125, -0.125, 0.125, 0.125, 0.000, -0.250, 0.000, -0.125, 0.000, 0.000, 0.000, 0.000, -0.125, -0.125, 0.000, 0.000, 0.000, -0.125, -0.250, 0.125, 0.000, 0.125, 0.000, 0.000, -0.125, 0.000, 0.000, 0.000, -0.125, 0.000, 0.000, 0.250, 0.000, 0.125, 0.000, -0.125, -0.125, 0.125, 0.250, 0.000, 0.000, -0.125, 0.125, 0.000, 0.125, 0.125, -0.125, 0.000, 0.125, 0.000, 0.125, -0.125, 0.125, -0.125, 0.000, 0.125, 0.000, 0.125, -0.125, 0.125, -0.125, -0.125, 0.000, 0.000, 0.000, -0.125, 0.000, 0.000, 0.125, 0.000, -0.125, 0.125, 0.000, -0.125, -0.125, -0.125, 0.000, -0.125, -0.125, -0.125, -0.125, 0.000, 0.000, 0.250, 0.125, -0.125, 0.000, 0.125, 0.125, 0.125, 0.125, -0.250, 0.125, -0.125, 0.000, 0.000, 0.125, 0.125, -0.125, 0.250, 0.000, -0.125, -0.250, 0.000, 0.000, -0.125, 0.125, 0.125, 0.125, -0.125, -0.250, 0.000, 0.125, 0.125, 0.000, -0.125, -0.125, 0.000, -0.125, 0.000, -0.125, 0.125, 0.000, -0.125, 0.125, -0.125, -0.125, 0.125, 0.000, 0.125, 0.000, 0.125, 0.125, 0.000, 0.125, -0.125, 0.000, 0.000, -0.125, -0.125, 0.000, -0.125, 0.125, -0.125, -0.125, -0.125, 0.000, 0.250, 0.000, 0.000, -0.125, 0.000, 0.000, 0.000, 0.000, 0.000, -0.125, 0.125, 0.000, 0.125, 0.000, -0.125, 0.125, 0.000, 0.125, 0.000, 0.125, -0.125, 0.000, 0.125, -0.125, -0.250, -0.125, -0.250, 0.125, -0.125, -0.125, 0.125, -0.125, 0.125, -0.125, 0.000, 0.125, -0.250, -0.125, -0.125, 0.000, -0.125, -0.125, 0.000, 0.125, -0.125, 0.125, 0.125, 0.125, 0.125, 0.125, 0.000, 0.000, 0.125, -0.125, -0.125, -0.125, 0.125, 0.125, 0.000, 0.000, -0.125, 0.125, -0.125, -0.125, -0.125, -0.125, 0.000, 0.125, 0.125, 0.000, -0.250, 0.125, 0.125, -0.125, 0.000, 0.125, 0.125, 0.000, 0.125, -0.125, 0.000, -0.125, 0.125, 0.125, -0.125, 0.000, 0.000, -0.125, 0.000, -0.125, 0.000, -0.125, 0.000, -0.125, 0.125, 0.125, 0.000, -0.125, 0.000, 0.000, 0.125, 0.125, 0.125, 0.000, 0.000, 0.125, -0.125, 0.125, -0.250, -0.125, 0.000, 0.125, 0.125, -0.125, -0.250, -0.250, -0.125, -0.125, 0.000, 0.000, -0.125, 0.125, 0.125, -0.250, -0.125, 0.125, 0.125, 0.000, -0.125, 0.000, 0.000, 0.125, 0.125, 0.125, 0.000, 0.125, -0.125, 0.125, -0.125, 0.125, 0.000, 0.000, 0.125, 0.125, 0.000, 0.000, 0.000, -0.125, 0.125, 0.000, 0.125, -0.125, -0.125, -0.125, 0.125, 0.125, 0.000, -0.125, 0.125, 0.125, 0.125, 0.125, 0.125, 0.125, 0.000, 0.000, 0.125, 0.125, 0.000, 0.125, -0.250, -0.125, -0.125, -0.125, -0.125, 0.125, 0.125, 0.000, -0.125, 0.000, -0.125, 0.125, -0.125, 0.125, 0.125, 0.000, 0.000, 0.000, 0.125, 0.125, 0.125, 0.000, 0.125, 0.000, 0.000, 0.000, 0.125, 0.000, 0.125, -0.125, -0.125, 0.125, 0.000, -0.125, 0.125, -0.125, -0.250, 0.000, 0.000, 0.000, 0.000, -0.125, 0.000, 0.000, 0.000, 0.250, -0.125, 0.000, 0.125, 0.000, 0.000, -0.125, 0.000, -0.125, -0.125, -0.125, -0.125, 0.125, -0.125, -0.125, 0.000, 0.125, 0.125, 0.000, 0.000, 0.000, 0.000, 0.000, 0.000, 0.125, 0.000, -0.125, -0.125, 0.000, -0.125, 0.000, 0.000, -0.125, 0.000, -0.125, 0.125, -0.125, 0.000, 0.125, 0.000, -0.125, -0.250, 0.000, 0.000, 0.000, 0.000, -0.125, -0.125, 0.000, 0.125, 0.000, 0.250, 0.125, 0.125, 0.000, 0.000, 0.125, 0.125, 0.125, 0.125, 0.250, 0.125, -0.125, 0.000, 0.000, 0.000, 0.000, -0.125, 0.125, -0.125, -0.125, -0.125, 0.125, -0.125, 0.125, 0.000, 0.000, -0.250, 0.000, 0.250, 0.000, -0.125, 0.000, 0.125, -0.125, 0.000, 0.000, -0.125, 0.000, 0.125, 0.000, 0.000, 0.125, -0.125, 0.000, -0.125, 0.000, 0.000, -0.125, 0.000, 0.000, 0.250, 0.000, -0.125, -0.125, -0.250, 0.125, 0.000, 0.000, -0.250, 0.125, 0.000, 0.000, -0.125, 0.000, 0.000, -0.125, 0.000, 0.000, 0.000, 0.125, -0.125, 0.000, 0.125, 0.000, -0.125, 0.000, 0.125, 0.000, 0.000, 0.000, 0.000, 0.000, 0.125, 0.000, 0.000, 0.125, 0.125, 0.125, 0.000, 0.125, 0.000, 0.000, 0.000, 0.000, 0.000, 0.000, 0.125, 0.125, 0.125, 0.125, 0.125, -0.125, 0.000, -0.125, -0.125, -0.125, 0.000, 0.125, 0.000, -0.125, 0.125, 0.125, -0.125, 0.125, 0.125, -0.125, 0.125, -0.125, 0.125, 0.000, 0.000, 0.000, -0.125, 0.125, -0.125, 0.125, 0.000, -0.125, -0.125, 0.000, -0.125, -0.125, -0.125, -0.125, -0.250, 0.125, -0.125, 0.125, 0.125, 0.125, -0.125, -0.125, -0.125, 0.250, 0.000, 0.250, 0.125, 0.125, 0.125, 0.125, -0.125, 0.125, 0.125, -0.125, 0.125, 0.000, 0.000, 0.250, 0.125, -0.125, 0.125, 0.125, -0.125, 0.000, -0.125, -0.125, 0.125, -0.125, 0.125, 0.000, -0.125, 0.000, -0.125, -0.125, 0.000, 0.000, 0.125, -0.125, -0.250, 0.000, 0.000, 0.125, 0.000, -0.125, 0.125, 0.000, 0.000, 0.125, 0.000, 0.000, 0.000, 0.125, 0.000, 0.125, -0.125, -0.125, 0.000, 0.000, 0.000, 0.000, 0.125, 0.250, -0.250, 0.000, -0.250, -0.125, 0.000, -0.125, 0.000, 0.000, 0.000, 0.125, 0.125, 0.125, -0.125, -0.125, -0.125, -0.125, 0.250, 0.000, 0.125, -0.125, 0.250, 0.125, 0.125, 0.125, 0.125, 0.000, 0.000, 0.000, -0.125, 0.125, 0.000, 0.125, 0.125, 0.000, -0.125, -0.125, -0.125, 0.000, 0.000, -0.125, 0.000, 0.000, -0.125, 0.125, -0.125, 0.000, 0.125, 0.125, -0.250, 0.000, 0.000, -0.125, 0.000, 0.000, -0.250, 0.125, 0.125, 0.000, 0.000, -0.125, -0.125, -0.125, 0.000, 0.125, 0.125, -0.125, -0.125, -0.125, 0.000, 0.000, 0.000, 0.000, 0.000, 0.000, -0.125, 0.000, 0.000, 0.000, 0.125, -0.125, 0.000, 0.000, 0.000, -0.125, -0.125, 0.125, -0.125, -0.125, -0.125, 0.125, 0.125, 0.000, -0.125, 0.000, 0.000, 0.000, 0.125, 0.125, 0.000, -0.125, -0.125, 0.000, 0.250, 0.125, 0.000, 0.125, 0.000, 0.125, 0.125, 0.125, 0.125, 0.000, 0.125, 0.125, 0.000, -0.125, 0.000, -0.125, 0.000, 0.125, 0.125, -0.125, -0.125, 0.000, -0.125, 0.000, 0.125, 0.250, -0.125, 0.000, 0.000, -0.125, 0.000, -0.125, 0.000, 0.000, 0.000, 0.000, 0.000, 0.250, 0.000, 0.000, 0.000, -0.125, 0.000, 0.125, -0.125, 0.000, 0.125, 0.125, -0.125, -0.125, 0.000, 0.000, -0.125, 0.000, 0.000, 0.125, 0.125, 0.000, -0.125, -0.125, 0.125, 0.000, 0.125, -0.125, -0.125, 0.125, -0.125, 0.125, 0.000, -0.250, 0.125, 0.000, -0.125, -0.125, -0.125, 0.000, -0.125, 0.000, 0.000, 0.125, 0.000, 0.000, 0.125, 0.125, 0.000, -0.125, 0.250, 0.125, 0.125, 0.000, 0.000, 0.000, -0.125, 0.125, 0.000, 0.000, -0.125, 0.000, 0.000, 0.125, 0.000, -0.125, 0.000, 0.000, 0.000, 0.000, 0.000, -0.125, 0.125, 0.125, -0.125, 0.125, -0.250, -0.125, 0.000, 0.000, 0.000, 0.000, 0.125, 0.000, 0.000, -0.125, 0.250, 0.125, 0.000, 0.125, 0.000, 0.125, 0.000, -0.125, -0.125, -0.125, 0.125, -0.125, -0.125, -0.125, 0.000, 0.000, 0.125, 0.125, 0.250, -0.125, -0.125, 0.125, 0.000, -0.125, 0.000, 0.125, 0.000, 0.000, 0.000, 0.000, 0.125, -0.125, 0.125, 0.000, 0.125, 0.000, 0.125, 0.000, 0.125, 0.000, -0.125, 0.125, 0.000, 0.125, 0.125, 0.000, -0.125, -0.250, 0.125, 0.000, -0.125, 0.125, 0.000, -0.125, 0.000, -0.125, 0.125, 0.000, 0.000, 0.125, 0.000, 0.000, 0.125, 0.000, 0.125, 0.000, 0.000, -0.125, 0.000, -0.250, 0.000, 0.125, 0.125, 0.000, 0.125, -0.125, 0.000, -0.125, 0.000, 0.000, 0.000, 0.000, 0.125, 0.125, 0.125, 0.000, 0.000, 0.000, 0.000, -0.125, 0.000, 0.125, -0.125, 0.000, 0.125, 0.000, 0.125, 0.000, 0.125, -0.125, -0.125, 0.125, 0.125, 0.125, 0.125, 0.125, 0.000, 0.125, 0.000, -0.125, 0.000, -0.125, 0.000, 0.125, -0.125, 0.000, 0.000, -0.125, 0.000, 0.125, -0.125, 0.000, -0.125, 0.000, -0.125, 0.000, 0.125, -0.250, 0.000, 0.000, 0.250, 0.125, 0.125, 0.000, -0.125, -0.125, 0.000, 0.000, 0.000, -0.125, 0.125, 0.250, 0.250, 0.125, 0.125, 0.125, -0.125, 0.125, -0.125, 0.000, 0.250, 0.125, 0.000, 0.000, 0.125, 0.000, 0.125, 0.125, 0.125, 0.125, -0.125, 0.000, -0.125, 0.125, 0.000, 0.125, 0.125, 0.000, -0.125, -0.125, 0.125, -0.125, 0.000, 0.000, 0.000, -0.125, 0.000, 0.125, 0.000, 0.000, 0.125, 0.000, -0.125, 0.000, 0.125, 0.000, 0.000, 0.000, -0.125, 0.000, 0.000, 0.000, 0.000, 0.000, 0.000, 0.125, 0.125, 0.125, 0.000, 0.125, 0.000, 0.000, 0.000, 0.125, 0.000, 0.000, 0.000, 0.000, 0.000, 0.000, -0.125, 0.000, 0.000, 0.125, -0.250, 0.000, 0.000, 0.000, 0.000, 0.000, -0.125, 0.000, -0.125, 0.250, -0.125, 0.000, -0.125, 0.000, 0.000, 0.125, -0.125, -0.125, 0.125, 0.125, -0.125, -0.125, 0.125, -0.250, 0.125, 0.250, -0.125, 0.000, 0.125, 0.000, -0.125, 0.000, 0.125, 0.125, 0.125, 0.000, 0.125, 0.125, -0.125, 0.000, 0.125, 0.000, 0.125, 0.125, 0.000, 0.000, 0.000, 0.125, -0.125, -0.250, -0.125, -0.125, 0.000, -0.125, 0.125, 0.125, 0.000, -0.250, 0.000, -0.125, 0.125, 0.000, 0.000, 0.125, -0.125, 0.125, 0.000, 0.000, 0.000, -0.125, 0.000, 0.125, 0.000, -0.125, -0.125, 0.000, 0.000, 0.000, -0.250, -0.125, -0.125, 0.000, 0.000, 0.125, 0.000, -0.125, -0.125, 0.000, -0.125, 0.125, 0.125, 0.000, 0.000, 0.000, 0.125, 0.125, 0.250, 0.000, -0.125, -0.125, -0.125, 0.000, 0.125, 0.000, 0.125, -0.125, 0.000, 0.125, 0.125, 0.000, 0.125, 0.000, 0.000, -0.250, 0.125, 0.125, -0.125, 0.250, 0.000, 0.000, 0.000, 0.125, 0.125, -0.125, 0.000, -0.125, 0.250, 0.000, -0.125, 0.125, 0.000, 0.000, 0.125, -0.125, 0.000, -0.125, 0.000, -0.125, 0.125, 0.125, 0.000, -0.125, 0.000, -0.125, -0.125, 0.000, 0.000, -0.125, 0.125, -0.125, 0.125, -0.125, 0.125, 0.125, 0.000, 0.125, 0.125, 0.000, -0.125, 0.000, 0.000, -0.125, 0.125, -0.125, 0.250, 0.000, 0.000, -0.125, 0.000, -0.250, 0.000, -0.125, 0.000, 0.125, -0.125, -0.125, 0.125, 0.125, 0.125, -0.125, -0.125, 0.125, -0.125, 0.125, -0.125, 0.000, 0.125, -0.125, -0.250, -0.125, 0.000, 0.125, 0.125, 0.125, 0.125, 0.000, 0.000, -0.125, -0.125, -0.125, 0.125, 0.125, 0.000, 0.125, -0.125, -0.250, 0.125, -0.125, -0.125, 0.000, 0.250, 0.000, 0.125, 0.000, 0.000, 0.125, -0.125, -0.125, -0.125, -0.125, 0.000, 0.000, 0.000, 0.000, 0.000, 0.125, 0.000, 0.000, 0.125, 0.125, 0.000, 0.000, 0.250, 0.125, -0.125, 0.125, 0.125, -0.125, 0.000, 0.000, 0.125, 0.000, 0.000, 0.000, -0.125, -0.125, -0.125, 0.125, -0.125, 0.250, 0.000, -0.125, -0.125, -0.125, -0.125, 0.000, -0.125, -0.125, -0.125, 0.000, 0.125, 0.125, -0.125, -0.125, 0.000, -0.125, 0.125, 0.125, 0.000, 0.000, -0.125, -0.125, 0.125, 0.125, 0.000, -0.125, 0.125, 0.000, 0.250, 0.000, -0.250, -0.125, -0.250, -0.125, 0.000, 0.125, 0.125, -0.125, 0.125, 0.125, 0.125, 0.125, 0.000, -0.125, -0.125, 0.125, 0.125, 0.125, 0.000, 0.000, -0.125, 0.000, -0.125, 0.000, 0.000, -0.125, -0.125, 0.000, 0.000, 0.125, -0.125, -0.125, 0.000, 0.000, -0.125, 0.000, 0.250, 0.125, -0.125, 0.000, 0.125, 0.000, 0.000, 0.125, -0.125, 0.000, -0.125, 0.125, 0.000, -0.125, -0.125, 0.000, -0.125, -0.125, 0.000, 0.125, -0.125, 0.125, 0.125, 0.125, 0.125, 0.125, 0.000, 0.000, -0.125, 0.000, 0.250, 0.250, 0.000, 0.125, 0.000, 0.125, -0.125, 0.000, 0.000, 0.125, 0.000, 0.000, 0.000, 0.125, -0.125, -0.125, -0.125, -0.125, 0.125, 0.125, -0.125, -0.125, 0.250, -0.125, -0.250, -0.125, 0.000, 0.000, 0.125, 0.125, -0.125, -0.125, 0.000, 0.125, 0.125, 0.125, 0.250, 0.125, 0.125, 0.000, 0.125, 0.000, 0.000, 0.000, 0.125, -0.125, 0.125, 0.125, 0.125, -0.250, -0.125, 0.250, -0.125, 0.000, 0.250, 0.125, 0.125, 0.125, 0.125, 0.125, 0.000, 0.000, -0.125, 0.000, 0.125, -0.125, 0.000, -0.125, 0.000, 0.000, -0.125, -0.125, 0.125, -0.125, 0.125, 0.125, 0.000, 0.125, -0.125, 0.250, 0.000, 0.000, 0.125, 0.125, 0.125, 0.000, -0.125, -0.125, 0.000, 0.000, 0.125, 0.250, 0.125, 0.125, -0.125, -0.125, 0.000, 0.125, 0.250, 0.000, 0.000, 0.125, -0.250, 0.000, 0.000, -0.125, 0.125, 0.000, 0.000, 0.250, 0.000, -0.125, 0.000, 0.125, -0.125, -0.250, 0.125, 0.000, -0.125, -0.125, 0.125, 0.000, -0.125, -0.250, 0.125, 0.000, -0.125, -0.125, 0.125, 0.000, -0.125, 0.250, 0.125, 0.000, 0.000, -0.125, 0.125, 0.000, 0.125, 0.125, 0.125, 0.125, -0.125, 0.000, 0.000, -0.125, -0.125, -0.125, -0.250, 0.000, 0.250, -0.125, 0.000, 0.000, 0.125, -0.125, 0.125, -0.250, -0.125, -0.125, 0.125, -0.125, -0.125, 0.000, 0.125, -0.125, 0.000, 0.125, -0.250, 0.000, -0.125, 0.125, 0.000, 0.125, 0.000, -0.125, 0.000, -0.125, 0.000, 0.125, -0.125, 0.125, -0.125, 0.000, -0.125, 0.000, 0.125, 0.125, 0.125, -0.250, -0.125, 0.125, 0.125, 0.000, 0.125, 0.000, -0.125, -0.250, 0.000, 0.000, 0.000, -0.125, 0.250, 0.000, 0.000, 0.125, 0.125, 0.125, 0.000, 0.000, 0.125, 0.125, 0.000, 0.000, 0.125, 0.125, 0.000, 0.125, 0.000, -0.125, 0.125, -0.125, 0.000, 0.125, 0.125, 0.125, 0.000, 0.000, -0.125, 0.000, -0.125, 0.125, 0.000, 0.000, 0.000, 0.125, -0.125, -0.125, 0.000, -0.125, 0.000, 0.000, -0.125, 0.000, -0.125, -0.125, -0.125, -0.125, 0.000, -0.125, -0.125, 0.125, 0.125, -0.125, 0.000, 0.125, 0.125, 0.000, -0.125, -0.125, 0.000, 0.000, -0.125, 0.125, 0.000, 0.000, 0.125, 0.000, 0.000, 0.000, -0.125, 0.250, 0.000, 0.000, 0.000, -0.125, 0.000, 0.000, -0.125, -0.250, 0.000, 0.125, -0.125, 0.000, 0.000, -0.125, 0.000, -0.125, 0.125, -0.125, -0.125, 0.125, 0.000, -0.250, 0.250, -0.125, 0.000, 0.000, -0.125, -0.125, -0.125, 0.000, 0.000, 0.000, 0.000, -0.125, 0.125, -0.125, 0.125, 0.000, -0.125, 0.000, 0.000, 0.125, -0.125, 0.125, 0.125, 0.000, -0.125, 0.125, 0.000, 0.000, 0.125, -0.125, 0.000, -0.125, 0.125, 0.125, 0.000, -0.125, 0.125, 0.000, -0.125, 0.000, 0.125, -0.250, 0.000, 0.000, 0.125, 0.000, 0.000, 0.000, 0.125, 0.000, 0.125, 0.000, -0.125, -0.250, -0.250, 0.000, 0.125, -0.125, 0.125, -0.125, 0.000, 0.000, -0.125, 0.000, 0.125, 0.000, 0.125, 0.125, 0.000, 0.125, 0.000, 0.000, 0.000, 0.125, -0.125, 0.125, 0.000, -0.125, 0.125, -0.125, 0.125, 0.125, 0.125, -0.125, 0.000, 0.125, 0.000, -0.125, 0.000, -0.125, 0.000, 0.000, 0.000, 0.125, 0.000, 0.000, 0.125, 0.125, 0.000, 0.000, 0.000, 0.000, -0.125, -0.125, 0.125, 0.000, 0.000, 0.000, 0.000, -0.125, 0.000, 0.000, -0.250, -0.125, 0.000, 0.125, -0.125, 0.000, 0.125, -0.125, 0.000, -0.125, -0.125, 0.000, 0.125, 0.000, -0.125, 0.125, 0.125, 0.125, -0.125, -0.125, -0.125, 0.125, 0.125, -0.125, 0.125, 0.125, 0.000, 0.125, 0.000, 0.125, 0.125, 0.125, 0.000, 0.125, 0.000, 0.000, -0.125, 0.125, -0.125, 0.000, 0.125, 0.125, 0.125, 0.000, 0.000, -0.125, -0.125, 0.125, 0.000, 0.000, 0.000, 0.000, -0.125, 0.125, 0.125, 0.125, 0.000, 0.000, 0.000, 0.000, 0.000, -0.125, 0.125, 0.000, 0.125, 0.125, 0.000, 0.125, 0.000, -0.125, -0.125, -0.125, 0.000, -0.125, 0.000, -0.125, -0.125, 0.000, 0.000, 0.125, -0.125, 0.000, 0.000, 0.125, 0.125};
#endif

#endif
