//Numpy array shape [32, 4]
//Min -0.250000000000
//Max 0.250000000000
//Number of zeros 64

#ifndef W9_H_
#define W9_H_

#ifndef __SYNTHESIS__
weight9_t w9[128];
#else
weight9_t w9[128] = {-0.125, 0.000, 0.000, 0.000, 0.000, 0.000, 0.000, 0.000, 0.000, -0.250, -0.250, -0.250, 0.000, -0.125, -0.125, 0.000, 0.000, 0.125, 0.000, 0.125, 0.000, -0.125, -0.125, 0.000, 0.000, 0.000, 0.000, 0.125, 0.000, 0.000, 0.125, -0.125, -0.125, 0.000, 0.000, 0.125, -0.125, -0.250, 0.000, -0.125, -0.125, -0.125, -0.125, -0.125, -0.125, -0.125, 0.000, -0.125, -0.250, -0.125, 0.000, -0.125, 0.000, 0.000, -0.125, 0.000, -0.125, 0.000, 0.000, 0.000, 0.000, 0.000, 0.000, 0.000, 0.000, 0.125, 0.125, 0.125, 0.000, 0.000, 0.000, 0.000, 0.125, 0.000, 0.000, 0.000, 0.125, 0.125, 0.000, 0.125, 0.000, -0.125, 0.000, 0.000, -0.125, -0.250, -0.125, -0.250, 0.125, 0.125, 0.250, 0.250, -0.125, 0.000, 0.000, 0.000, 0.000, 0.125, 0.125, 0.125, -0.125, 0.125, 0.000, 0.125, 0.000, 0.000, 0.000, 0.000, 0.000, -0.125, 0.000, -0.125, 0.000, 0.000, 0.000, 0.000, 0.250, 0.125, 0.125, 0.125, 0.000, 0.000, 0.125, 0.000, -0.125, 0.125, 0.125, 0.125};
#endif

#endif
